<?xml version="1.0"?>
<opencv_storage>
<stage10>
  <maxWeakCount>41</maxWeakCount>
  <stageThreshold>-8.2636606693267822e-01</stageThreshold>
  <weakClassifiers>
    <_>
      <internalNodes>
        0 -1 1041 -907099616 10641186 1789977600 548075168 1138648832
        5633108 1153200144 1080227587</internalNodes>
      <leafValues>
        -6.1043284833431244e-02 6.5391761064529419e-01</leafValues></_>
    <_>
      <internalNodes>
        0 -1 69 -334839574 243450272 -1605353440 -1531944160 1179128486
        1155549504 -238917981 1664349175</internalNodes>
      <leafValues>
        -2.1812543272972107e-01 3.0866584181785583e-01</leafValues></_>
    <_>
      <internalNodes>
        0 -1 3227 -325951915 -2113438124 -298584205 677954845 -792769233
        -1156619477 -2064727634 -1996818885</internalNodes>
      <leafValues>
        -1.8537008762359619e-01 2.9978755116462708e-01</leafValues></_>
    <_>
      <internalNodes>
        0 -1 115 -1901564195 -2008487306 -1119950985 -322417359
        -371833521 -113051662 -1402518153 -575244331</internalNodes>
      <leafValues>
        -1.9137714803218842e-01 2.8145921230316162e-01</leafValues></_>
    <_>
      <internalNodes>
        0 -1 361 -13167177 -1463132554 -742818826 -287778832 466949203
        -805346739 1149784388 -34441871</internalNodes>
      <leafValues>
        -2.4665778875350952e-01 2.0799082517623901e-01</leafValues></_>
    <_>
      <internalNodes>
        0 -1 3110 490371577 -1579992655 -42833615 993386268 2092838649
        -694755457 -1135035917 -1465098640</internalNodes>
      <leafValues>
        -2.0113758742809296e-01 2.4175195395946503e-01</leafValues></_>
    <_>
      <internalNodes>
        0 -1 1061 -84417905 1187926727 3490328 825325247 1613210862
        407341538 -1341995000 1638129019</internalNodes>
      <leafValues>
        -2.1793679893016815e-01 2.2793939709663391e-01</leafValues></_>
    <_>
      <internalNodes>
        0 -1 337 55578621 -2042597558 665083251 -151077024 1280513895
        -285596901 -18066026 -1361044112</internalNodes>
      <leafValues>
        -2.5595864653587341e-01 1.9198627769947052e-01</leafValues></_>
    <_>
      <internalNodes>
        0 -1 734 -276347264 -1440527430 -1271512816 -900798206 537490975
        479295824 -343739582 -491258249</internalNodes>
      <leafValues>
        -2.8720983862876892e-01 1.7625845968723297e-01</leafValues></_>
    <_>
      <internalNodes>
        0 -1 3178 701512049 -1617416676 2029900564 1263854232
        -2103851620 -425061483 -1062718480 -1923599256</internalNodes>
      <leafValues>
        -2.5827339291572571e-01 1.8942655622959137e-01</leafValues></_>
    <_>
      <internalNodes>
        0 -1 3661 -1401922539 -1916879509 1979710079 -1541894250
        2037517341 -824969327 -1053088308 -391505113</internalNodes>
      <leafValues>
        -1.9580671191215515e-01 2.5206461548805237e-01</leafValues></_>
    <_>
      <internalNodes>
        0 -1 728 210072377 261038020 1054023672 -1395470758 500498557
        -2041120878 2014414007 -118299165</internalNodes>
      <leafValues>
        -1.8904137611389160e-01 2.5623568892478943e-01</leafValues></_>
    <_>
      <internalNodes>
        0 -1 262 -287389816 -394047214 184778800 -661608552 59582465
        339972462 -494700014 -460921422</internalNodes>
      <leafValues>
        -2.9772409796714783e-01 1.6451834142208099e-01</leafValues></_>
    <_>
      <internalNodes>
        0 -1 420 -1926484641 779675100 2087096093 -863838247 139378232
        -626272259 -1287499661 -931159713</internalNodes>
      <leafValues>
        -1.7765875160694122e-01 2.7446171641349792e-01</leafValues></_>
    <_>
      <internalNodes>
        0 -1 3679 450891001 -109241619 -1078808731 469243542 1026099119
        -542925537 -571932717 -1464840996</internalNodes>
      <leafValues>
        -2.1935479342937469e-01 2.3032110929489136e-01</leafValues></_>
    <_>
      <internalNodes>
        0 -1 410 -624523102 -1020582428 -234830556 541393920 1344344714
        483084292 -1270235060 1623379203</internalNodes>
      <leafValues>
        -2.9468205571174622e-01 1.7529384791851044e-01</leafValues></_>
    <_>
      <internalNodes>
        0 -1 3735 -1682170219 172856209 -624359417 -1413285562
        -1697244976 -2009071917 -594253587 83025242</internalNodes>
      <leafValues>
        -2.4763263761997223e-01 2.1150375902652740e-01</leafValues></_>
    <_>
      <internalNodes>
        0 -1 2424 -1743255804 -1173743994 -1887481858 284530961
        1837659575 -642219810 1233926340 -1934481255</internalNodes>
      <leafValues>
        -2.7620333433151245e-01 1.8205356597900391e-01</leafValues></_>
    <_>
      <internalNodes>
        0 -1 191 -840798957 1090681844 -1159443299 -1866212646
        -311524576 1761279833 -1002438494 -298582885</internalNodes>
      <leafValues>
        -1.6446524858474731e-01 3.2447558641433716e-01</leafValues></_>
    <_>
      <internalNodes>
        0 -1 2229 -1658036483 1022336395 2055333433 -1355319727
        522399582 1308407806 2134618823 -1891754832</internalNodes>
      <leafValues>
        -2.1083144843578339e-01 2.5315159559249878e-01</leafValues></_>
    <_>
      <internalNodes>
        0 -1 99 -637056319 900963749 -847074620 1902367033 120639111
        -89757792 -726190853 -485232231</internalNodes>
      <leafValues>
        -1.6018749773502350e-01 3.5207358002662659e-01</leafValues></_>
    <_>
      <internalNodes>
        0 -1 2985 -457251162 13151617 -2004495230 1250077340 421159974
        1179072731 -1521312412 607185473</internalNodes>
      <leafValues>
        -4.0329724550247192e-01 1.3105595111846924e-01</leafValues></_>
    <_>
      <internalNodes>
        0 -1 1620 -1646774339 -1487877146 -1691298515 -1238030669
        1248723375 -85010881 1055557863 -1429831991</internalNodes>
      <leafValues>
        -1.7618122696876526e-01 3.1204935908317566e-01</leafValues></_>
    <_>
      <internalNodes>
        0 -1 822 -781137142 1925601860 -2079390970 845873883 90266419
        885074467 1430778880 1443298719</internalNodes>
      <leafValues>
        -3.4428545832633972e-01 1.4823433756828308e-01</leafValues></_>
    <_>
      <internalNodes>
        0 -1 1545 -1935779568 -1122569802 1677514180 -1516738336
        13174447 341036608 -305872170 -1464846043</internalNodes>
      <leafValues>
        -2.5495228171348572e-01 2.0567013323307037e-01</leafValues></_>
    <_>
      <internalNodes>
        0 -1 1878 -1407207669 -783255506 935467349 -11026312 -1825729305
        -1694089915 -2065509733 -304349233</internalNodes>
      <leafValues>
        -1.1527807265520096e-01 4.6128556132316589e-01</leafValues></_>
    <_>
      <internalNodes>
        0 -1 195 -555132470 -1097823712 555878412 888225793 -1524749930
        1683326241 1039782541 1188788994</internalNodes>
      <leafValues>
        -2.5927576422691345e-01 2.1082247793674469e-01</leafValues></_>
    <_>
      <internalNodes>
        0 -1 2730 -1395164488 360891076 278654096 184010256 -623484748
        690647623 71832258 279366086</internalNodes>
      <leafValues>
        -2.9920041561126709e-01 1.7574490606784821e-01</leafValues></_>
    <_>
      <internalNodes>
        0 -1 1801 -1451989611 260868659 -1766947141 -1133412590
        1790478269 -1761943858 -1212295143 -1059957389</internalNodes>
      <leafValues>
        -1.9547089934349060e-01 2.7047160267829895e-01</leafValues></_>
    <_>
      <internalNodes>
        0 -1 1749 504004887 -2010265180 -193011344 513603453 -1346219494
        -478923143 1025782259 -545459336</internalNodes>
      <leafValues>
        -1.9562815129756927e-01 2.6512745022773743e-01</leafValues></_>
    <_>
      <internalNodes>
        0 -1 1455 -1893592355 899559736 -352096356 -932577262
        -2113609549 -1841592275 1891135556 -1406792683</internalNodes>
      <leafValues>
        -2.1679583191871643e-01 2.3999711871147156e-01</leafValues></_>
    <_>
      <internalNodes>
        0 -1 1037 -89669397 -915309306 484851971 -1863189349 1313310451
        1861148172 -725736742 -801641661</internalNodes>
      <leafValues>
        -1.5028657019138336e-01 3.4766587615013123e-01</leafValues></_>
    <_>
      <internalNodes>
        0 -1 2469 -115441991 -1989906365 -119272467 -159711607 131687229
        -71860503 518176190 -1643487328</internalNodes>
      <leafValues>
        -1.8421664834022522e-01 2.9553562402725220e-01</leafValues></_>
    <_>
      <internalNodes>
        0 -1 56 -347422582 1245924064 2039310379 -1095461487 -1658318111
        -850984476 1952875554 343106647</internalNodes>
      <leafValues>
        -2.6716729998588562e-01 1.9648401439189911e-01</leafValues></_>
    <_>
      <internalNodes>
        0 -1 3268 942938780 482894225 -1298127871 89819600 -1924088310
        -1477465992 -1663112784 -2072746412</internalNodes>
      <leafValues>
        -3.1956133246421814e-01 1.6367022693157196e-01</leafValues></_>
    <_>
      <internalNodes>
        0 -1 2275 -1492625667 -209493193 -146957187 745102756 62778597
        -79833233 -373305211 -1395329037</internalNodes>
      <leafValues>
        -1.6063109040260315e-01 3.3558169007301331e-01</leafValues></_>
    <_>
      <internalNodes>
        0 -1 3526 386408124 718799488 -107820879 653532860 -1100989368
        1870150737 552614992 374866976</internalNodes>
      <leafValues>
        -4.4416776299476624e-01 1.2393708527088165e-01</leafValues></_>
    <_>
      <internalNodes>
        0 -1 2031 -97462356 49153858 1545569424 1648390862 335667989
        1094879600 1209237856 814218195</internalNodes>
      <leafValues>
        -4.1959747672080994e-01 1.2524536252021790e-01</leafValues></_>
    <_>
      <internalNodes>
        0 -1 3159 1286361777 -40630386 889108231 -24003239 -417808738
        2037055220 1329591094 -1779815184</internalNodes>
      <leafValues>
        -1.9389118254184723e-01 2.8715378046035767e-01</leafValues></_>
    <_>
      <internalNodes>
        0 -1 3032 879904237 858408521 -834771179 -1478991567 1711409429
        -39600929 44230899 -1402841839</internalNodes>
      <leafValues>
        -2.3026649653911591e-01 2.4487076699733734e-01</leafValues></_>
    <_>
      <internalNodes>
        0 -1 1123 -1465136077 -2110774364 1225348410 -1568505298
        285874737 -1585882332 -1450531008 1372755476</internalNodes>
      <leafValues>
        -2.9996693134307861e-01 1.8534725904464722e-01</leafValues></_></weakClassifiers></stage10>
</opencv_storage>
