<?xml version="1.0"?>
<opencv_storage>
<stage14>
  <maxWeakCount>57</maxWeakCount>
  <stageThreshold>-6.2618982791900635e-01</stageThreshold>
  <weakClassifiers>
    <_>
      <internalNodes>
        0 -1 413 33595776 1014020374 257175445 -1075040944 -1763140934
        199239860 1485837185 75497472</internalNodes>
      <leafValues>
        2.7793428301811218e-01 6.7133647203445435e-01</leafValues></_>
    <_>
      <internalNodes>
        0 -1 2079 135272997 -35451661 -1079514819 533247673 -2031698178
        -1143024134 2145032431 500695040</internalNodes>
      <leafValues>
        -1.2521892786026001e-01 3.0145013332366943e-01</leafValues></_>
    <_>
      <internalNodes>
        0 -1 2328 724571645 -1080550589 -1415242371 1061720371 641749433
        -74682882 -1197445443 -1145435296</internalNodes>
      <leafValues>
        -1.3705396652221680e-01 2.9437342286109924e-01</leafValues></_>
    <_>
      <internalNodes>
        0 -1 2349 1145185808 1066729745 -998027919 220319778 -1633486083
        -1700095863 -225949538 529412</internalNodes>
      <leafValues>
        -1.9696651399135590e-01 1.9558401405811310e-01</leafValues></_>
    <_>
      <internalNodes>
        0 -1 3230 -544703600 -1084825216 -582840231 -1788075239
        114502137 -1459963739 1117533705 150847726</internalNodes>
      <leafValues>
        -2.5054830312728882e-01 1.3221818208694458e-01</leafValues></_>
    <_>
      <internalNodes>
        0 -1 1928 -1723853548 594839800 1174778129 -1925208711 132771737
        -1702384455 1300568732 965286528</internalNodes>
      <leafValues>
        -2.1979069709777832e-01 1.6597038507461548e-01</leafValues></_>
    <_>
      <internalNodes>
        0 -1 381 -2077569112 -1412058731 541140565 -8141367 -1300917815
        686664749 -347612676 -660270832</internalNodes>
      <leafValues>
        -2.0681284368038177e-01 1.7218048870563507e-01</leafValues></_>
    <_>
      <internalNodes>
        0 -1 2925 408166397 1067371748 -1934551051 -1082244780
        -423805826 -1079264355 -263614375 -1995896784</internalNodes>
      <leafValues>
        -1.4942972362041473e-01 2.2818988561630249e-01</leafValues></_>
    <_>
      <internalNodes>
        0 -1 3525 -1647035943 794072054 -1768859235 -1962924682
        -1993268263 2145323018 1552055408 705241300</internalNodes>
      <leafValues>
        -1.9250237941741943e-01 1.6832542419433594e-01</leafValues></_>
    <_>
      <internalNodes>
        0 -1 1247 1100219184 572881178 -572348754 -1714023552 -998760843
        -52132572 1149370926 472163336</internalNodes>
      <leafValues>
        -2.5118663907051086e-01 1.3492983579635620e-01</leafValues></_>
    <_>
      <internalNodes>
        0 -1 186 1787091344 837506781 -1074489673 1069506540 1201140958
        1342775890 1754135793 -154931145</internalNodes>
      <leafValues>
        -1.4767448604106903e-01 2.1887613832950592e-01</leafValues></_>
    <_>
      <internalNodes>
        0 -1 351 792997500 875052690 -795848636 -1244390746 1451626545
        -1175942896 1676683752 778259139</internalNodes>
      <leafValues>
        -2.2906215488910675e-01 1.4700356125831604e-01</leafValues></_>
    <_>
      <internalNodes>
        0 -1 762 172528625 -806846309 762130815 -1615246089 -1670908499
        -1127760183 -876613697 -1937929694</internalNodes>
      <leafValues>
        -1.1676519364118576e-01 2.9519847035408020e-01</leafValues></_>
    <_>
      <internalNodes>
        0 -1 1194 -1584637151 -1774613868 1092460800 2137789192
        124284765 -381094419 -1698336537 213657262</internalNodes>
      <leafValues>
        -1.9216044247150421e-01 1.7154677212238312e-01</leafValues></_>
    <_>
      <internalNodes>
        0 -1 1933 204599629 1586341784 -969846082 -1120052184 -15438612
        -58905430 -402093357 -1460542742</internalNodes>
      <leafValues>
        -1.2622733414173126e-01 2.6313728094100952e-01</leafValues></_>
    <_>
      <internalNodes>
        0 -1 1614 -913812027 -29165127 -299719324 -1426087052 -571063708
        -1998888178 1320505300 -579307355</internalNodes>
      <leafValues>
        -1.6761603951454163e-01 2.1130637824535370e-01</leafValues></_>
    <_>
      <internalNodes>
        0 -1 3227 1083200080 -883710838 522935717 -212859132 -192401556
        -644107951 -621918252 1116067880</internalNodes>
      <leafValues>
        -2.1822215616703033e-01 1.5618683397769928e-01</leafValues></_>
    <_>
      <internalNodes>
        0 -1 2441 1862242623 597570828 95444543 1966385967 -983837193
        1021637841 867128139 -3601694</internalNodes>
      <leafValues>
        -1.1551561206579208e-01 2.9471620917320251e-01</leafValues></_>
    <_>
      <internalNodes>
        0 -1 863 -872112504 -1772584812 939820868 1187351336 -1034515534
        1239596476 1383373457 956785816</internalNodes>
      <leafValues>
        -2.4206967651844025e-01 1.4324605464935303e-01</leafValues></_>
    <_>
      <internalNodes>
        0 -1 410 1540216499 -577005729 -673507913 -944485 -1463067656
        -69366342 -1421017105 -3610929</internalNodes>
      <leafValues>
        -7.2960287332534790e-02 4.9108314514160156e-01</leafValues></_>
    <_>
      <internalNodes>
        0 -1 65 629964155 -2003552503 -182176935 394832724 23630001
        -777469607 533933323 2084914835</internalNodes>
      <leafValues>
        -1.7713843286037445e-01 2.0488142967224121e-01</leafValues></_>
    <_>
      <internalNodes>
        0 -1 1916 1415966836 1568441304 -508726815 -1641668 1657920101
        779560893 -406899498 -538860654</internalNodes>
      <leafValues>
        -1.5839332342147827e-01 2.3376370966434479e-01</leafValues></_>
    <_>
      <internalNodes>
        0 -1 813 -63245859 -1271795828 -1612927169 -270430989 796174256
        -1197954102 -919562755 -390388181</internalNodes>
      <leafValues>
        -1.1272358149290085e-01 3.1061294674873352e-01</leafValues></_>
    <_>
      <internalNodes>
        0 -1 6 -118949317 1782377848 -612667427 -168066939 -798962501
        -241751814 -1986909575 -1275109315</internalNodes>
      <leafValues>
        -1.1444959044456482e-01 3.1270843744277954e-01</leafValues></_>
    <_>
      <internalNodes>
        0 -1 1448 346440568 -1428912303 -1794959880 -11402618 800596154
        1418823859 1259890845 746407940</internalNodes>
      <leafValues>
        -1.8946976959705353e-01 1.8752200901508331e-01</leafValues></_>
    <_>
      <internalNodes>
        0 -1 471 -1386239424 364135238 -1647141498 -1128267758
        1509227021 77409620 -1073174436 1278676304</internalNodes>
      <leafValues>
        -2.4919061362743378e-01 1.4185276627540588e-01</leafValues></_>
    <_>
      <internalNodes>
        0 -1 2884 -1966216176 1052311641 689133556 -846797774 147932269
        1279102100 439064948 463076762</internalNodes>
      <leafValues>
        -2.0131053030490875e-01 1.7407988011837006e-01</leafValues></_>
    <_>
      <internalNodes>
        0 -1 207 1770958768 -2042975343 197166345 -1903779502
        -1857954526 591897251 1494563186 1732591638</internalNodes>
      <leafValues>
        -2.5289508700370789e-01 1.3892027735710144e-01</leafValues></_>
    <_>
      <internalNodes>
        0 -1 2164 1879738099 1061719839 -1444316925 996880279
        -1746487086 1315248831 1531072939 -230689078</internalNodes>
      <leafValues>
        -1.2089732289314270e-01 2.9573294520378113e-01</leafValues></_>
    <_>
      <internalNodes>
        0 -1 1064 135533440 968408192 -2080038727 2090345625 1101076964
        973212033 -1251889096 220744032</internalNodes>
      <leafValues>
        -3.6590501666069031e-01 9.9919565021991730e-02</leafValues></_>
    <_>
      <internalNodes>
        0 -1 1791 1548833288 -1692419021 201920399 -1768660196
        1206199218 -1768902487 -1380795988 607142405</internalNodes>
      <leafValues>
        -2.5733712315559387e-01 1.4009271562099457e-01</leafValues></_>
    <_>
      <internalNodes>
        0 -1 357 206611076 -924955325 285607288 -1672722535 1359164124
        1384482844 -1988009594 851673623</internalNodes>
      <leafValues>
        -2.5171166658401489e-01 1.4361330866813660e-01</leafValues></_>
    <_>
      <internalNodes>
        0 -1 2047 29654705 -1468896476 54722847 -1076094899 -1304256300
        910099631 1339381914 -2142867438</internalNodes>
      <leafValues>
        -1.8687126040458679e-01 1.9301083683967590e-01</leafValues></_>
    <_>
      <internalNodes>
        0 -1 14 1080354470 548602288 692650150 -1652934496 48137517
        1510498438 105958704 1816725525</internalNodes>
      <leafValues>
        -2.6962026953697205e-01 1.3399972021579742e-01</leafValues></_>
    <_>
      <internalNodes>
        0 -1 3616 -842331983 999462684 -1888741832 -250829630 2051340507
        1644619657 652688318 -1030985722</internalNodes>
      <leafValues>
        -1.7054560780525208e-01 2.1765917539596558e-01</leafValues></_>
    <_>
      <internalNodes>
        0 -1 110 113246276 949248647 -478042476 -1451228408 1110536305
        1376553606 567450305 6563924</internalNodes>
      <leafValues>
        -4.1765987873077393e-01 8.7691478431224823e-02</leafValues></_>
    <_>
      <internalNodes>
        0 -1 3466 181850656 67257129 1426427464 -1748626556 293643917
        1950233228 -1551877381 1696055592</internalNodes>
      <leafValues>
        -2.3012766242027283e-01 1.5789380669593811e-01</leafValues></_>
    <_>
      <internalNodes>
        0 -1 3560 1395287232 -1112168747 690405729 1386316856
        -1180632751 1052476845 -1828441320 1714013424</internalNodes>
      <leafValues>
        -2.1647660434246063e-01 1.7886380851268768e-01</leafValues></_>
    <_>
      <internalNodes>
        0 -1 1817 163863352 131601456 261887305 -1528551023 -1623188900
        -999100269 617482528 1275620290</internalNodes>
      <leafValues>
        -2.8416383266448975e-01 1.3457740843296051e-01</leafValues></_>
    <_>
      <internalNodes>
        0 -1 2877 1350276117 18189496 2036709941 -1910327803 833170588
        1507703966 -1910494948 -1089491665</internalNodes>
      <leafValues>
        -1.6025136411190033e-01 2.3878574371337891e-01</leafValues></_>
    <_>
      <internalNodes>
        0 -1 2415 -644572159 923708864 -1988616328 529905266 -1298143406
        -1152275278 -1212978067 1041845808</internalNodes>
      <leafValues>
        -1.8407650291919708e-01 2.0104986429214478e-01</leafValues></_>
    <_>
      <internalNodes>
        0 -1 3678 -1668005563 459412792 -1325243908 -1977470788
        814872598 -860831521 119305773 1621764107</internalNodes>
      <leafValues>
        -2.3604485392570496e-01 1.6192552447319031e-01</leafValues></_>
    <_>
      <internalNodes>
        0 -1 498 -1561090262 -1232225088 -1877922431 -504571640
        -1977043909 -1960731509 1931765508 809841378</internalNodes>
      <leafValues>
        -2.3654702305793762e-01 1.6653965413570404e-01</leafValues></_>
    <_>
      <internalNodes>
        0 -1 601 -1517508233 -1050133550 1711675462 566968580 1929535240
        166710162 332959601 -1208999568</internalNodes>
      <leafValues>
        -2.0834301412105560e-01 1.7453254759311676e-01</leafValues></_>
    <_>
      <internalNodes>
        0 -1 3842 848043096 242105524 323762538 570982925 -1091561315
        702283817 773357888 658510789</internalNodes>
      <leafValues>
        -3.2953599095344543e-01 1.1784508824348450e-01</leafValues></_>
    <_>
      <internalNodes>
        0 -1 336 870362365 -499019131 1210155744 -936919890 966737667
        126693637 -515834512 603837484</internalNodes>
      <leafValues>
        -2.2312292456626892e-01 1.6200384497642517e-01</leafValues></_>
    <_>
      <internalNodes>
        0 -1 1516 -245047615 -117873282 850648092 -1779872823 15328511
        -90502674 -614286451 -294965494</internalNodes>
      <leafValues>
        -1.2043677270412445e-01 3.2477602362632751e-01</leafValues></_>
    <_>
      <internalNodes>
        0 -1 3399 367072704 1322799245 -1726866093 273838534 688945332
        63032069 -1335617179 -1803547628</internalNodes>
      <leafValues>
        -2.7592167258262634e-01 1.4180712401866913e-01</leafValues></_>
    <_>
      <internalNodes>
        0 -1 3844 33035384 -1283075276 -1625976810 -1177672188
        -587076375 -2140794862 1623825388 1702437016</internalNodes>
      <leafValues>
        -2.3996785283088684e-01 1.6578015685081482e-01</leafValues></_>
    <_>
      <internalNodes>
        0 -1 1016 1211234587 -638039261 556325201 1333884678 -1137910656
        -1982354905 -1950154387 763830170</internalNodes>
      <leafValues>
        -1.5777209401130676e-01 2.4728365242481232e-01</leafValues></_>
    <_>
      <internalNodes>
        0 -1 1450 676859928 250472479 1713039402 -1423530792 1111945716
        1906819734 -187694596 859967504</internalNodes>
      <leafValues>
        -3.2310736179351807e-01 1.2107602506875992e-01</leafValues></_>
    <_>
      <internalNodes>
        0 -1 3237 -1336912432 208696847 -1345478024 -1456680859
        281127604 924852224 -787663903 1913258251</internalNodes>
      <leafValues>
        -2.3250223696231842e-01 1.7145806550979614e-01</leafValues></_>
    <_>
      <internalNodes>
        0 -1 1754 619200616 -899507836 -1506178355 710713766 1055162030
        550135940 69286020 1299196000</internalNodes>
      <leafValues>
        -3.1485566496849060e-01 1.2577110528945923e-01</leafValues></_>
    <_>
      <internalNodes>
        0 -1 1493 1246102210 2803077 252957743 499445662 1404189978
        255532458 -703919946 348472370</internalNodes>
      <leafValues>
        -2.7374285459518433e-01 1.4479769766330719e-01</leafValues></_>
    <_>
      <internalNodes>
        0 -1 2754 341814261 -671704777 -947936649 -553344878 314257065
        -941511750 480519857 -75280061</internalNodes>
      <leafValues>
        -1.3749024271965027e-01 2.9270702600479126e-01</leafValues></_>
    <_>
      <internalNodes>
        0 -1 811 -1153117217 -303825464 -1165416929 -1049136587
        -420454402 1991550055 1848280318 -1646692474</internalNodes>
      <leafValues>
        -1.0920239239931107e-01 3.5209223628044128e-01</leafValues></_>
    <_>
      <internalNodes>
        0 -1 1904 747110632 -2012530310 796920148 973347884 282101930
        751108681 -1994643657 618143760</internalNodes>
      <leafValues>
        -3.2935431599617004e-01 1.2271552532911301e-01</leafValues></_></weakClassifiers></stage14>
</opencv_storage>
