<?xml version="1.0"?>
<opencv_storage>
<stage17>
  <maxWeakCount>54</maxWeakCount>
  <stageThreshold>-7.3380488157272339e-01</stageThreshold>
  <weakClassifiers>
    <_>
      <internalNodes>
        0 -1 3210 238554389 1052683230 536786716 -1930678858 760493541
        985422769 -1074003084 1013973600</internalNodes>
      <leafValues>
        3.3434534072875977e-01 6.7722934484481812e-01</leafValues></_>
    <_>
      <internalNodes>
        0 -1 2831 477110133 -219660483 2044589566 -1090999865 1882569717
        -1178616338 -539083927 -1093648524</internalNodes>
      <leafValues>
        -9.2021271586418152e-02 3.2945084571838379e-01</leafValues></_>
    <_>
      <internalNodes>
        0 -1 26 -2001590490 863352797 -373871265 -11613371 1634580461
        -1315130644 -1080374468 -1527749008</internalNodes>
      <leafValues>
        -2.0511138439178467e-01 2.1302105486392975e-01</leafValues></_>
    <_>
      <internalNodes>
        0 -1 3267 1188037748 1028962805 -239065973 -1128747361
        -910934539 -559007495 -36037784 -521133040</internalNodes>
      <leafValues>
        -2.2364671528339386e-01 1.9096955657005310e-01</leafValues></_>
    <_>
      <internalNodes>
        0 -1 1770 -1506540724 370716917 -1348608578 -1098113935
        1767090679 -1302533382 780611073 617616192</internalNodes>
      <leafValues>
        -2.7654755115509033e-01 1.4952640235424042e-01</leafValues></_>
    <_>
      <internalNodes>
        0 -1 3535 1280712964 645200754 -808120820 -1366512225 1287012287
        2129308183 -443630184 672166770</internalNodes>
      <leafValues>
        -3.1231036782264709e-01 1.0104706883430481e-01</leafValues></_>
    <_>
      <internalNodes>
        0 -1 3387 1314667349 907842559 -712086785 -2004868376 2046631409
        1270013706 -571540220 -1495244560</internalNodes>
      <leafValues>
        -2.1130739152431488e-01 1.9397363066673279e-01</leafValues></_>
    <_>
      <internalNodes>
        0 -1 3947 1960197189 548454175 -313981040 -2034364932 -997033088
        1189514879 -100862684 -1530124560</internalNodes>
      <leafValues>
        -2.2806614637374878e-01 1.7624001204967499e-01</leafValues></_>
    <_>
      <internalNodes>
        0 -1 2271 2113676405 -932962360 -441137283 -17642050 -562820156
        -1138889838 1906522464 -1469022460</internalNodes>
      <leafValues>
        -2.1313032507896423e-01 1.8464793264865875e-01</leafValues></_>
    <_>
      <internalNodes>
        0 -1 227 749645479 -171278363 -169376081 -138500678 1973899332
        1539257428 -860879040 -436975868</internalNodes>
      <leafValues>
        -1.9190871715545654e-01 2.0628087222576141e-01</leafValues></_>
    <_>
      <internalNodes>
        0 -1 3024 1646271541 -725833359 -1714701990 -1392572052
        1876358389 536117502 -525055890 552884022</internalNodes>
      <leafValues>
        -2.2871376574039459e-01 1.6902224719524384e-01</leafValues></_>
    <_>
      <internalNodes>
        0 -1 101 291252052 297678302 515573036 -1658997080 1498221250
        -226213916 -102145308 746729354</internalNodes>
      <leafValues>
        -2.4205197393894196e-01 1.6358801722526550e-01</leafValues></_>
    <_>
      <internalNodes>
        0 -1 2763 771756868 2089579965 -1139889907 685676498 635627447
        1049522126 -1289107828 -1595917758</internalNodes>
      <leafValues>
        -2.1913450956344604e-01 1.8008318543434143e-01</leafValues></_>
    <_>
      <internalNodes>
        0 -1 1843 -1315924195 936415551 2105778159 -316358453 2079350775
        2013019117 -1520153715 -132000216</internalNodes>
      <leafValues>
        -1.3441978394985199e-01 2.9852217435836792e-01</leafValues></_>
    <_>
      <internalNodes>
        0 -1 1760 1305509720 484966833 238258590 -1110003976 1741960141
        848393689 -1398903724 -1128912136</internalNodes>
      <leafValues>
        -1.9014802575111389e-01 2.1073547005653381e-01</leafValues></_>
    <_>
      <internalNodes>
        0 -1 181 1483156661 1022793571 -978211942 -815505346 1991587223
        -237521441 -741233715 -412621006</internalNodes>
      <leafValues>
        -1.4969213306903839e-01 2.7582472562789917e-01</leafValues></_>
    <_>
      <internalNodes>
        0 -1 3966 140774916 551820841 1372879360 619890454 415257412
        565229727 -92751584 11284036</internalNodes>
      <leafValues>
        -4.4452199339866638e-01 9.5034919679164886e-02</leafValues></_>
    <_>
      <internalNodes>
        0 -1 366 205787936 -354337466 -156546292 -1529730168 1833193236
        1893021111 -1547757804 651174704</internalNodes>
      <leafValues>
        -3.8167345523834229e-01 1.0144174844026566e-01</leafValues></_>
    <_>
      <internalNodes>
        0 -1 2583 -526087419 -1871667267 -1078221249 741734511
        -2028533273 -722346497 -1163186580 -1600632470</internalNodes>
      <leafValues>
        -1.8511036038398743e-01 2.1621249616146088e-01</leafValues></_>
    <_>
      <internalNodes>
        0 -1 42 788799789 1891218527 -1661490066 -1073999930 -184569379
        -1110127089 -26715876 -323735801</internalNodes>
      <leafValues>
        -1.5246951580047607e-01 2.6559662818908691e-01</leafValues></_>
    <_>
      <internalNodes>
        0 -1 3356 -1504173788 -2141958480 -129825082 42721934 1394692492
        1725958796 1917175814 3565583</internalNodes>
      <leafValues>
        -3.0698680877685547e-01 1.3200818002223969e-01</leafValues></_>
    <_>
      <internalNodes>
        0 -1 295 -1043973340 202261856 -1113434316 -1462328210
        1217750257 1424023465 1154360854 101980676</internalNodes>
      <leafValues>
        -3.4690451622009277e-01 1.2006428837776184e-01</leafValues></_>
    <_>
      <internalNodes>
        0 -1 775 -298833218 -1799996015 1035374491 1810035650 1463914487
        -1188481155 -1325920533 -390248878</internalNodes>
      <leafValues>
        -1.7136192321777344e-01 2.5605404376983643e-01</leafValues></_>
    <_>
      <internalNodes>
        0 -1 2729 -1873994876 406106983 -1240118663 -648631700
        1577262439 2076258296 -1082557352 1747251887</internalNodes>
      <leafValues>
        -2.1481233835220337e-01 1.8771009147167206e-01</leafValues></_>
    <_>
      <internalNodes>
        0 -1 169 92546692 1220922 143641282 -1442011648 1182098976
        1393603945 1908738884 564425984</internalNodes>
      <leafValues>
        -4.1837370395660400e-01 1.0182228684425354e-01</leafValues></_>
    <_>
      <internalNodes>
        0 -1 3894 578105164 1153578363 -1592750202 -1565785600
        1235379284 -577419115 2128347968 686832200</internalNodes>
      <leafValues>
        -3.4420004487037659e-01 1.1892875283956528e-01</leafValues></_>
    <_>
      <internalNodes>
        0 -1 3042 -834095980 24680349 -1585871170 -1896859226 1559241637
        -1364920629 -17048592 -1373866577</internalNodes>
      <leafValues>
        -1.9068183004856110e-01 2.1728013455867767e-01</leafValues></_>
    <_>
      <internalNodes>
        0 -1 3525 -1088114733 -38207650 -1084549336 -1946638490
        1869661183 -105721951 250822369 -1426465026</internalNodes>
      <leafValues>
        -1.2815605103969574e-01 3.1903988122940063e-01</leafValues></_>
    <_>
      <internalNodes>
        0 -1 246 -411247129 -765141301 -946029863 -1669965014 1895118629
        -1376184468 1727415189 -420267208</internalNodes>
      <leafValues>
        -1.6124458611011505e-01 2.5324192643165588e-01</leafValues></_>
    <_>
      <internalNodes>
        0 -1 3888 1851562552 1490716519 -940376142 -991634860 1935519457
        -160836097 1022552872 -1598489615</internalNodes>
      <leafValues>
        -1.9979806244373322e-01 2.1349868178367615e-01</leafValues></_>
    <_>
      <internalNodes>
        0 -1 715 248524388 673473018 -710307524 -1946113108 1061693456
        -286518117 1220018924 673451776</internalNodes>
      <leafValues>
        -4.3172863125801086e-01 1.0274478793144226e-01</leafValues></_>
    <_>
      <internalNodes>
        0 -1 3755 -159636924 28918262 177087830 196084704 -1075280215
        96449625 1826937992 -2139660190</internalNodes>
      <leafValues>
        -2.4621526896953583e-01 1.7871581017971039e-01</leafValues></_>
    <_>
      <internalNodes>
        0 -1 3369 -1245403516 14180953 -1219197660 706432570 190972417
        -1263404239 -761078240 83156096</internalNodes>
      <leafValues>
        -3.5065889358520508e-01 1.2671177089214325e-01</leafValues></_>
    <_>
      <internalNodes>
        0 -1 2237 -767083163 327486319 -2062157330 433058877 502242671
        -98771471 -857334787 -1204311548</internalNodes>
      <leafValues>
        -1.5258070826530457e-01 2.9726633429527283e-01</leafValues></_>
    <_>
      <internalNodes>
        0 -1 3964 1660420457 -1487028018 592056788 -1460866364
        1701517738 1434109769 -285269236 -1595275734</internalNodes>
      <leafValues>
        -2.0784230530261993e-01 2.0794534683227539e-01</leafValues></_>
    <_>
      <internalNodes>
        0 -1 281 -1977014742 313959220 -1342335286 -1916261080
        1494386992 -689893267 -435814112 1758752145</internalNodes>
      <leafValues>
        -2.8722453117370605e-01 1.5412922203540802e-01</leafValues></_>
    <_>
      <internalNodes>
        0 -1 1456 605744008 -1327581279 -1115124563 520207894 278733235
        452111336 1526163264 1619111940</internalNodes>
      <leafValues>
        -2.6938998699188232e-01 1.5837228298187256e-01</leafValues></_>
    <_>
      <internalNodes>
        0 -1 1612 1094987264 -1338240120 -493334618 12339748 257375856
        273942582 272841232 28582680</internalNodes>
      <leafValues>
        -4.1857039928436279e-01 1.0296761244535446e-01</leafValues></_>
    <_>
      <internalNodes>
        0 -1 2379 116530252 168880409 -827045730 -1494420662 424293684
        1121408431 -527097063 -496885639</internalNodes>
      <leafValues>
        -2.6498585939407349e-01 1.5969143807888031e-01</leafValues></_>
    <_>
      <internalNodes>
        0 -1 3614 2136456607 -1317659753 2108795834 -73547873 -253974789
        -97785171 -33760593 -1174552775</internalNodes>
      <leafValues>
        -8.7256714701652527e-02 5.1329272985458374e-01</leafValues></_>
    <_>
      <internalNodes>
        0 -1 2555 618662241 742587884 -40019639 745548516 1154824899
        -396693896 -457429915 270801708</internalNodes>
      <leafValues>
        -3.0796954035758972e-01 1.4772671461105347e-01</leafValues></_>
    <_>
      <internalNodes>
        0 -1 415 741157984 1779757975 782534659 -1154775101 1985436172
        99173769 211180840 -1562103548</internalNodes>
      <leafValues>
        -2.8760585188865662e-01 1.5428793430328369e-01</leafValues></_>
    <_>
      <internalNodes>
        0 -1 3710 905842269 -1174942883 -1398870362 -1124221979
        -545989163 -1082418774 -258032300 -332504050</internalNodes>
      <leafValues>
        -1.7095319926738739e-01 2.5902444124221802e-01</leafValues></_>
    <_>
      <internalNodes>
        0 -1 2210 1537537789 601821663 -2111086675 -369121427 2043594163
        -1191714623 -650884489 -1142969334</internalNodes>
      <leafValues>
        -1.1964150518178940e-01 3.6490356922149658e-01</leafValues></_>
    <_>
      <internalNodes>
        0 -1 3527 1287391100 213700443 -1114994684 1018827224 347873461
        288432167 793009260 949292450</internalNodes>
      <leafValues>
        -2.7604225277900696e-01 1.6312655806541443e-01</leafValues></_>
    <_>
      <internalNodes>
        0 -1 1325 1842775058 459190331 66144872 563278850 -1268702747
        1083755951 300358524 -1563086062</internalNodes>
      <leafValues>
        -2.3407125473022461e-01 1.9386641681194305e-01</leafValues></_>
    <_>
      <internalNodes>
        0 -1 3655 158082308 -1661950713 -973896727 127154723 -1488563213
        -1926722132 -1565245930 605044740</internalNodes>
      <leafValues>
        -3.7484961748123169e-01 1.2152013182640076e-01</leafValues></_>
    <_>
      <internalNodes>
        0 -1 3954 1455691697 36209551 -651292182 -453857697 1994733325
        1854130948 -1365303808 1977691990</internalNodes>
      <leafValues>
        -2.5527215003967285e-01 1.7226201295852661e-01</leafValues></_>
    <_>
      <internalNodes>
        0 -1 1146 -1073646657 -93280657 1744320958 -306267488 2029067007
        -1279768698 -641825 -1465444845</internalNodes>
      <leafValues>
        -1.3706043362617493e-01 3.2867753505706787e-01</leafValues></_>
    <_>
      <internalNodes>
        0 -1 271 -457923401 1064623991 1544159050 -1626485462 -668132385
        1853089141 -419664788 -580801821</internalNodes>
      <leafValues>
        -1.4064896106719971e-01 3.1888791918754578e-01</leafValues></_>
    <_>
      <internalNodes>
        0 -1 798 -417949771 1019016099 367262957 -1658027201 -1131214919
        -1217251 -491309763 -73925686</internalNodes>
      <leafValues>
        -1.1605745553970337e-01 3.7952435016632080e-01</leafValues></_>
    <_>
      <internalNodes>
        0 -1 3660 8651008 67142877 1444986552 740456464 1615860838
        1903083157 1116614928 616577538</internalNodes>
      <leafValues>
        -4.7022417187690735e-01 1.0072005540132523e-01</leafValues></_>
    <_>
      <internalNodes>
        0 -1 2946 115878968 2102419963 -1077006072 1678849708 322375457
        -342347151 -783764193 -2031717966</internalNodes>
      <leafValues>
        -2.3476284742355347e-01 1.9417603313922882e-01</leafValues></_>
    <_>
      <internalNodes>
        0 -1 36 134742789 -1403636902 -756085512 -1500731256 1848389413
        1452361031 -1089969920 1114912322</internalNodes>
      <leafValues>
        -3.4713166952133179e-01 1.3321247696876526e-01</leafValues></_></weakClassifiers></stage17>
</opencv_storage>
