<?xml version="1.0"?>
<opencv_storage>
<stage1>
  <maxWeakCount>19</maxWeakCount>
  <stageThreshold>-1.1915749311447144e+00</stageThreshold>
  <weakClassifiers>
    <_>
      <internalNodes>
        0 -1 69 1073774720 360743072 8388608 285286436 -2080374136
        4194368 5243018 16973827</internalNodes>
      <leafValues>
        4.7531994059681892e-03 7.8877103328704834e-01</leafValues></_>
    <_>
      <internalNodes>
        0 -1 953 -794509108 1358991712 115486250 319103016 -469728056
        83921568 1082165450 318963755</internalNodes>
      <leafValues>
        -2.4897886812686920e-01 5.4784858226776123e-01</leafValues></_>
    <_>
      <internalNodes>
        0 -1 3228 -733691904 1392792644 -2143105023 285231124
        -1979150200 542116225 -1933554534 1280091</internalNodes>
      <leafValues>
        -3.5343086719512939e-01 3.6478501558303833e-01</leafValues></_>
    <_>
      <internalNodes>
        0 -1 317 -653208374 1362748968 -2118627456 926108752 104925624
        89130338 283017386 591608331</internalNodes>
      <leafValues>
        -3.0176281929016113e-01 3.8305482268333435e-01</leafValues></_>
    <_>
      <internalNodes>
        0 -1 21 -1064378168 1393836438 277381401 491898916 -938436465
        25268250 1610989800 1093742987</internalNodes>
      <leafValues>
        -3.3950299024581909e-01 3.0674585700035095e-01</leafValues></_>
    <_>
      <internalNodes>
        0 -1 3386 1514185818 808217133 -341812862 288613392 324635852
        1102324198 -2147384150 8896907</internalNodes>
      <leafValues>
        -2.9033470153808594e-01 3.2918834686279297e-01</leafValues></_>
    <_>
      <internalNodes>
        0 -1 786 -769461590 -1617838303 1122632029 -1223549830
        -864374868 732182301 -1443505942 571166666</internalNodes>
      <leafValues>
        -2.6234853267669678e-01 3.6837753653526306e-01</leafValues></_>
    <_>
      <internalNodes>
        0 -1 147 -491199454 -1644114621 -1220097383 -853097912
        -1352544180 2083024455 -2102594470 963854427</internalNodes>
      <leafValues>
        -2.6004618406295776e-01 3.5054937005043030e-01</leafValues></_>
    <_>
      <internalNodes>
        0 -1 3700 -1901586432 397070905 -2003883428 -1142276600
        1066621952 -1438544784 -323869820 -1394079584</internalNodes>
      <leafValues>
        -3.5841965675354004e-01 2.7289143204689026e-01</leafValues></_>
    <_>
      <internalNodes>
        0 -1 2463 -1500903932 -1419751263 1760696636 -1152905200
        -1538376664 -1073608184 -655588158 -1198095264</internalNodes>
      <leafValues>
        -3.1407693028450012e-01 2.7834144234657288e-01</leafValues></_>
    <_>
      <internalNodes>
        0 -1 737 -572411156 -783901792 1771317873 -914284236 -1765746211
        1489278996 -454582070 1068171419</internalNodes>
      <leafValues>
        -2.1119236946105957e-01 4.3646481633186340e-01</leafValues></_>
    <_>
      <internalNodes>
        0 -1 864 -1977039488 1644225106 1989455892 -1031385404 797775730
        -1576730391 -1031601444 -1292186472</internalNodes>
      <leafValues>
        -2.8650233149528503e-01 3.0002582073211670e-01</leafValues></_>
    <_>
      <internalNodes>
        0 -1 2798 -800986596 1344332580 -1742647246 -2027616940
        905944716 677281048 -1071873848 155287750</internalNodes>
      <leafValues>
        -2.7893733978271484e-01 3.0444151163101196e-01</leafValues></_>
    <_>
      <internalNodes>
        0 -1 1823 -900596040 -639396623 -2077227509 20546695 -1526757176
        1644695560 1050795 963878923</internalNodes>
      <leafValues>
        -2.3559890687465668e-01 3.6194896697998047e-01</leafValues></_>
    <_>
      <internalNodes>
        0 -1 2695 -789517112 -630317344 1807638420 -1767709498
        -866235250 -1666517773 -423641948 -16806166</internalNodes>
      <leafValues>
        -1.7677876353263855e-01 4.6671795845031738e-01</leafValues></_>
    <_>
      <internalNodes>
        0 -1 13 -503005170 -1684348928 -1073444669 -109051896
        -1733752715 2031157888 28037369 320323842</internalNodes>
      <leafValues>
        -2.8861778974533081e-01 2.9683360457420349e-01</leafValues></_>
    <_>
      <internalNodes>
        0 -1 3060 -2104466424 99157075 -1012387286 -393958048
        -1666180240 585630785 -1226594208 -1428105618</internalNodes>
      <leafValues>
        -3.4380301833152771e-01 2.5885194540023804e-01</leafValues></_>
    <_>
      <internalNodes>
        0 -1 3514 -1975720192 -1604095146 1482486164 -763223340
        -393734336 -1500245974 -436106556 -492729168</internalNodes>
      <leafValues>
        -3.1354317069053650e-01 2.7774733304977417e-01</leafValues></_>
    <_>
      <internalNodes>
        0 -1 1783 -800873598 -101326324 615395735 2037528580 -1667861250
        1817260052 -1434411831 4312627</internalNodes>
      <leafValues>
        -2.7939927577972412e-01 3.1018391251564026e-01</leafValues></_></weakClassifiers></stage1>
</opencv_storage>
