<?xml version="1.0"?>
<opencv_storage>
<stage9>
  <maxWeakCount>100</maxWeakCount>
  <stageThreshold>-3.0612995624542236e+00</stageThreshold>
  <weakClassifiers>
    <_>
      <internalNodes>
        0 -1 12 3.5501979291439056e-02</internalNodes>
      <leafValues>
        -8.8384050130844116e-01 -7.4378323554992676e-01</leafValues></_>
    <_>
      <internalNodes>
        0 -1 4 3.6643050611019135e-02</internalNodes>
      <leafValues>
        -6.1287361383438110e-01 -2.2865906357765198e-01</leafValues></_>
    <_>
      <internalNodes>
        0 -1 22 4.0346983820199966e-02</internalNodes>
      <leafValues>
        6.8660065531730652e-02 -3.9098012447357178e-01</leafValues></_>
    <_>
      <internalNodes>
        0 -1 30 1.8275570124387741e-02</internalNodes>
      <leafValues>
        -3.5762768983840942e-01 1.3600681722164154e-01</leafValues></_>
    <_>
      <internalNodes>
        0 -1 16 1.1027757078409195e-02</internalNodes>
      <leafValues>
        -3.6364552378654480e-01 8.3965755999088287e-02</leafValues></_>
    <_>
      <internalNodes>
        0 -1 5 2.3276373744010925e-02</internalNodes>
      <leafValues>
        -2.0861122012138367e-01 1.2283775955438614e-01</leafValues></_>
    <_>
      <internalNodes>
        0 -1 3 2.4659609422087669e-02</internalNodes>
      <leafValues>
        -3.1304267048835754e-01 9.2109367251396179e-02</leafValues></_>
    <_>
      <internalNodes>
        0 -1 32 1.9105270504951477e-02</internalNodes>
      <leafValues>
        -2.7239668369293213e-01 1.0755150020122528e-01</leafValues></_>
    <_>
      <internalNodes>
        0 -1 22 2.6682227849960327e-02</internalNodes>
      <leafValues>
        1.2757918238639832e-01 -1.5777722001075745e-01</leafValues></_>
    <_>
      <internalNodes>
        0 -1 1 8.6228866130113602e-03</internalNodes>
      <leafValues>
        -3.0255201458930969e-01 6.3186667859554291e-02</leafValues></_>
    <_>
      <internalNodes>
        0 -1 18 2.6202678680419922e-02</internalNodes>
      <leafValues>
        6.8911269307136536e-02 -2.3587244749069214e-01</leafValues></_>
    <_>
      <internalNodes>
        0 -1 12 2.7195855975151062e-02</internalNodes>
      <leafValues>
        -1.3646802306175232e-01 9.8164297640323639e-02</leafValues></_>
    <_>
      <internalNodes>
        0 -1 9 1.5087665989995003e-02</internalNodes>
      <leafValues>
        -2.1641328930854797e-01 8.2253009080886841e-02</leafValues></_>
    <_>
      <internalNodes>
        0 -1 35 4.7982870601117611e-03</internalNodes>
      <leafValues>
        -3.9065346121788025e-01 3.0216481536626816e-02</leafValues></_>
    <_>
      <internalNodes>
        0 -1 30 4.3900988996028900e-02</internalNodes>
      <leafValues>
        -8.5272639989852905e-02 1.7953884601593018e-01</leafValues></_>
    <_>
      <internalNodes>
        0 -1 24 6.7956410348415375e-03</internalNodes>
      <leafValues>
        -2.8662225604057312e-01 4.4654436409473419e-02</leafValues></_>
    <_>
      <internalNodes>
        0 -1 23 3.3803828060626984e-02</internalNodes>
      <leafValues>
        4.3477002531290054e-02 -2.4087344110012054e-01</leafValues></_>
    <_>
      <internalNodes>
        0 -1 13 7.4192143976688385e-02</internalNodes>
      <leafValues>
        2.8611224144697189e-02 -3.3720207214355469e-01</leafValues></_>
    <_>
      <internalNodes>
        0 -1 13 2.2766364738345146e-02</internalNodes>
      <leafValues>
        -1.7857314646244049e-01 6.2465801835060120e-02</leafValues></_>
    <_>
      <internalNodes>
        0 -1 8 3.9044428616762161e-02</internalNodes>
      <leafValues>
        3.7123396992683411e-02 -2.7331373095512390e-01</leafValues></_>
    <_>
      <internalNodes>
        0 -1 16 2.0994756370782852e-02</internalNodes>
      <leafValues>
        -1.4188861846923828e-01 7.9193316400051117e-02</leafValues></_>
    <_>
      <internalNodes>
        0 -1 21 7.4692443013191223e-02</internalNodes>
      <leafValues>
        1.6079502180218697e-02 -5.6761831045150757e-01</leafValues></_>
    <_>
      <internalNodes>
        0 -1 7 3.2239083200693130e-02</internalNodes>
      <leafValues>
        3.3951967954635620e-02 -2.3492929339408875e-01</leafValues></_>
    <_>
      <internalNodes>
        0 -1 8 4.8719383776187897e-03</internalNodes>
      <leafValues>
        -2.8419765830039978e-01 3.4057646989822388e-02</leafValues></_>
    <_>
      <internalNodes>
        0 -1 29 5.8377042412757874e-02</internalNodes>
      <leafValues>
        1.5702858567237854e-02 -4.7127848863601685e-01</leafValues></_>
    <_>
      <internalNodes>
        0 -1 26 3.6007821559906006e-02</internalNodes>
      <leafValues>
        3.4901723265647888e-02 -2.2286570072174072e-01</leafValues></_>
    <_>
      <internalNodes>
        0 -1 22 1.9719986245036125e-02</internalNodes>
      <leafValues>
        1.3430887460708618e-01 -8.3071410655975342e-02</leafValues></_>
    <_>
      <internalNodes>
        0 -1 31 3.6824237555265427e-02</internalNodes>
      <leafValues>
        -1.0861518234014511e-01 1.0375711321830750e-01</leafValues></_>
    <_>
      <internalNodes>
        0 -1 21 1.9747968763113022e-02</internalNodes>
      <leafValues>
        1.0536913573741913e-01 -7.7649362385272980e-02</leafValues></_>
    <_>
      <internalNodes>
        0 -1 3 1.3267079368233681e-02</internalNodes>
      <leafValues>
        -3.3798515796661377e-01 2.5490082800388336e-02</leafValues></_>
    <_>
      <internalNodes>
        0 -1 4 1.3049033284187317e-01</internalNodes>
      <leafValues>
        1.2515245936810970e-02 -6.1680459976196289e-01</leafValues></_>
    <_>
      <internalNodes>
        0 -1 5 4.6477109193801880e-02</internalNodes>
      <leafValues>
        -4.5238945633172989e-02 1.7173250019550323e-01</leafValues></_>
    <_>
      <internalNodes>
        0 -1 14 7.6026439666748047e-02</internalNodes>
      <leafValues>
        1.3014355674386024e-02 -6.1029899120330811e-01</leafValues></_>
    <_>
      <internalNodes>
        0 -1 33 6.1950129456818104e-03</internalNodes>
      <leafValues>
        -2.8161883354187012e-01 2.1148333325982094e-02</leafValues></_>
    <_>
      <internalNodes>
        0 -1 12 5.1976710557937622e-02</internalNodes>
      <leafValues>
        -4.6587832272052765e-02 1.3371905684471130e-01</leafValues></_>
    <_>
      <internalNodes>
        0 -1 27 8.0871488898992538e-03</internalNodes>
      <leafValues>
        -1.8166203796863556e-01 3.9183542132377625e-02</leafValues></_>
    <_>
      <internalNodes>
        0 -1 2 1.6688274219632149e-02</internalNodes>
      <leafValues>
        -1.4476987719535828e-01 4.7874294221401215e-02</leafValues></_>
    <_>
      <internalNodes>
        0 -1 32 3.1524658203125000e-02</internalNodes>
      <leafValues>
        -7.6057642698287964e-02 1.0268069058656693e-01</leafValues></_>
    <_>
      <internalNodes>
        0 -1 15 1.6591649502515793e-02</internalNodes>
      <leafValues>
        -1.1633610725402832e-01 5.3396262228488922e-02</leafValues></_>
    <_>
      <internalNodes>
        0 -1 15 5.8868214488029480e-02</internalNodes>
      <leafValues>
        1.6132140532135963e-02 -3.7042987346649170e-01</leafValues></_>
    <_>
      <internalNodes>
        0 -1 4 5.3392618894577026e-02</internalNodes>
      <leafValues>
        -6.8676300346851349e-02 8.3130031824111938e-02</leafValues></_>
    <_>
      <internalNodes>
        0 -1 0 2.1128820255398750e-02</internalNodes>
      <leafValues>
        -6.7258335649967194e-02 9.8775789141654968e-02</leafValues></_>
    <_>
      <internalNodes>
        0 -1 17 2.6835996657609940e-02</internalNodes>
      <leafValues>
        -7.9551130533218384e-02 6.7191608250141144e-02</leafValues></_>
    <_>
      <internalNodes>
        0 -1 31 7.8093729913234711e-02</internalNodes>
      <leafValues>
        -2.8023863211274147e-02 2.4530690908432007e-01</leafValues></_>
    <_>
      <internalNodes>
        0 -1 22 6.0536518692970276e-02</internalNodes>
      <leafValues>
        1.9918678328394890e-02 -2.9653954505920410e-01</leafValues></_>
    <_>
      <internalNodes>
        0 -1 18 5.3011931478977203e-02</internalNodes>
      <leafValues>
        1.0510433465242386e-02 -5.0859928131103516e-01</leafValues></_>
    <_>
      <internalNodes>
        0 -1 3 1.0739924013614655e-01</internalNodes>
      <leafValues>
        1.1000364087522030e-02 -3.9537343382835388e-01</leafValues></_>
    <_>
      <internalNodes>
        0 -1 9 1.4464448206126690e-02</internalNodes>
      <leafValues>
        1.2181662023067474e-01 -4.1851937770843506e-02</leafValues></_>
    <_>
      <internalNodes>
        0 -1 26 1.9366326741874218e-03</internalNodes>
      <leafValues>
        -3.8952496647834778e-01 1.0837937705218792e-02</leafValues></_>
    <_>
      <internalNodes>
        0 -1 15 4.4102678075432777e-03</internalNodes>
      <leafValues>
        -3.4277704358100891e-01 1.2613655067980289e-02</leafValues></_>
    <_>
      <internalNodes>
        0 -1 6 5.9788096696138382e-02</internalNodes>
      <leafValues>
        7.5074532069265842e-03 -5.5562734603881836e-01</leafValues></_>
    <_>
      <internalNodes>
        0 -1 3 4.4690765440464020e-02</internalNodes>
      <leafValues>
        -5.8149907737970352e-02 7.4500203132629395e-02</leafValues></_>
    <_>
      <internalNodes>
        0 -1 25 5.4874554276466370e-02</internalNodes>
      <leafValues>
        -1.6987932845950127e-02 2.3992785811424255e-01</leafValues></_>
    <_>
      <internalNodes>
        0 -1 20 2.1222780924290419e-03</internalNodes>
      <leafValues>
        -4.7502109408378601e-01 9.2460978776216507e-03</leafValues></_>
    <_>
      <internalNodes>
        0 -1 9 8.3495393395423889e-02</internalNodes>
      <leafValues>
        4.9360808916389942e-03 -6.6346418857574463e-01</leafValues></_>
    <_>
      <internalNodes>
        0 -1 34 2.2648791782557964e-03</internalNodes>
      <leafValues>
        -3.9242818951606750e-01 8.8883638381958008e-03</leafValues></_>
    <_>
      <internalNodes>
        0 -1 30 5.6536458432674408e-02</internalNodes>
      <leafValues>
        -3.2599397003650665e-02 1.4643177390098572e-01</leafValues></_>
    <_>
      <internalNodes>
        0 -1 13 1.1018265783786774e-01</internalNodes>
      <leafValues>
        6.7566367797553539e-03 -5.6662470102310181e-01</leafValues></_>
    <_>
      <internalNodes>
        0 -1 21 9.0385183691978455e-02</internalNodes>
      <leafValues>
        3.7643923424184322e-03 -7.8244477510452271e-01</leafValues></_>
    <_>
      <internalNodes>
        0 -1 28 2.8590600937604904e-02</internalNodes>
      <leafValues>
        3.3045750111341476e-02 -1.0929241776466370e-01</leafValues></_>
    <_>
      <internalNodes>
        0 -1 35 9.7733465954661369e-03</internalNodes>
      <leafValues>
        -1.2570792436599731e-01 3.2107569277286530e-02</leafValues></_>
    <_>
      <internalNodes>
        0 -1 35 3.9432927966117859e-02</internalNodes>
      <leafValues>
        2.5834802538156509e-02 -1.4147183299064636e-01</leafValues></_>
    <_>
      <internalNodes>
        0 -1 9 2.8960522264242172e-02</internalNodes>
      <leafValues>
        -4.6843659132719040e-02 7.3233559727668762e-02</leafValues></_>
    <_>
      <internalNodes>
        0 -1 10 5.0356122665107250e-03</internalNodes>
      <leafValues>
        1.9028308987617493e-01 -1.9791377708315849e-02</leafValues></_>
    <_>
      <internalNodes>
        0 -1 17 1.1608672142028809e-01</internalNodes>
      <leafValues>
        7.4107064865529537e-03 -4.8526328802108765e-01</leafValues></_>
    <_>
      <internalNodes>
        0 -1 19 3.3820800483226776e-02</internalNodes>
      <leafValues>
        2.6673620566725731e-02 -1.2994909286499023e-01</leafValues></_>
    <_>
      <internalNodes>
        0 -1 19 7.7433586120605469e-03</internalNodes>
      <leafValues>
        -1.4470104873180389e-01 2.5082930922508240e-02</leafValues></_>
    <_>
      <internalNodes>
        0 -1 22 1.5056554228067398e-02</internalNodes>
      <leafValues>
        9.4879768788814545e-02 -3.3000435680150986e-02</leafValues></_>
    <_>
      <internalNodes>
        0 -1 26 2.0244145765900612e-02</internalNodes>
      <leafValues>
        4.9305621534585953e-02 -7.1960888803005219e-02</leafValues></_>
    <_>
      <internalNodes>
        0 -1 34 6.2834881246089935e-02</internalNodes>
      <leafValues>
        9.5245428383350372e-03 -3.5874247550964355e-01</leafValues></_>
    <_>
      <internalNodes>
        0 -1 15 2.0868089632131159e-04</internalNodes>
      <leafValues>
        5.3768646717071533e-01 -6.8073254078626633e-03</leafValues></_>
    <_>
      <internalNodes>
        0 -1 33 9.7436591982841492e-02</internalNodes>
      <leafValues>
        3.5407324321568012e-03 -1.</leafValues></_>
    <_>
      <internalNodes>
        0 -1 30 1.8088225275278091e-02</internalNodes>
      <leafValues>
        9.8126769065856934e-02 -3.3430207520723343e-02</leafValues></_>
    <_>
      <internalNodes>
        0 -1 29 6.7970748059451580e-03</internalNodes>
      <leafValues>
        -1.9055876135826111e-01 1.6149686649441719e-02</leafValues></_>
    <_>
      <internalNodes>
        0 -1 23 6.2509474810212851e-04</internalNodes>
      <leafValues>
        -6.7100590467453003e-01 4.2268368415534496e-03</leafValues></_>
    <_>
      <internalNodes>
        0 -1 22 8.6833976209163666e-02</internalNodes>
      <leafValues>
        3.8114965427666903e-03 -6.6899913549423218e-01</leafValues></_>
    <_>
      <internalNodes>
        0 -1 1 2.5663869455456734e-02</internalNodes>
      <leafValues>
        -4.1347526013851166e-02 7.1297459304332733e-02</leafValues></_>
    <_>
      <internalNodes>
        0 -1 1 8.4508145228028297e-03</internalNodes>
      <leafValues>
        1.5835821628570557e-01 -2.6637954637408257e-02</leafValues></_>
    <_>
      <internalNodes>
        0 -1 32 5.8669638819992542e-03</internalNodes>
      <leafValues>
        -2.7950266003608704e-01 9.9876383319497108e-03</leafValues></_>
    <_>
      <internalNodes>
        0 -1 32 1.9306408241391182e-02</internalNodes>
      <leafValues>
        9.4719655811786652e-02 -3.5642761737108231e-02</leafValues></_>
    <_>
      <internalNodes>
        0 -1 32 1.2203288264572620e-02</internalNodes>
      <leafValues>
        -1.5022675693035126e-01 1.9523708149790764e-02</leafValues></_>
    <_>
      <internalNodes>
        0 -1 7 1.7260208725929260e-02</internalNodes>
      <leafValues>
        4.4939558953046799e-02 -6.2853403389453888e-02</leafValues></_>
    <_>
      <internalNodes>
        0 -1 13 3.9936453104019165e-03</internalNodes>
      <leafValues>
        -4.7967055439949036e-01 6.6333669237792492e-03</leafValues></_>
    <_>
      <internalNodes>
        0 -1 17 4.5929707586765289e-02</internalNodes>
      <leafValues>
        -3.3155996352434158e-02 9.1615974903106689e-02</leafValues></_>
    <_>
      <internalNodes>
        0 -1 20 9.2396698892116547e-02</internalNodes>
      <leafValues>
        4.0481616742908955e-03 -6.4688247442245483e-01</leafValues></_>
    <_>
      <internalNodes>
        0 -1 21 2.8957074391655624e-04</internalNodes>
      <leafValues>
        -5.0718700885772705e-01 4.5118522830307484e-03</leafValues></_>
    <_>
      <internalNodes>
        0 -1 29 3.1076788902282715e-02</internalNodes>
      <leafValues>
        3.0443018302321434e-02 -8.0436326563358307e-02</leafValues></_>
    <_>
      <internalNodes>
        0 -1 27 7.4110388755798340e-02</internalNodes>
      <leafValues>
        3.5989098250865936e-03 -6.2727349996566772e-01</leafValues></_>
    <_>
      <internalNodes>
        0 -1 2 1.1609372496604919e-01</internalNodes>
      <leafValues>
        2.0055731292814016e-03 -8.6835068464279175e-01</leafValues></_>
    <_>
      <internalNodes>
        0 -1 9 6.8269269540905952e-03</internalNodes>
      <leafValues>
        -1.5229208767414093e-01 1.4283270575106144e-02</leafValues></_>
    <_>
      <internalNodes>
        0 -1 30 2.8674814850091934e-02</internalNodes>
      <leafValues>
        -5.2319653332233429e-02 4.4858224689960480e-02</leafValues></_>
    <_>
      <internalNodes>
        0 -1 5 4.1633352637290955e-02</internalNodes>
      <leafValues>
        -2.9809683561325073e-02 8.9129231870174408e-02</leafValues></_>
    <_>
      <internalNodes>
        0 -1 5 2.2510215640068054e-02</internalNodes>
      <leafValues>
        6.2605544924736023e-02 -4.1429083794355392e-02</leafValues></_>
    <_>
      <internalNodes>
        0 -1 26 1.1010116338729858e-01</internalNodes>
      <leafValues>
        1.1703022755682468e-03 -1.</leafValues></_>
    <_>
      <internalNodes>
        0 -1 2 2.9250178486108780e-03</internalNodes>
      <leafValues>
        -4.2154577374458313e-01 4.0929894894361496e-03</leafValues></_>
    <_>
      <internalNodes>
        0 -1 12 9.4686858355998993e-02</internalNodes>
      <leafValues>
        -1.0829727165400982e-02 2.1831277012825012e-01</leafValues></_>
    <_>
      <internalNodes>
        0 -1 12 1.4326414465904236e-01</internalNodes>
      <leafValues>
        3.6750480066984892e-03 -7.1902287006378174e-01</leafValues></_>
    <_>
      <internalNodes>
        0 -1 15 3.5671930760145187e-02</internalNodes>
      <leafValues>
        -2.5755474343895912e-02 8.6186669766902924e-02</leafValues></_>
    <_>
      <internalNodes>
        0 -1 11 5.3257897496223450e-02</internalNodes>
      <leafValues>
        -1.5775116160511971e-02 1.3793419301509857e-01</leafValues></_>
    <_>
      <internalNodes>
        0 -1 18 4.2835380882024765e-02</internalNodes>
      <leafValues>
        -1.2127249501645565e-02 1.7773719131946564e-01</leafValues></_></weakClassifiers></stage9>
</opencv_storage>
