<?xml version="1.0"?>
<opencv_storage>
<stage3>
  <maxWeakCount>100</maxWeakCount>
  <stageThreshold>-3.0208775997161865e+00</stageThreshold>
  <weakClassifiers>
    <_>
      <internalNodes>
        0 -1 4 4.3232247233390808e-02</internalNodes>
      <leafValues>
        -9.0539336204528809e-01 -7.5272679328918457e-01</leafValues></_>
    <_>
      <internalNodes>
        0 -1 12 2.9625248163938522e-02</internalNodes>
      <leafValues>
        -5.4915976524353027e-01 -1.6747790575027466e-01</leafValues></_>
    <_>
      <internalNodes>
        0 -1 22 4.0427178144454956e-02</internalNodes>
      <leafValues>
        7.7331140637397766e-02 -4.0996992588043213e-01</leafValues></_>
    <_>
      <internalNodes>
        0 -1 30 1.8274972215294838e-02</internalNodes>
      <leafValues>
        -3.4955248236656189e-01 1.7237313091754913e-01</leafValues></_>
    <_>
      <internalNodes>
        0 -1 16 1.1506172828376293e-02</internalNodes>
      <leafValues>
        -4.3977600336074829e-01 8.0123044550418854e-02</leafValues></_>
    <_>
      <internalNodes>
        0 -1 3 2.4659609422087669e-02</internalNodes>
      <leafValues>
        -3.9348638057708740e-01 9.0890780091285706e-02</leafValues></_>
    <_>
      <internalNodes>
        0 -1 5 2.5828123092651367e-02</internalNodes>
      <leafValues>
        -1.9364272058010101e-01 2.1319942176342010e-01</leafValues></_>
    <_>
      <internalNodes>
        0 -1 32 2.2006127983331680e-02</internalNodes>
      <leafValues>
        -2.6085400581359863e-01 1.4155976474285126e-01</leafValues></_>
    <_>
      <internalNodes>
        0 -1 9 1.5090677887201309e-02</internalNodes>
      <leafValues>
        -2.4815058708190918e-01 9.4812192022800446e-02</leafValues></_>
    <_>
      <internalNodes>
        0 -1 35 6.2632667832076550e-03</internalNodes>
      <leafValues>
        -3.8103997707366943e-01 4.8669848591089249e-02</leafValues></_>
    <_>
      <internalNodes>
        0 -1 1 8.6279325187206268e-03</internalNodes>
      <leafValues>
        -2.9062482714653015e-01 5.8775760233402252e-02</leafValues></_>
    <_>
      <internalNodes>
        0 -1 4 3.4109268337488174e-02</internalNodes>
      <leafValues>
        -2.4883407354354858e-01 9.2479303479194641e-02</leafValues></_>
    <_>
      <internalNodes>
        0 -1 22 2.6658285409212112e-02</internalNodes>
      <leafValues>
        1.3563382625579834e-01 -1.5057326853275299e-01</leafValues></_>
    <_>
      <internalNodes>
        0 -1 30 4.3900988996028900e-02</internalNodes>
      <leafValues>
        -1.0890000313520432e-01 2.4225503206253052e-01</leafValues></_>
    <_>
      <internalNodes>
        0 -1 24 5.3445296362042427e-03</internalNodes>
      <leafValues>
        -4.2359241843223572e-01 5.0146944820880890e-02</leafValues></_>
    <_>
      <internalNodes>
        0 -1 2 1.4286784455180168e-02</internalNodes>
      <leafValues>
        -2.1715520322322845e-01 5.4550092667341232e-02</leafValues></_>
    <_>
      <internalNodes>
        0 -1 15 1.5988163650035858e-02</internalNodes>
      <leafValues>
        -1.5228259563446045e-01 6.8745665252208710e-02</leafValues></_>
    <_>
      <internalNodes>
        0 -1 12 5.1188223063945770e-02</internalNodes>
      <leafValues>
        -6.3772499561309814e-02 1.7481625080108643e-01</leafValues></_>
    <_>
      <internalNodes>
        0 -1 13 7.4192143976688385e-02</internalNodes>
      <leafValues>
        3.5481236875057220e-02 -3.6898481845855713e-01</leafValues></_>
    <_>
      <internalNodes>
        0 -1 33 6.1963535845279694e-03</internalNodes>
      <leafValues>
        -3.6056956648826599e-01 2.7558760717511177e-02</leafValues></_>
    <_>
      <internalNodes>
        0 -1 13 2.2766364738345146e-02</internalNodes>
      <leafValues>
        -1.7251533269882202e-01 6.5161429345607758e-02</leafValues></_>
    <_>
      <internalNodes>
        0 -1 17 2.6835996657609940e-02</internalNodes>
      <leafValues>
        -1.0888388752937317e-01 9.6908830106258392e-02</leafValues></_>
    <_>
      <internalNodes>
        0 -1 7 3.0070761218667030e-02</internalNodes>
      <leafValues>
        4.8097621649503708e-02 -2.4772264063358307e-01</leafValues></_>
    <_>
      <internalNodes>
        0 -1 8 4.8741791397333145e-03</internalNodes>
      <leafValues>
        -2.8283402323722839e-01 3.6139175295829773e-02</leafValues></_>
    <_>
      <internalNodes>
        0 -1 18 2.6277141645550728e-02</internalNodes>
      <leafValues>
        5.8823306113481522e-02 -1.8959479033946991e-01</leafValues></_>
    <_>
      <internalNodes>
        0 -1 22 1.8876023590564728e-02</internalNodes>
      <leafValues>
        1.3645951449871063e-01 -7.4370436370372772e-02</leafValues></_>
    <_>
      <internalNodes>
        0 -1 31 3.6827512085437775e-02</internalNodes>
      <leafValues>
        -1.1076598614454269e-01 1.0895430296659470e-01</leafValues></_>
    <_>
      <internalNodes>
        0 -1 27 1.2533630244433880e-02</internalNodes>
      <leafValues>
        -1.5058864653110504e-01 7.1129418909549713e-02</leafValues></_>
    <_>
      <internalNodes>
        0 -1 22 8.3933740854263306e-02</internalNodes>
      <leafValues>
        8.5126757621765137e-03 -8.1997942924499512e-01</leafValues></_>
    <_>
      <internalNodes>
        0 -1 26 3.6007821559906006e-02</internalNodes>
      <leafValues>
        3.7169322371482849e-02 -2.1957032382488251e-01</leafValues></_>
    <_>
      <internalNodes>
        0 -1 25 5.4900959134101868e-02</internalNodes>
      <leafValues>
        -2.6818072423338890e-02 3.3338281512260437e-01</leafValues></_>
    <_>
      <internalNodes>
        0 -1 21 8.1448853015899658e-02</internalNodes>
      <leafValues>
        1.3362864032387733e-02 -6.0346931219100952e-01</leafValues></_>
    <_>
      <internalNodes>
        0 -1 32 3.9782412350177765e-02</internalNodes>
      <leafValues>
        -5.8379840105772018e-02 1.4937049150466919e-01</leafValues></_>
    <_>
      <internalNodes>
        0 -1 23 3.7079088389873505e-02</internalNodes>
      <leafValues>
        3.7801641970872879e-02 -2.3602014780044556e-01</leafValues></_>
    <_>
      <internalNodes>
        0 -1 3 1.3267079368233681e-02</internalNodes>
      <leafValues>
        -2.7071169018745422e-01 2.5130083784461021e-02</leafValues></_>
    <_>
      <internalNodes>
        0 -1 34 3.4433512482792139e-03</internalNodes>
      <leafValues>
        -4.2184561491012573e-01 1.8218547105789185e-02</leafValues></_>
    <_>
      <internalNodes>
        0 -1 5 4.9302846193313599e-02</internalNodes>
      <leafValues>
        -3.9790958166122437e-02 1.9203622639179230e-01</leafValues></_>
    <_>
      <internalNodes>
        0 -1 0 1.3618579506874084e-01</internalNodes>
      <leafValues>
        -5.7534882798790932e-03 9.6490210294723511e-01</leafValues></_>
    <_>
      <internalNodes>
        0 -1 16 2.2669684141874313e-02</internalNodes>
      <leafValues>
        -8.8842593133449554e-02 6.4513802528381348e-02</leafValues></_>
    <_>
      <internalNodes>
        0 -1 32 1.0280337184667587e-02</internalNodes>
      <leafValues>
        -2.2192274034023285e-01 2.5608252733945847e-02</leafValues></_>
    <_>
      <internalNodes>
        0 -1 1 2.5663869455456734e-02</internalNodes>
      <leafValues>
        -5.6305430829524994e-02 1.0336382687091827e-01</leafValues></_>
    <_>
      <internalNodes>
        0 -1 4 5.3412593901157379e-02</internalNodes>
      <leafValues>
        -7.6806716620922089e-02 9.9263787269592285e-02</leafValues></_>
    <_>
      <internalNodes>
        0 -1 4 1.3049033284187317e-01</internalNodes>
      <leafValues>
        1.2705464847385883e-02 -5.4131114482879639e-01</leafValues></_>
    <_>
      <internalNodes>
        0 -1 26 1.9366326741874218e-03</internalNodes>
      <leafValues>
        -4.2397025227546692e-01 1.2190250679850578e-02</leafValues></_>
    <_>
      <internalNodes>
        0 -1 14 6.7811787128448486e-02</internalNodes>
      <leafValues>
        1.3515238650143147e-02 -3.8734558224678040e-01</leafValues></_>
    <_>
      <internalNodes>
        0 -1 18 5.7254552841186523e-02</internalNodes>
      <leafValues>
        8.6038038134574890e-03 -5.7540178298950195e-01</leafValues></_>
    <_>
      <internalNodes>
        0 -1 8 3.1045231968164444e-02</internalNodes>
      <leafValues>
        3.7390641868114471e-02 -1.3693344593048096e-01</leafValues></_>
    <_>
      <internalNodes>
        0 -1 0 2.1087579429149628e-02</internalNodes>
      <leafValues>
        -6.7917570471763611e-02 9.5028676092624664e-02</leafValues></_>
    <_>
      <internalNodes>
        0 -1 9 1.4806894585490227e-02</internalNodes>
      <leafValues>
        1.2545062601566315e-01 -4.7214195132255554e-02</leafValues></_>
    <_>
      <internalNodes>
        0 -1 15 5.8868214488029480e-02</internalNodes>
      <leafValues>
        1.4885083772242069e-02 -3.3826169371604919e-01</leafValues></_>
    <_>
      <internalNodes>
        0 -1 15 4.3610646389424801e-03</internalNodes>
      <leafValues>
        -3.6668786406517029e-01 1.4312656596302986e-02</leafValues></_>
    <_>
      <internalNodes>
        0 -1 31 7.8093729913234711e-02</internalNodes>
      <leafValues>
        -2.3224186152219772e-02 2.1686378121376038e-01</leafValues></_>
    <_>
      <internalNodes>
        0 -1 21 1.9738513976335526e-02</internalNodes>
      <leafValues>
        9.2716351151466370e-02 -6.9012627005577087e-02</leafValues></_>
    <_>
      <internalNodes>
        0 -1 21 6.4813392236828804e-03</internalNodes>
      <leafValues>
        -2.2035843133926392e-01 2.6437928900122643e-02</leafValues></_>
    <_>
      <internalNodes>
        0 -1 22 5.8854714035987854e-02</internalNodes>
      <leafValues>
        1.8194559961557388e-02 -2.6849430799484253e-01</leafValues></_>
    <_>
      <internalNodes>
        0 -1 3 4.4690765440464020e-02</internalNodes>
      <leafValues>
        -5.9754967689514160e-02 8.2149460911750793e-02</leafValues></_>
    <_>
      <internalNodes>
        0 -1 3 1.0938116163015366e-01</internalNodes>
      <leafValues>
        1.3474295847117901e-02 -4.1327998042106628e-01</leafValues></_>
    <_>
      <internalNodes>
        0 -1 13 1.1018265783786774e-01</internalNodes>
      <leafValues>
        6.4921262674033642e-03 -5.8838498592376709e-01</leafValues></_>
    <_>
      <internalNodes>
        0 -1 1 8.4508145228028297e-03</internalNodes>
      <leafValues>
        1.5384154021739960e-01 -3.0906016007065773e-02</leafValues></_>
    <_>
      <internalNodes>
        0 -1 29 6.1920294538140297e-03</internalNodes>
      <leafValues>
        -2.2350479662418365e-01 1.7686862498521805e-02</leafValues></_>
    <_>
      <internalNodes>
        0 -1 28 2.8590600937604904e-02</internalNodes>
      <leafValues>
        3.9188168942928314e-02 -1.2344175577163696e-01</leafValues></_>
    <_>
      <internalNodes>
        0 -1 30 1.8088225275278091e-02</internalNodes>
      <leafValues>
        1.0894358158111572e-01 -3.8449436426162720e-02</leafValues></_>
    <_>
      <internalNodes>
        0 -1 30 5.6536458432674408e-02</internalNodes>
      <leafValues>
        -3.3558111637830734e-02 1.5123333036899567e-01</leafValues></_>
    <_>
      <internalNodes>
        0 -1 29 5.7305745780467987e-02</internalNodes>
      <leafValues>
        1.2735436670482159e-02 -2.9609450697898865e-01</leafValues></_>
    <_>
      <internalNodes>
        0 -1 5 2.6056231930851936e-02</internalNodes>
      <leafValues>
        6.3484482467174530e-02 -6.1394065618515015e-02</leafValues></_>
    <_>
      <internalNodes>
        0 -1 34 6.2834881246089935e-02</internalNodes>
      <leafValues>
        9.4590876251459122e-03 -3.8768592476844788e-01</leafValues></_>
    <_>
      <internalNodes>
        0 -1 11 5.2335806190967560e-02</internalNodes>
      <leafValues>
        -2.1286059170961380e-02 1.7667792737483978e-01</leafValues></_>
    <_>
      <internalNodes>
        0 -1 10 5.0356122665107250e-03</internalNodes>
      <leafValues>
        1.8312676250934601e-01 -2.0300582051277161e-02</leafValues></_>
    <_>
      <internalNodes>
        0 -1 9 2.8911598026752472e-02</internalNodes>
      <leafValues>
        -4.9996823072433472e-02 7.7489756047725677e-02</leafValues></_>
    <_>
      <internalNodes>
        0 -1 13 4.0995511226356030e-03</internalNodes>
      <leafValues>
        -4.8989099264144897e-01 7.8021595254540443e-03</leafValues></_>
    <_>
      <internalNodes>
        0 -1 26 7.1334525942802429e-02</internalNodes>
      <leafValues>
        8.2778371870517731e-03 -4.1443702578544617e-01</leafValues></_>
    <_>
      <internalNodes>
        0 -1 9 9.9923245608806610e-02</internalNodes>
      <leafValues>
        2.9267559293657541e-03 -1.</leafValues></_>
    <_>
      <internalNodes>
        0 -1 35 8.0833444371819496e-04</internalNodes>
      <leafValues>
        -5.0626349449157715e-01 5.3343484178185463e-03</leafValues></_>
    <_>
      <internalNodes>
        0 -1 6 7.3105305433273315e-02</internalNodes>
      <leafValues>
        3.2722090836614370e-03 -8.6656367778778076e-01</leafValues></_>
    <_>
      <internalNodes>
        0 -1 16 1.3917089998722076e-01</internalNodes>
      <leafValues>
        -5.8632893487811089e-03 6.7764431238174438e-01</leafValues></_>
    <_>
      <internalNodes>
        0 -1 17 1.0631716251373291e-01</internalNodes>
      <leafValues>
        1.0026087984442711e-02 -3.6642020940780640e-01</leafValues></_>
    <_>
      <internalNodes>
        0 -1 25 5.3316112607717514e-03</internalNodes>
      <leafValues>
        -1.6280211508274078e-01 1.8837504088878632e-02</leafValues></_>
    <_>
      <internalNodes>
        0 -1 27 2.3307543247938156e-02</internalNodes>
      <leafValues>
        4.2423330247402191e-02 -7.8055322170257568e-02</leafValues></_>
    <_>
      <internalNodes>
        0 -1 34 5.3825762122869492e-02</internalNodes>
      <leafValues>
        -1.3942584395408630e-02 2.2376179695129395e-01</leafValues></_>
    <_>
      <internalNodes>
        0 -1 2 1.0523576289415359e-01</internalNodes>
      <leafValues>
        3.7221326492726803e-03 -6.6982173919677734e-01</leafValues></_>
    <_>
      <internalNodes>
        0 -1 32 2.0759336650371552e-02</internalNodes>
      <leafValues>
        7.9415053129196167e-02 -3.7579737603664398e-02</leafValues></_>
    <_>
      <internalNodes>
        0 -1 20 2.1632621064782143e-03</internalNodes>
      <leafValues>
        -3.5262671113014221e-01 7.5395619496703148e-03</leafValues></_>
    <_>
      <internalNodes>
        0 -1 22 1.5056554228067398e-02</internalNodes>
      <leafValues>
        9.2760108411312103e-02 -3.2233927398920059e-02</leafValues></_>
    <_>
      <internalNodes>
        0 -1 23 8.2491636276245117e-03</internalNodes>
      <leafValues>
        -1.4095361530780792e-01 2.4358170107007027e-02</leafValues></_>
    <_>
      <internalNodes>
        0 -1 24 4.4196471571922302e-03</internalNodes>
      <leafValues>
        2.1715551614761353e-01 -1.6598271206021309e-02</leafValues></_>
    <_>
      <internalNodes>
        0 -1 19 5.5351614952087402e-02</internalNodes>
      <leafValues>
        9.5063196495175362e-03 -3.0016633868217468e-01</leafValues></_>
    <_>
      <internalNodes>
        0 -1 20 4.3304719030857086e-02</internalNodes>
      <leafValues>
        -2.5044173002243042e-02 1.2166241556406021e-01</leafValues></_>
    <_>
      <internalNodes>
        0 -1 24 1.8062476068735123e-02</internalNodes>
      <leafValues>
        -5.9316564351320267e-02 5.5823314934968948e-02</leafValues></_>
    <_>
      <internalNodes>
        0 -1 5 3.7134926766157150e-02</internalNodes>
      <leafValues>
        -3.5781592130661011e-02 8.0912955105304718e-02</leafValues></_>
    <_>
      <internalNodes>
        0 -1 0 8.0785881727933884e-03</internalNodes>
      <leafValues>
        -1.1065942049026489e-01 2.7506278827786446e-02</leafValues></_>
    <_>
      <internalNodes>
        0 -1 12 6.9161564111709595e-02</internalNodes>
      <leafValues>
        -2.0145205780863762e-02 1.3134753704071045e-01</leafValues></_>
    <_>
      <internalNodes>
        0 -1 12 2.9095308855175972e-02</internalNodes>
      <leafValues>
        5.6988738477230072e-02 -5.5834408849477768e-02</leafValues></_>
    <_>
      <internalNodes>
        0 -1 12 1.1639861389994621e-02</internalNodes>
      <leafValues>
        -1.4234000444412231e-01 2.9084822162985802e-02</leafValues></_>
    <_>
      <internalNodes>
        0 -1 11 8.3470679819583893e-03</internalNodes>
      <leafValues>
        1.2764666974544525e-01 -2.0817315205931664e-02</leafValues></_>
    <_>
      <internalNodes>
        0 -1 10 1.8049068748950958e-02</internalNodes>
      <leafValues>
        -6.0014229267835617e-02 4.4718239456415176e-02</leafValues></_>
    <_>
      <internalNodes>
        0 -1 31 1.0567261837422848e-02</internalNodes>
      <leafValues>
        -1.9609427452087402e-01 1.3508798554539680e-02</leafValues></_>
    <_>
      <internalNodes>
        0 -1 17 4.5861575752496719e-02</internalNodes>
      <leafValues>
        -3.0132548883557320e-02 8.5375346243381500e-02</leafValues></_>
    <_>
      <internalNodes>
        0 -1 13 3.8948468863964081e-02</internalNodes>
      <leafValues>
        -4.2494077235460281e-02 5.6577734649181366e-02</leafValues></_>
    <_>
      <internalNodes>
        0 -1 25 8.0059260129928589e-02</internalNodes>
      <leafValues>
        -7.0871952921152115e-03 3.1080886721611023e-01</leafValues></_>
    <_>
      <internalNodes>
        0 -1 19 7.9408623278141022e-03</internalNodes>
      <leafValues>
        -1.2238139659166336e-01 2.2499956190586090e-02</leafValues></_></weakClassifiers></stage3>
</opencv_storage>
