<?xml version="1.0"?>
<opencv_storage>
<cascade>
  <stageType>BOOST</stageType>
  <featureType>LBP</featureType>
  <height>20</height>
  <width>20</width>
  <stageParams>
    <boostType>GAB</boostType>
    <minHitRate>9.9900001287460327e-01</minHitRate>
    <maxFalseAlarm>5.0000000000000000e-01</maxFalseAlarm>
    <weightTrimRate>9.4999999999999996e-01</weightTrimRate>
    <maxDepth>1</maxDepth>
    <maxWeakCount>100</maxWeakCount></stageParams>
  <featureParams>
    <maxCatCount>256</maxCatCount>
    <featSize>1</featSize></featureParams>
  <stageNum>20</stageNum>
  <stages>
    <!-- stage 0 -->
    <_>
      <maxWeakCount>5</maxWeakCount>
      <stageThreshold>-1.3866928815841675e+00</stageThreshold>
      <weakClassifiers>
        <_>
          <internalNodes>
            0 -1 36 -2147441536 -716943357 -1811910151 -587108075
            -536817491 -2011135872 -803606081 -242166638</internalNodes>
          <leafValues>
            -7.5868374109268188e-01 3.0623304843902588e-01</leafValues></_>
        <_>
          <internalNodes>
            0 -1 61 -1602219472 197918801 -1744252835 -1211166704
            715172284 -1702149887 581984984 -1665579824</internalNodes>
          <leafValues>
            -7.4808019399642944e-01 3.6803367733955383e-01</leafValues></_>
        <_>
          <internalNodes>
            0 -1 41 214757998 1406472455 33640798 357798247 8647391
            1253646344 1661199083 863965631</internalNodes>
          <leafValues>
            -7.0050948858261108e-01 4.3691983819007874e-01</leafValues></_>
        <_>
          <internalNodes>
            0 -1 3 -1392447552 -1550188528 301990421 1402032465
            -360525622 -2146328064 -243258741 859000955</internalNodes>
          <leafValues>
            -6.8514388799667358e-01 4.2574986815452576e-01</leafValues></_>
        <_>
          <internalNodes>
            0 -1 136 -2121792432 291244164 -721399457 993922260
            -2105525630 -1100316158 452985323 -1206888232</internalNodes>
          <leafValues>
            -6.5957063436508179e-01 4.4080755114555359e-01</leafValues></_></weakClassifiers></_>
    <!-- stage 1 -->
    <_>
      <maxWeakCount>7</maxWeakCount>
      <stageThreshold>-1.3021872043609619e+00</stageThreshold>
      <weakClassifiers>
        <_>
          <internalNodes>
            0 -1 56 1418703007 398446859 85008687 1406132713 835252159
            977242299 463649279 67103231</internalNodes>
          <leafValues>
            -7.1278458833694458e-01 3.0434781312942505e-01</leafValues></_>
        <_>
          <internalNodes>
            0 -1 35 -1278824600 -1144941366 1098924248 -485369455
            -528243526 1929576502 -519542321 844833471</internalNodes>
          <leafValues>
            -6.6360986232757568e-01 3.3484551310539246e-01</leafValues></_>
        <_>
          <internalNodes>
            0 -1 164 -147307408 -69334957 -1852728937 -1819223667
            -427246852 -896879990 -217892707 -1161936710</internalNodes>
          <leafValues>
            -5.0807970762252808e-01 4.1620156168937683e-01</leafValues></_>
        <_>
          <internalNodes>
            0 -1 19 1987621474 1044596242 -804254133 337605202 839189093
            898941315 1633907707 1610561271</internalNodes>
          <leafValues>
            -6.5308767557144165e-01 3.4992927312850952e-01</leafValues></_>
        <_>
          <internalNodes>
            0 -1 174 419174140 312885793 -805203937 611844457
            -1971314165 1518899347 -992342290 -1146594332</internalNodes>
          <leafValues>
            -6.4302438497543335e-01 3.7339627742767334e-01</leafValues></_>
        <_>
          <internalNodes>
            0 -1 33 -535770898 -1759537772 285262143 492245028 537061627
            -226358806 -1995891521 55525690</internalNodes>
          <leafValues>
            -5.1306009292602539e-01 4.2180773615837097e-01</leafValues></_>
        <_>
          <internalNodes>
            0 -1 42 -369061827 319983626 1477296405 902965314
            -1299119853 -1308589941 -353673011 -1498983849</internalNodes>
          <leafValues>
            -5.0744718313217163e-01 4.6872252225875854e-01</leafValues></_></weakClassifiers></_>
    <!-- stage 2 -->
    <_>
      <maxWeakCount>6</maxWeakCount>
      <stageThreshold>-1.5929069519042969e+00</stageThreshold>
      <weakClassifiers>
        <_>
          <internalNodes>
            0 -1 40 1943500791 1407054531 -767274537 1976502363
            1367411131 -309785465 1236998095 2071937943</internalNodes>
          <leafValues>
            -6.6544115543365479e-01 1.6129031777381897e-01</leafValues></_>
        <_>
          <internalNodes>
            0 -1 52 -526871484 -44789639 -485828107 2012124313
            -1715281505 -91455382 -1281634049 1350891771</internalNodes>
          <leafValues>
            -6.3705873489379883e-01 3.2413712143898010e-01</leafValues></_>
        <_>
          <internalNodes>
            0 -1 69 444609980 -1084844904 419867029 -1247857828
            -1299604995 -119885367 -1199539539 -1902618148</internalNodes>
          <leafValues>
            -6.0716319084167480e-01 3.5685956478118896e-01</leafValues></_>
        <_>
          <internalNodes>
            0 -1 125 -2113399307 -1690300287 -1069328323 -586055053
            -1291283765 -366303096 -301940515 -1635499956</internalNodes>
          <leafValues>
            -4.9198806285858154e-01 4.1530594229698181e-01</leafValues></_>
        <_>
          <internalNodes>
            0 -1 142 -487947094 6476498 -1823367137 1742128342
            -1056802349 595822593 -1721141047 -1563768917</internalNodes>
          <leafValues>
            -5.6884324550628662e-01 3.6269375681877136e-01</leafValues></_>
        <_>
          <internalNodes>
            0 -1 54 -2004687407 -2066690048 -2061412326 -707997424
            -1425309511 -99974968 -1971025667 -391333247</internalNodes>
          <leafValues>
            -5.1514542102813721e-01 3.8750010728836060e-01</leafValues></_></weakClassifiers></_>
    <!-- stage 3 -->
    <_>
      <maxWeakCount>8</maxWeakCount>
      <stageThreshold>-1.5928415060043335e+00</stageThreshold>
      <weakClassifiers>
        <_>
          <internalNodes>
            0 -1 2 -332728590 -7085349 168083931 -552480173 -1702167617
            -340813608 -1541881635 -548017232</internalNodes>
          <leafValues>
            -6.4944648742675781e-01 1.3368983566761017e-01</leafValues></_>
        <_>
          <internalNodes>
            0 -1 157 360192112 -1679893283 335591199 2111370579
            -175746594 -342130518 -217497610 -1466147760</internalNodes>
          <leafValues>
            -6.3749134540557861e-01 2.6479390263557434e-01</leafValues></_>
        <_>
          <internalNodes>
            0 -1 17 937784222 2006339919 -447004179 926109730 725835966
            1521055887 800676863 975923143</internalNodes>
          <leafValues>
            -5.7289224863052368e-01 3.1631535291671753e-01</leafValues></_>
        <_>
          <internalNodes>
            0 -1 153 -1414010057 581840549 -16797698 -1979859025
            1828413439 -16908419 -1610858774 -1971723077</internalNodes>
          <leafValues>
            -4.2995065450668335e-01 4.5485275983810425e-01</leafValues></_>
        <_>
          <internalNodes>
            0 -1 84 -1741677896 -1118153673 -1861872233 1059022088
            749097881 -374666360 1401434521 -1444096979</internalNodes>
          <leafValues>
            -4.9083834886550903e-01 4.0146070718765259e-01</leafValues></_>
        <_>
          <internalNodes>
            0 -1 64 -930091661 -1001172911 -1055796755 1954984354
            2013986823 -1651890046 1359178516 -1107222409</internalNodes>
          <leafValues>
            -4.8034822940826416e-01 4.2490831017494202e-01</leafValues></_>
        <_>
          <internalNodes>
            0 -1 25 56111220 -1245097543 1376108917 -45985490 680044727
            -1198796294 1888237720 -1365756956</internalNodes>
          <leafValues>
            -5.8855777978897095e-01 3.3431863784790039e-01</leafValues></_>
        <_>
          <internalNodes>
            0 -1 170 -430809999 -2096787397 -1055682093 -647208592
            -536200769 -348004224 -2138383394 -1409623358</internalNodes>
          <leafValues>
            -4.4315728545188904e-01 4.5633301138877869e-01</leafValues></_></weakClassifiers></_>
    <!-- stage 4 -->
    <_>
      <maxWeakCount>8</maxWeakCount>
      <stageThreshold>-1.8071813583374023e+00</stageThreshold>
      <weakClassifiers>
        <_>
          <internalNodes>
            0 -1 120 -1027083501 13799503 1611923637 1933811991
            1498006163 307740674 1626194683 1474296511</internalNodes>
          <leafValues>
            -6.7931687831878662e-01 1.4395886659622192e-01</leafValues></_>
        <_>
          <internalNodes>
            0 -1 51 -498209822 -543718137 687931658 -1282209718
            1887640478 1017643107 645929070 870042315</internalNodes>
          <leafValues>
            -5.5983984470367432e-01 2.8249377012252808e-01</leafValues></_>
        <_>
          <internalNodes>
            0 -1 76 -404641142 856480132 134251355 -2133600742
            1107642315 1092894860 1116856746 1382017919</internalNodes>
          <leafValues>
            -5.7902312278747559e-01 3.0092871189117432e-01</leafValues></_>
        <_>
          <internalNodes>
            0 -1 7 -974336286 -671809554 -132022337 -1251737606
            1063567335 -274403532 -134744354 -539899913</internalNodes>
          <leafValues>
            -4.0888196229934692e-01 4.6732532978057861e-01</leafValues></_>
        <_>
          <internalNodes>
            0 -1 15 1416585826 -1043316728 -1073122983 1904611330
            1116414480 1101557833 184594171 1401254489</internalNodes>
          <leafValues>
            -6.1629182100296021e-01 3.0466112494468689e-01</leafValues></_>
        <_>
          <internalNodes>
            0 -1 38 -964634190 -1608379816 151569 -576220912 -1039478129
            -276660223 -1014848914 -1945701451</internalNodes>
          <leafValues>
            -4.4534775614738464e-01 3.9870756864547729e-01</leafValues></_>
        <_>
          <internalNodes>
            0 -1 46 2034754954 -674727925 403226630 -1650417074
            1808728379 1665755138 1611202630 1682040851</internalNodes>
          <leafValues>
            -6.5400302410125732e-01 2.7741333842277527e-01</leafValues></_>
        <_>
          <internalNodes>
            0 -1 108 -719877548 318947337 -2147466875 -251194725
            1887510760 -1929048057 -1626799940 148084383</internalNodes>
          <leafValues>
            -5.5917990207672119e-01 3.4529557824134827e-01</leafValues></_></weakClassifiers></_>
    <!-- stage 5 -->
    <_>
      <maxWeakCount>9</maxWeakCount>
      <stageThreshold>-8.6366015672683716e-01</stageThreshold>
      <weakClassifiers>
        <_>
          <internalNodes>
            0 -1 143 -285802753 9893790 -1064251243 587150046 1489750524
            2081013794 -238604853 -540026409</internalNodes>
          <leafValues>
            -6.0235887765884399e-01 1.7209301888942719e-01</leafValues></_>
        <_>
          <internalNodes>
            0 -1 132 -964104275 -1605727525 1209336730 6140236
            -308663967 1099400301 -511639260 1627893479</internalNodes>
          <leafValues>
            -6.2757521867752075e-01 2.1767315268516541e-01</leafValues></_>
        <_>
          <internalNodes>
            0 -1 6 1681949312 1721365915 -1769653095 -1749020209
            -536339980 -171667039 -1999583071 -573221163</internalNodes>
          <leafValues>
            -6.1488670110702515e-01 2.4721601605415344e-01</leafValues></_>
        <_>
          <internalNodes>
            0 -1 65 -1527929201 24447426 -1342080401 365543578
            1976045830 377127618 -1971125877 1790744715</internalNodes>
          <leafValues>
            -5.1631766557693481e-01 3.5742399096488953e-01</leafValues></_>
        <_>
          <internalNodes>
            0 -1 137 102400540 2071109953 -1996285890 411177993
            616706365 -1098477142 -1717982773 -123549297</internalNodes>
          <leafValues>
            -4.9227645993232727e-01 3.5788834095001221e-01</leafValues></_>
        <_>
          <internalNodes>
            0 -1 135 1498072832 1427555393 -2129473229 339775834
            541773956 -1136541566 -2112491437 144032773</internalNodes>
          <leafValues>
            -6.0844159126281738e-01 2.7214902639389038e-01</leafValues></_>
        <_>
          <internalNodes>
            0 -1 68 1614936228 427983260 8459722 -1693249391 402907598
            -1111277413 150995549 11485335</internalNodes>
          <leafValues>
            -5.5162537097930908e-01 3.0525603890419006e-01</leafValues></_>
        <_>
          <internalNodes>
            0 -1 58 -639979500 849536084 -1190244044 780585032 273168965
            -1006501879 650343441 1808493105</internalNodes>
          <leafValues>
            -6.6622740030288696e-01 2.5212964415550232e-01</leafValues></_>
        <_>
          <internalNodes>
            0 -1 144 1796976127 771416063 -1459831041 1395324837
            2096463223 914126711 -427821706 -2055213059</internalNodes>
          <leafValues>
            -4.0129336714744568e-01 4.4348022341728210e-01</leafValues></_></weakClassifiers></_>
    <!-- stage 6 -->
    <_>
      <maxWeakCount>10</maxWeakCount>
      <stageThreshold>-1.3421059846878052e+00</stageThreshold>
      <weakClassifiers>
        <_>
          <internalNodes>
            0 -1 127 -2032405509 1506185420 285463383 2009592155
            -915439165 -1945992310 -1610456850 570411775</internalNodes>
          <leafValues>
            -6.2115383148193359e-01 5.3030304610729218e-02</leafValues></_>
        <_>
          <internalNodes>
            0 -1 4 -800275898 461472204 25472111 630785027 -2103301457
            -1701737856 -147252584 625148211</internalNodes>
          <leafValues>
            -5.4011952877044678e-01 2.4584165215492249e-01</leafValues></_>
        <_>
          <internalNodes>
            0 -1 124 -483723760 1964520716 -2012684005 -444333748
            -398124738 992874629 -187995458 -1168625541</internalNodes>
          <leafValues>
            -4.9308249354362488e-01 2.9613050818443298e-01</leafValues></_>
        <_>
          <internalNodes>
            0 -1 45 -296032734 545313051 -1342133295 1103214612
            1365525509 1090556814 1636770128 889714973</internalNodes>
          <leafValues>
            -5.9796357154846191e-01 2.8658911585807800e-01</leafValues></_>
        <_>
          <internalNodes>
            0 -1 12 -964260750 -1774812638 557847831 -750667773
            -1341431298 -1031698290 -58605318 -958926282</internalNodes>
          <leafValues>
            -4.3818268179893494e-01 3.5464325547218323e-01</leafValues></_>
        <_>
          <internalNodes>
            0 -1 11 -2139953296 226922497 -905650090 -1311272958 8691897
            -1163788099 -668393308 -928270112</internalNodes>
          <leafValues>
            -4.9243339896202087e-01 3.1529527902603149e-01</leafValues></_>
        <_>
          <internalNodes>
            0 -1 88 1231495586 -922332716 1208534484 -65765288
            1133707593 383914120 1137161003 -451954678</internalNodes>
          <leafValues>
            -4.9086058139801025e-01 3.4517249464988708e-01</leafValues></_>
        <_>
          <internalNodes>
            0 -1 130 -360578866 72583319 -343895932 1977344967
            1612425458 -1409163135 1342357914 677096380</internalNodes>
          <leafValues>
            -5.8052384853363037e-01 2.9996261000633240e-01</leafValues></_>
        <_>
          <internalNodes>
            0 -1 34 1360997280 -1468002031 1532496211 -1290991477
            -939435531 -805232527 -1027062589 1233501839</internalNodes>
          <leafValues>
            -5.2589678764343262e-01 3.4601116180419922e-01</leafValues></_>
        <_>
          <internalNodes>
            0 -1 82 -695997580 -1832737408 143379 -1185815289 356524750
            156073993 1234289284 462140303</internalNodes>
          <leafValues>
            -5.1039379835128784e-01 3.4713006019592285e-01</leafValues></_></weakClassifiers></_>
    <!-- stage 7 -->
    <_>
      <maxWeakCount>9</maxWeakCount>
      <stageThreshold>-1.5597232580184937e+00</stageThreshold>
      <weakClassifiers>
        <_>
          <internalNodes>
            0 -1 129 -1164168975 -1352695598 -1793762977 -680524328
            1041086972 -1815150443 1237685245 -1632092508</internalNodes>
          <leafValues>
            -6.5429478883743286e-01 1.4623171649873257e-02</leafValues></_>
        <_>
          <internalNodes>
            0 -1 110 880825056 -585252519 -2012101659 293437833
            -1457877523 2051547274 -636818517 -1602691964</internalNodes>
          <leafValues>
            -5.6803506612777710e-01 2.4971200525760651e-01</leafValues></_>
        <_>
          <internalNodes>
            0 -1 21 -1151720656 1058115842 -1736437317 -148831725
            1360098100 -1190428660 1635858708 -1644208365</internalNodes>
          <leafValues>
            -5.6572818756103516e-01 2.7124390006065369e-01</leafValues></_>
        <_>
          <internalNodes>
            0 -1 156 -394132469 1002985107 1661042821 -1114882025
            -598389697 1782452867 2013501658 -433034898</internalNodes>
          <leafValues>
            -4.2745846509933472e-01 3.6204761266708374e-01</leafValues></_>
        <_>
          <internalNodes>
            0 -1 140 -842552853 -2106818126 -666827596 -1550728808
            1359135251 1764884483 1254797314 -487472501</internalNodes>
          <leafValues>
            -4.5494148135185242e-01 3.5711765289306641e-01</leafValues></_>
        <_>
          <internalNodes>
            0 -1 109 -1100867719 -1714405278 422597018 -1521974952
            20994140 -1978974069 -1155461668 -1088550768</internalNodes>
          <leafValues>
            -5.0215965509414673e-01 3.2661971449851990e-01</leafValues></_>
        <_>
          <internalNodes>
            0 -1 14 -938029040 -2102360118 286265653 2109826050
            -349757109 -1165913723 1108188103 -1049246427</internalNodes>
          <leafValues>
            -5.1993489265441895e-01 3.3716979622840881e-01</leafValues></_>
        <_>
          <internalNodes>
            0 -1 74 130261860 -659832822 -1810861286 295045259 700675563
            673949724 -393616934 1000606304</internalNodes>
          <leafValues>
            -6.3700288534164429e-01 2.7570709586143494e-01</leafValues></_>
        <_>
          <internalNodes>
            0 -1 123 -1330507024 -2079453176 -1073489855 -1048415861
            -1001016472 -1920466891 1275807833 -1897631527</internalNodes>
          <leafValues>
            -5.9295952320098877e-01 2.8292122483253479e-01</leafValues></_></weakClassifiers></_>
    <!-- stage 8 -->
    <_>
      <maxWeakCount>8</maxWeakCount>
      <stageThreshold>-1.0375703573226929e+00</stageThreshold>
      <weakClassifiers>
        <_>
          <internalNodes>
            0 -1 53 -1937553967 -1243987919 -1056845481 -7343856
            -349477996 -653280351 -913852264 -294720131</internalNodes>
          <leafValues>
            -5.9519726037979126e-01 1.3513512909412384e-01</leafValues></_>
        <_>
          <internalNodes>
            0 -1 148 882905909 -111388627 1086706015 -1278066280
            -1233112804 -71925759 718325668 -1136604556</internalNodes>
          <leafValues>
            -5.8315414190292358e-01 2.5019809603691101e-01</leafValues></_>
        <_>
          <internalNodes>
            0 -1 168 -1153685027 653802169 -2094677731 -1732623408
            504113340 -92108781 1525715663 -1377250340</internalNodes>
          <leafValues>
            -4.4837319850921631e-01 3.6277130246162415e-01</leafValues></_>
        <_>
          <internalNodes>
            0 -1 79 1296435592 324407755 1200010522 -1860927094
            1342382264 818086042 -1189239063 428755151</internalNodes>
          <leafValues>
            -5.1311665773391724e-01 3.5431113839149475e-01</leafValues></_>
        <_>
          <internalNodes>
            0 -1 27 1129557780 998933656 25732503 1067063376 985364816
            50373496 -879164040 -5924445</internalNodes>
          <leafValues>
            -4.6529379487037659e-01 3.6537325382232666e-01</leafValues></_>
        <_>
          <internalNodes>
            0 -1 154 -1529461995 172157386 -805146435 341051410
            -488410604 -1765269498 715137515 -366445964</internalNodes>
          <leafValues>
            -5.2780371904373169e-01 3.2338020205497742e-01</leafValues></_>
        <_>
          <internalNodes>
            0 -1 112 -1542449997 462192029 -786330285 376330525
            -770676323 -660426173 1438882721 1610640096</internalNodes>
          <leafValues>
            -5.5382710695266724e-01 3.1622582674026489e-01</leafValues></_>
        <_>
          <internalNodes>
            0 -1 24 474495445 839628024 -2130587399 -1592074111
            -385302522 -259833597 -1407032144 -1880092368</internalNodes>
          <leafValues>
            -5.9306144714355469e-01 3.1629204750061035e-01</leafValues></_></weakClassifiers></_>
    <!-- stage 9 -->
    <_>
      <maxWeakCount>9</maxWeakCount>
      <stageThreshold>-1.1679434776306152e+00</stageThreshold>
      <weakClassifiers>
        <_>
          <internalNodes>
            0 -1 37 -297021191 -581510797 -1726802881 -137094782
            -368448065 -341146999 -676597348 -41041739</internalNodes>
          <leafValues>
            -5.3338336944580078e-01 2.1442885696887970e-01</leafValues></_>
        <_>
          <internalNodes>
            0 -1 119 1650849150 156563678 -586493323 463307730
            1712294330 1352877058 -935278191 635944683</internalNodes>
          <leafValues>
            -5.1131296157836914e-01 2.7257233858108521e-01</leafValues></_>
        <_>
          <internalNodes>
            0 -1 43 -329515241 384889176 -871608908 -1604782243
            1074943489 -1171545447 -108309738 -89201869</internalNodes>
          <leafValues>
            -4.2738229036331177e-01 3.5050079226493835e-01</leafValues></_>
        <_>
          <internalNodes>
            0 -1 72 585379441 -1420799083 -1646212521 362285616
            -481753609 -1668074853 1179127037 -1942981091</internalNodes>
          <leafValues>
            -5.1664870977401733e-01 3.0483424663543701e-01</leafValues></_>
        <_>
          <internalNodes>
            0 -1 171 474087763 2068726038 1091670237 2106609880
            -2012728419 -351747038 -1190906054 -1407526474</internalNodes>
          <leafValues>
            -4.3803548812866211e-01 3.7160465121269226e-01</leafValues></_>
        <_>
          <internalNodes>
            0 -1 138 108513414 353842195 1392709785 320328386
            -1844109176 671154753 683810864 -2145169129</internalNodes>
          <leafValues>
            -5.1802611351013184e-01 3.3431071043014526e-01</leafValues></_>
        <_>
          <internalNodes>
            0 -1 104 1791985418 -1064904437 -1592663417 -1869853891
            1796013357 1388892794 -1001762205 -957486961</internalNodes>
          <leafValues>
            -4.7620397806167603e-01 3.4314233064651489e-01</leafValues></_>
        <_>
          <internalNodes>
            0 -1 29 1363273914 -36372207 -788444911 433652110 1619624371
            663553185 -1299986262 1493816072</internalNodes>
          <leafValues>
            -4.4181856513023376e-01 3.8506698608398438e-01</leafValues></_>
        <_>
          <internalNodes>
            0 -1 73 190715165 356802886 2838875 -1404807152 -305446723
            -1171783134 725850227 -102603951</internalNodes>
          <leafValues>
            -5.1064932346343994e-01 3.3976921439170837e-01</leafValues></_></weakClassifiers></_>
    <!-- stage 10 -->
    <_>
      <maxWeakCount>8</maxWeakCount>
      <stageThreshold>-1.0746166706085205e+00</stageThreshold>
      <weakClassifiers>
        <_>
          <internalNodes>
            0 -1 66 -1008734321 1128529690 1141461632 -444497770
            1445180359 345482049 1329820399 -201331873</internalNodes>
          <leafValues>
            -5.5019456148147583e-01 1.8829981982707977e-01</leafValues></_>
        <_>
          <internalNodes>
            0 -1 9 1173940938 1250918699 1684693304 -581447400
            -595375220 843481124 1179775901 1944261362</internalNodes>
          <leafValues>
            -5.6477332115173340e-01 2.2462627291679382e-01</leafValues></_>
        <_>
          <internalNodes>
            0 -1 50 -172902808 278626437 -2130640600 922884509 444829879
            817055802 -511546769 829120675</internalNodes>
          <leafValues>
            -5.3793406486511230e-01 2.5770437717437744e-01</leafValues></_>
        <_>
          <internalNodes>
            0 -1 90 -473037814 1216069903 -1069531102 1523303324
            1413949796 1091569798 -288722826 1105184783</internalNodes>
          <leafValues>
            -5.6318891048431396e-01 2.8902241587638855e-01</leafValues></_>
        <_>
          <internalNodes>
            0 -1 60 -1597038442 297845151 1087735056 1754349779
            -1299385134 1359241862 1263667915 1947302024</internalNodes>
          <leafValues>
            -6.0457968711853027e-01 2.4011680483818054e-01</leafValues></_>
        <_>
          <internalNodes>
            0 -1 145 -1545710854 1359942 -1023045262 166909392
            1921319464 86073417 20808196 1171782314</internalNodes>
          <leafValues>
            -6.3148880004882812e-01 2.4133488535881042e-01</leafValues></_>
        <_>
          <internalNodes>
            0 -1 105 -228594045 1783287939 50671754 -1668902832
            -149837758 1511686304 -1971066557 -997209789</internalNodes>
          <leafValues>
            -3.9392536878585815e-01 4.0834012627601624e-01</leafValues></_>
        <_>
          <internalNodes>
            0 -1 160 -117477558 1605107247 -2030044560 -18416002
            -167782035 922713204 -738864075 -747637421</internalNodes>
          <leafValues>
            -3.9676088094711304e-01 4.2530661821365356e-01</leafValues></_></weakClassifiers></_>
    <!-- stage 11 -->
    <_>
      <maxWeakCount>10</maxWeakCount>
      <stageThreshold>-1.0610504150390625e+00</stageThreshold>
      <weakClassifiers>
        <_>
          <internalNodes>
            0 -1 95 -146029785 -1689674798 437330649 -212396001
            -1169698609 1585547427 -1173481255 -137499957</internalNodes>
          <leafValues>
            -5.2066117525100708e-01 1.7764471471309662e-01</leafValues></_>
        <_>
          <internalNodes>
            0 -1 57 441295304 194107742 151852294 -1084286637 847487119
            190566592 1369579979 1011980936</internalNodes>
          <leafValues>
            -5.3438615798950195e-01 2.0467130839824677e-01</leafValues></_>
        <_>
          <internalNodes>
            0 -1 166 408035906 -418686889 268472670 1477628183
            -1307979516 999096321 -2082329060 -263004005</internalNodes>
          <leafValues>
            -4.7054222226142883e-01 2.7201741933822632e-01</leafValues></_>
        <_>
          <internalNodes>
            0 -1 10 -853291655 -608437582 -302125573 -709886468
            267899566 -983572487 536829395 -909380172</internalNodes>
          <leafValues>
            -2.8338524699211121e-01 4.7479858994483948e-01</leafValues></_>
        <_>
          <internalNodes>
            0 -1 146 1821731602 -1714294014 1359042647 722075917
            268476776 -1283341150 -401859924 -2138324206</internalNodes>
          <leafValues>
            -4.5094957947731018e-01 3.2620152831077576e-01</leafValues></_>
        <_>
          <internalNodes>
            0 -1 20 852730628 408109331 -1054841351 -2075192867
            -112598448 -1457516376 -1744681468 -204609430</internalNodes>
          <leafValues>
            -4.7384268045425415e-01 3.1903797388076782e-01</leafValues></_>
        <_>
          <internalNodes>
            0 -1 140 -1024465050 -1552711404 272706130 1658380496
            16914525 -377289672 1149500450 651502147</internalNodes>
          <leafValues>
            -5.8374363183975220e-01 2.5249561667442322e-01</leafValues></_>
        <_>
          <internalNodes>
            0 -1 113 -183793982 1763627264 -2122219008 -1773358656
            -1878945708 75532320 -1584418713 1679612790</internalNodes>
          <leafValues>
            -5.6040638685226440e-01 2.5662943720817566e-01</leafValues></_>
        <_>
          <internalNodes>
            0 -1 94 373658000 -1198341927 1610633273 486658204 5401390
            -1369241565 -1442176140 -1361465101</internalNodes>
          <leafValues>
            -4.0254810452461243e-01 3.8056948781013489e-01</leafValues></_>
        <_>
          <internalNodes>
            0 -1 1 -2063433200 -1478979414 537002012 2134937623
            163692735 -1056407030 -1967453680 165015680</internalNodes>
          <leafValues>
            -6.3018602132797241e-01 2.4392148852348328e-01</leafValues></_></weakClassifiers></_>
    <!-- stage 12 -->
    <_>
      <maxWeakCount>11</maxWeakCount>
      <stageThreshold>-1.4791113138198853e+00</stageThreshold>
      <weakClassifiers>
        <_>
          <internalNodes>
            0 -1 133 -149220259 -1203721375 1225220383 -1283971829
            -1471338421 -1424957305 -209105924 -1076303522</internalNodes>
          <leafValues>
            -6.2735378742218018e-01 3.5236939787864685e-02</leafValues></_>
        <_>
          <internalNodes>
            0 -1 97 -1400362456 -1077396050 318912511 -748697315
            -1295890304 -1282875263 -502721910 136846352</internalNodes>
          <leafValues>
            -6.5894114971160889e-01 1.5584570169448853e-01</leafValues></_>
        <_>
          <internalNodes>
            0 -1 118 -560490761 -98620672 -1853798395 -577248950
            -1316366328 -1822390047 -1895581675 -995852032</internalNodes>
          <leafValues>
            -4.1851145029067993e-01 3.1906092166900635e-01</leafValues></_>
        <_>
          <internalNodes>
            0 -1 61 -2038236515 -376581879 -1333538083 -1885895920
            -1027571496 -358969341 -662085400 -1734808079</internalNodes>
          <leafValues>
            -3.9685976505279541e-01 3.6975240707397461e-01</leafValues></_>
        <_>
          <internalNodes>
            0 -1 63 672862758 1884562243 1536209 1204625889 1636526727
            -7198034 1267804891 1134574084</internalNodes>
          <leafValues>
            -5.4153692722320557e-01 2.7959015965461731e-01</leafValues></_>
        <_>
          <internalNodes>
            0 -1 167 -167808989 -1848781632 430276696 1084810074
            -1702141624 243466369 -1123870543 -765035177</internalNodes>
          <leafValues>
            -4.1525840759277344e-01 3.5963284969329834e-01</leafValues></_>
        <_>
          <internalNodes>
            0 -1 162 -330124549 -1604549494 17219595 177340431
            1914900567 2122978440 1261664448 -285511469</internalNodes>
          <leafValues>
            -5.1571172475814819e-01 2.8385215997695923e-01</leafValues></_>
        <_>
          <internalNodes>
            0 -1 81 -670709254 387872922 1090652567 -346636077
            -652827986 -1843560312 -360486262 1128974888</internalNodes>
          <leafValues>
            -3.9356282353401184e-01 3.9976471662521362e-01</leafValues></_>
        <_>
          <internalNodes>
            0 -1 55 -1005336910 -553627261 -2130361082 1079298086
            -598769430 372419072 1763090796 -1031016446</internalNodes>
          <leafValues>
            -5.0498968362808228e-01 3.1581398844718933e-01</leafValues></_>
        <_>
          <internalNodes>
            0 -1 165 1121929331 -195476710 1385185293 2119270407
            306332054 -643823350 1107957901 -838670210</internalNodes>
          <leafValues>
            -3.8364627957344055e-01 4.2726653814315796e-01</leafValues></_>
        <_>
          <internalNodes>
            0 -1 176 194773176 295225808 -1072594665 98439296 1090935373
            -905543538 -1847049741 -1966575056</internalNodes>
          <leafValues>
            -7.0897865295410156e-01 2.3716220259666443e-01</leafValues></_></weakClassifiers></_>
    <!-- stage 13 -->
    <_>
      <maxWeakCount>10</maxWeakCount>
      <stageThreshold>-1.2143517732620239e+00</stageThreshold>
      <weakClassifiers>
        <_>
          <internalNodes>
            0 -1 107 1857041975 -600247305 -120940707 -65515724
            1887507231 -1516835 -371265922 -1135838214</internalNodes>
          <leafValues>
            -6.3673466444015503e-01 2.3474179208278656e-02</leafValues></_>
        <_>
          <internalNodes>
            0 -1 99 -110397441 -1543012461 1392755790 -1349643522
            1958830081 -8125855 -1425339396 -1628962760</internalNodes>
          <leafValues>
            -4.3459603190422058e-01 2.8851509094238281e-01</leafValues></_>
        <_>
          <internalNodes>
            0 -1 106 1083880980 1826026094 364240245 -1224933040
            196049206 -20260479 -519762283 539370018</internalNodes>
          <leafValues>
            -6.1678117513656616e-01 2.2035925090312958e-01</leafValues></_>
        <_>
          <internalNodes>
            0 -1 80 1347301372 450412967 -1927856113 -1977778029
            808417721 1895076029 161495264 482417553</internalNodes>
          <leafValues>
            -5.0441920757293701e-01 2.8392618894577026e-01</leafValues></_>
        <_>
          <internalNodes>
            0 -1 47 1572108817 -1747828693 620905561 999080295 949948028
            803840173 -73838316 -1881654751</internalNodes>
          <leafValues>
            -4.9115735292434692e-01 2.9672026634216309e-01</leafValues></_>
        <_>
          <internalNodes>
            0 -1 0 -2132349183 -1758603951 -678639376 -1082055323
            -1035752520 1033571207 -520260519 -1309159644</internalNodes>
          <leafValues>
            -4.1739127039909363e-01 3.8545376062393188e-01</leafValues></_>
        <_>
          <internalNodes>
            0 -1 175 255895124 -1680063687 -2004698893 -1162043056
            -376430078 -1061510776 -1184990802 -1415561040</internalNodes>
          <leafValues>
            -5.1068407297134399e-01 3.3591273427009583e-01</leafValues></_>
        <_>
          <internalNodes>
            0 -1 22 1970800544 -1310767946 -989101964 1519108116
            1237457860 1197809982 -192918644 802720875</internalNodes>
          <leafValues>
            -6.6466420888900757e-01 2.3894862830638885e-01</leafValues></_>
        <_>
          <internalNodes>
            0 -1 93 511524565 2129948656 -137757 -571080769 2145269966
            -33624075 -162075171 -1425998236</internalNodes>
          <leafValues>
            -3.8730528950691223e-01 4.3538826704025269e-01</leafValues></_>
        <_>
          <internalNodes>
            0 -1 149 -1276472368 -590454571 -1593499169 1549972666
            1116546320 -997588992 428882209 -1266064910</internalNodes>
          <leafValues>
            -4.6831837296485901e-01 3.7410324811935425e-01</leafValues></_></weakClassifiers></_>
    <!-- stage 14 -->
    <_>
      <maxWeakCount>11</maxWeakCount>
      <stageThreshold>-1.1264574527740479e+00</stageThreshold>
      <weakClassifiers>
        <_>
          <internalNodes>
            0 -1 98 430191316 -547595860 -1828715077 927533059
            1208191677 -1731165783 -2088158934 -1881669240</internalNodes>
          <leafValues>
            -6.0416668653488159e-01 4.3814431875944138e-02</leafValues></_>
        <_>
          <internalNodes>
            0 -1 92 -896609232 -539324316 84354326 -560801531 -928960094
            -895899472 1040327402 2310721</internalNodes>
          <leafValues>
            -5.1979672908782959e-01 2.3404976725578308e-01</leafValues></_>
        <_>
          <internalNodes>
            0 -1 102 808456304 1843053213 1226093895 -1152858099
            2031127224 -23527390 -524219939 -1468252160</internalNodes>
          <leafValues>
            -4.5686188340187073e-01 3.0248704552650452e-01</leafValues></_>
        <_>
          <internalNodes>
            0 -1 8 1307239236 -1282272298 1442844989 478089683
            2017068956 -149097088 -938933269 1653743968</internalNodes>
          <leafValues>
            -5.7692521810531616e-01 2.6478227972984314e-01</leafValues></_>
        <_>
          <internalNodes>
            0 -1 39 1171062020 -723726334 1359247828 -843033834
            -1407147537 -1719139811 -1207916375 -2097708240</internalNodes>
          <leafValues>
            -4.6178519725799561e-01 3.0597224831581116e-01</leafValues></_>
        <_>
          <internalNodes>
            0 -1 115 -179555344 176196246 1895944351 702312724
            1074436480 -1175420800 -1442827352 -1074397149</internalNodes>
          <leafValues>
            -4.1692176461219788e-01 3.6324858665466309e-01</leafValues></_>
        <_>
          <internalNodes>
            0 -1 122 -23724678 1496752109 -805331093 -1352798469
            2116923044 -1946750977 -33747013 -1963479622</internalNodes>
          <leafValues>
            -3.2069292664527893e-01 5.3450632095336914e-01</leafValues></_>
        <_>
          <internalNodes>
            0 -1 48 -12659211 -173129810 -1073823821 -1078484995
            -1109551694 -1350599691 1048149929 -1152485518</internalNodes>
          <leafValues>
            -2.5718423724174500e-01 6.1960864067077637e-01</leafValues></_>
        <_>
          <internalNodes>
            0 -1 174 683171580 -1227829032 -1820065677 -1117956094
            -1834876514 1009483784 -1995945558 -1412883094</internalNodes>
          <leafValues>
            -4.0964284539222717e-01 4.0202933549880981e-01</leafValues></_>
        <_>
          <internalNodes>
            0 -1 75 1088031723 1560313988 221057255 1045364877
            -1793961453 -1853292151 261840542 514882114</internalNodes>
          <leafValues>
            -4.9608603119850159e-01 3.2863110303878784e-01</leafValues></_>
        <_>
          <internalNodes>
            0 -1 70 1376836053 948195388 -1827565555 -1724937974
            281020604 -2147480478 -721417830 -2066964154</internalNodes>
          <leafValues>
            -4.1345235705375671e-01 3.9380151033401489e-01</leafValues></_></weakClassifiers></_>
    <!-- stage 15 -->
    <_>
      <maxWeakCount>8</maxWeakCount>
      <stageThreshold>-1.1033539772033691e+00</stageThreshold>
      <weakClassifiers>
        <_>
          <internalNodes>
            0 -1 152 186014069 -761343083 -1694139937 -1317233955
            -1480772931 -183556565 -1626907815 -1400357900</internalNodes>
          <leafValues>
            -6.3052207231521606e-01 2.8708133846521378e-02</leafValues></_>
        <_>
          <internalNodes>
            0 -1 161 748435323 43300188 -950807365 -2002510883
            -1307566127 -341059321 -389911003 -1393436017</internalNodes>
          <leafValues>
            -4.9043232202529907e-01 2.6377895474433899e-01</leafValues></_>
        <_>
          <internalNodes>
            0 -1 67 -1477493833 -486882997 520635634 -1207449852
            1190097445 1618835939 1436578869 896125820</internalNodes>
          <leafValues>
            -5.6006538867950439e-01 2.5829184055328369e-01</leafValues></_>
        <_>
          <internalNodes>
            0 -1 141 -1962726969 151308315 -364650347 671783117
            -123487992 -1144356765 -167250488 -1900951719</internalNodes>
          <leafValues>
            -3.7609979510307312e-01 3.9560174942016602e-01</leafValues></_>
        <_>
          <internalNodes>
            0 -1 169 -1429721299 -2046274134 -527314549 1692404666
            134456312 -1402789750 -1381689081 -1367490075</internalNodes>
          <leafValues>
            -4.3955466151237488e-01 3.5387209057807922e-01</leafValues></_>
        <_>
          <internalNodes>
            0 -1 164 -384806700 -10349429 -1760677537 -1246183059
            -1377274403 -28671318 -609351204 -1441250886</internalNodes>
          <leafValues>
            -5.4125630855560303e-01 2.9493692517280579e-01</leafValues></_>
        <_>
          <internalNodes>
            0 -1 32 1350942497 -1363066744 -335441746 -1643787655
            815996415 1552512015 1269328481 108679682</internalNodes>
          <leafValues>
            -6.1383295059204102e-01 2.5624367594718933e-01</leafValues></_>
        <_>
          <internalNodes>
            0 -1 49 -1437442308 1079280953 -2105439971 700484882
            1484788213 653329141 1024000837 430239917</internalNodes>
          <leafValues>
            -5.3731918334960938e-01 2.9912060499191284e-01</leafValues></_></weakClassifiers></_>
    <!-- stage 16 -->
    <_>
      <maxWeakCount>12</maxWeakCount>
      <stageThreshold>-1.1131628751754761e+00</stageThreshold>
      <weakClassifiers>
        <_>
          <internalNodes>
            0 -1 139 -665669689 -191661545 25938198 462772817 153192607
            -1164441579 697169752 -2000428313</internalNodes>
          <leafValues>
            -5.4801326990127563e-01 9.2948719859123230e-02</leafValues></_>
        <_>
          <internalNodes>
            0 -1 83 -1618078352 -1216151032 -716505043 -1944779839
            -1598273864 -1198962096 1872890780 -1515644124</internalNodes>
          <leafValues>
            -5.2104526758193970e-01 2.0100593566894531e-01</leafValues></_>
        <_>
          <internalNodes>
            0 -1 172 -118252417 -1292501121 1761509367 -1633206851
            -16912834 -771792899 -1264001025 -1605145217</internalNodes>
          <leafValues>
            -2.7422371506690979e-01 4.3523961305618286e-01</leafValues></_>
        <_>
          <internalNodes>
            0 -1 131 1121356498 748241667 -917919608 144481270
            -845002360 352875789 90212645 1924490039</internalNodes>
          <leafValues>
            -6.3246738910675049e-01 2.0663058757781982e-01</leafValues></_>
        <_>
          <internalNodes>
            0 -1 116 -1332205552 -835057536 -2147126970 -317300472
            38518993 -930479997 123895178 671621476</internalNodes>
          <leafValues>
            -7.1920531988143921e-01 1.8533334136009216e-01</leafValues></_>
        <_>
          <internalNodes>
            0 -1 44 -884541634 -677276532 -1006566864 483397902
            1611815689 1822951456 1652761019 2044648238</internalNodes>
          <leafValues>
            -4.1339391469955444e-01 2.9970082640647888e-01</leafValues></_>
        <_>
          <internalNodes>
            0 -1 16 -314227921 1562251461 134332904 -2074966654
            1278486595 1820409868 -2138436472 1878682091</internalNodes>
          <leafValues>
            -4.0030741691589355e-01 3.2821965217590332e-01</leafValues></_>
        <_>
          <internalNodes>
            0 -1 158 -1087402633 -1107390613 -1140920457 -1107886600
            981344757 801111989 -839591954 -974684803</internalNodes>
          <leafValues>
            -3.0286347866058350e-01 4.3960511684417725e-01</leafValues></_>
        <_>
          <internalNodes>
            0 -1 173 529011693 -1160494848 59789851 -425848127 -25075592
            -1911373696 2005160840 -813071432</internalNodes>
          <leafValues>
            -3.7330153584480286e-01 3.6306014657020569e-01</leafValues></_>
        <_>
          <internalNodes>
            0 -1 28 -551869590 -1657023568 1342377344 -41848703
            547579063 1973452802 278544559 1872826554</internalNodes>
          <leafValues>
            -4.5367169380187988e-01 3.0468538403511047e-01</leafValues></_>
        <_>
          <internalNodes>
            0 -1 86 48337156 -115804666 495145016 -1719648254 -805009315
            -1717564928 1610733854 567085826</internalNodes>
          <leafValues>
            -6.1104887723922729e-01 2.3525679111480713e-01</leafValues></_>
        <_>
          <internalNodes>
            0 -1 60 -455108009 -604573777 788393845 -17532165 -439372336
            1375535090 -277467315 -1084754213</internalNodes>
          <leafValues>
            -3.0915629863739014e-01 5.0176084041595459e-01</leafValues></_></weakClassifiers></_>
    <!-- stage 17 -->
    <_>
      <maxWeakCount>9</maxWeakCount>
      <stageThreshold>-9.4832968711853027e-01</stageThreshold>
      <weakClassifiers>
        <_>
          <internalNodes>
            0 -1 117 -1228520068 -787246925 -1873607271 -311324147
            -1742790141 -632634879 -2080164545 178978975</internalNodes>
          <leafValues>
            -6.9421488046646118e-01 -9.0415909886360168e-02</leafValues></_>
        <_>
          <internalNodes>
            0 -1 177 579607124 -692311138 1427403045 -1463805668
            -1953474408 2099867663 985279133 -1416091496</internalNodes>
          <leafValues>
            -5.5544996261596680e-01 1.7741106450557709e-01</leafValues></_>
        <_>
          <internalNodes>
            0 -1 18 -152572109 912439091 2147434485 -1275152578
            -268752977 2061385535 -17337413 -251930767</internalNodes>
          <leafValues>
            -3.1847304105758667e-01 3.7666779756546021e-01</leafValues></_>
        <_>
          <internalNodes>
            0 -1 13 -905944192 -1379428218 1640058975 2143584501
            428515477 -1333671346 -2086562850 -1948822240</internalNodes>
          <leafValues>
            -3.5935214161872864e-01 3.4632763266563416e-01</leafValues></_>
        <_>
          <internalNodes>
            0 -1 126 1959187161 -750780218 2063733245 -254959548
            855818420 792756640 -1970241452 -2143230464</internalNodes>
          <leafValues>
            -4.8104766011238098e-01 2.8767067193984985e-01</leafValues></_>
        <_>
          <internalNodes>
            0 -1 31 113479875 31511734 536875280 1067061515 1632091085
            1749178922 -1171582864 1254956453</internalNodes>
          <leafValues>
            -4.6933034062385559e-01 2.6834222674369812e-01</leafValues></_>
        <_>
          <internalNodes>
            0 -1 96 -792064474 1619415232 721873058 -339455718
            1820578071 513678597 1074881904 -772851118</internalNodes>
          <leafValues>
            -5.2436715364456177e-01 2.5091987848281860e-01</leafValues></_>
        <_>
          <internalNodes>
            0 -1 111 304183152 -1889541616 -654225249 1876840587
            277457139 -265043809 1116900348 -1813483672</internalNodes>
          <leafValues>
            -4.9943909049034119e-01 2.6820084452629089e-01</leafValues></_>
        <_>
          <internalNodes>
            0 -1 134 1947423776 -849247487 831644318 580407467
            1720666129 -1400340206 -1467838131 214482711</internalNodes>
          <leafValues>
            -5.9430766105651855e-01 2.4503962695598602e-01</leafValues></_></weakClassifiers></_>
    <!-- stage 18 -->
    <_>
      <maxWeakCount>14</maxWeakCount>
      <stageThreshold>-1.4120476245880127e+00</stageThreshold>
      <weakClassifiers>
        <_>
          <internalNodes>
            0 -1 71 -1093797379 -1227287733 -251629659 1974387738
            1807777949 -75267550 -1115485715 -559958518</internalNodes>
          <leafValues>
            -4.9460044503211975e-01 1.8735891580581665e-01</leafValues></_>
        <_>
          <internalNodes>
            0 -1 150 413937973 365069468 1418436523 -1354217783
            1779326512 -1423851386 184686124 -1283966372</internalNodes>
          <leafValues>
            -4.8881295323371887e-01 2.1335080265998840e-01</leafValues></_>
        <_>
          <internalNodes>
            0 -1 163 743485424 281548172 -1316341668 583430316
            -795082284 994779232 -886295466 581699800</internalNodes>
          <leafValues>
            -6.3822311162948608e-01 1.7523978650569916e-01</leafValues></_>
        <_>
          <internalNodes>
            0 -1 77 -1931553482 130442318 -921140926 988811970 960970248
            877396097 562058844 538998929</internalNodes>
          <leafValues>
            -6.2152409553527832e-01 2.1215687692165375e-01</leafValues></_>
        <_>
          <internalNodes>
            0 -1 26 442189696 394809492 -1681335780 -104038334
            1925870373 981500056 -1157493456 723319112</internalNodes>
          <leafValues>
            -5.9121555089950562e-01 2.0711232721805573e-01</leafValues></_>
        <_>
          <internalNodes>
            0 -1 59 -641728736 -1225084933 804782007 792313727
            -1085192279 -536979533 -1363394696 -1934645698</internalNodes>
          <leafValues>
            -3.1081682443618774e-01 4.3242812156677246e-01</leafValues></_>
        <_>
          <internalNodes>
            0 -1 85 -1802553733 746062914 -2008780322 -623344704
            -1589568217 730767556 -60808856 -1880281744</internalNodes>
          <leafValues>
            -4.2175391316413879e-01 3.1421306729316711e-01</leafValues></_>
        <_>
          <internalNodes>
            0 -1 78 -167632144 1737769643 -1741021174 257227688
            554701373 2014062728 714819593 1900022282</internalNodes>
          <leafValues>
            -6.1679100990295410e-01 2.2253176569938660e-01</leafValues></_>
        <_>
          <internalNodes>
            0 -1 155 2081707853 610176078 -1416540010 1033298113
            1406064944 -366313394 -912174687 -1587171304</internalNodes>
          <leafValues>
            -4.2671591043472290e-01 3.2195752859115601e-01</leafValues></_>
        <_>
          <internalNodes>
            0 -1 101 135727894 838963221 -1785719330 1268039830
            -434533932 957564955 88691458 685585350</internalNodes>
          <leafValues>
            -6.0133522748947144e-01 2.2740900516510010e-01</leafValues></_>
        <_>
          <internalNodes>
            0 -1 121 -1038446272 -64892879 75530769 -116002815 405701177
            -1167015920 -1878975782 -1470557933</internalNodes>
          <leafValues>
            -3.9401251077651978e-01 3.7645944952964783e-01</leafValues></_>
        <_>
          <internalNodes>
            0 -1 87 1010569492 444072159 1359055219 2085487435
            1661995159 -490700758 -1148548968 -893771006</internalNodes>
          <leafValues>
            -4.4056636095046997e-01 3.4565204381942749e-01</leafValues></_>
        <_>
          <internalNodes>
            0 -1 151 -1294921 -1430379537 1023409775 2094825471
            -805405215 -17301665 -1358987539 -92275425</internalNodes>
          <leafValues>
            -2.9657247662544250e-01 5.1346719264984131e-01</leafValues></_>
        <_>
          <internalNodes>
            0 -1 147 2090345720 9569674 1124162110 140410994 -729737104
            1301333120 -2117524787 1024811544</internalNodes>
          <leafValues>
            -6.1954259872436523e-01 2.4579057097434998e-01</leafValues></_></weakClassifiers></_>
    <!-- stage 19 -->
    <_>
      <maxWeakCount>13</maxWeakCount>
      <stageThreshold>-1.1111222505569458e+00</stageThreshold>
      <weakClassifiers>
        <_>
          <internalNodes>
            0 -1 159 -1279795469 -540606125 -805079857 629643073
            827556076 -800653248 562307206 -571217203</internalNodes>
          <leafValues>
            -5.2198243141174316e-01 8.4337346255779266e-02</leafValues></_>
        <_>
          <internalNodes>
            0 -1 89 613425316 788973909 -2075896862 -1203720810
            1756905909 637748225 26216653 29690577</internalNodes>
          <leafValues>
            -7.8587126731872559e-01 1.0736563801765442e-01</leafValues></_>
        <_>
          <internalNodes>
            0 -1 103 -895644894 211172036 151037004 -1261728298
            807733346 1434983106 1637046785 -673278946</internalNodes>
          <leafValues>
            -4.5918047428131104e-01 2.5782850384712219e-01</leafValues></_>
        <_>
          <internalNodes>
            0 -1 100 -890260547 -2060283498 826332179 548667842
            -653475342 -1931992415 -1174977227 -1691609482</internalNodes>
          <leafValues>
            -3.9034444093704224e-01 2.7886655926704407e-01</leafValues></_>
        <_>
          <internalNodes>
            0 -1 91 -994007008 276824923 365560220 -1891888638 708194613
            948977690 1429880473 939677830</internalNodes>
          <leafValues>
            -5.8650964498519897e-01 2.1035493910312653e-01</leafValues></_>
        <_>
          <internalNodes>
            0 -1 30 94020838 1167917142 50372484 1617577264 -1039927559
            -1440185685 -1031282403 -2118894298</internalNodes>
          <leafValues>
            -4.2707121372222900e-01 2.8925168514251709e-01</leafValues></_>
        <_>
          <internalNodes>
            0 -1 62 -1074036993 -33849635 -1073874185 2087452194
            2126507071 -319905993 -672696929 -922758530</internalNodes>
          <leafValues>
            -2.3603124916553497e-01 5.5406880378723145e-01</leafValues></_>
        <_>
          <internalNodes>
            0 -1 81 -1726504862 -1340870635 -989572735 957360915
            -1593603683 -1232559968 1724744447 1624502575</internalNodes>
          <leafValues>
            -4.4233381748199463e-01 3.0761638283729553e-01</leafValues></_>
        <_>
          <internalNodes>
            0 -1 167 -168896949 -1663102590 -1811817981 1350743123
            -1719596212 1996575297 -1606368661 1467840787</internalNodes>
          <leafValues>
            -3.9542612433433533e-01 3.6702319979667664e-01</leafValues></_>
        <_>
          <internalNodes>
            0 -1 23 1018958160 534564932 1090519795 -329203493
            1882284640 1749713572 134882240 525346952</internalNodes>
          <leafValues>
            -6.4337921142578125e-01 2.1133959293365479e-01</leafValues></_>
        <_>
          <internalNodes>
            0 -1 114 1147113478 42385759 538286088 541804635 992460833
            1191327793 -628668300 1168881429</internalNodes>
          <leafValues>
            -6.7953842878341675e-01 1.7142957448959351e-01</leafValues></_>
        <_>
          <internalNodes>
            0 -1 128 -507133585 -1101471356 272716096 -1691639649
            -385297564 1477053187 176744514 456630307</internalNodes>
          <leafValues>
            -4.0329524874687195e-01 3.5300660133361816e-01</leafValues></_>
        <_>
          <internalNodes>
            0 -1 5 1253174576 -1873665896 1526765087 1938935893
            -1476364111 1890652288 -888780767 -276460917</internalNodes>
          <leafValues>
            -3.9769914746284485e-01 3.6920085549354553e-01</leafValues></_></weakClassifiers></_></stages>
  <features>
    <_>
      <rect>
        0 0 3 3</rect></_>
    <_>
      <rect>
        0 0 4 2</rect></_>
    <_>
      <rect>
        0 0 4 3</rect></_>
    <_>
      <rect>
        0 0 5 5</rect></_>
    <_>
      <rect>
        0 0 6 1</rect></_>
    <_>
      <rect>
        0 1 5 1</rect></_>
    <_>
      <rect>
        0 1 5 2</rect></_>
    <_>
      <rect>
        0 1 6 2</rect></_>
    <_>
      <rect>
        0 1 6 3</rect></_>
    <_>
      <rect>
        0 1 6 4</rect></_>
    <_>
      <rect>
        0 2 2 1</rect></_>
    <_>
      <rect>
        0 2 3 1</rect></_>
    <_>
      <rect>
        0 2 4 2</rect></_>
    <_>
      <rect>
        0 3 1 1</rect></_>
    <_>
      <rect>
        0 3 2 1</rect></_>
    <_>
      <rect>
        0 5 4 5</rect></_>
    <_>
      <rect>
        0 5 5 3</rect></_>
    <_>
      <rect>
        0 5 5 5</rect></_>
    <_>
      <rect>
        0 6 3 3</rect></_>
    <_>
      <rect>
        0 8 4 4</rect></_>
    <_>
      <rect>
        0 11 2 1</rect></_>
    <_>
      <rect>
        0 11 2 3</rect></_>
    <_>
      <rect>
        0 11 6 3</rect></_>
    <_>
      <rect>
        0 13 1 1</rect></_>
    <_>
      <rect>
        0 14 1 2</rect></_>
    <_>
      <rect>
        0 17 1 1</rect></_>
    <_>
      <rect>
        0 17 2 1</rect></_>
    <_>
      <rect>
        0 17 3 1</rect></_>
    <_>
      <rect>
        0 17 5 1</rect></_>
    <_>
      <rect>
        0 17 6 1</rect></_>
    <_>
      <rect>
        1 0 2 1</rect></_>
    <_>
      <rect>
        1 0 3 2</rect></_>
    <_>
      <rect>
        1 0 4 1</rect></_>
    <_>
      <rect>
        1 0 6 1</rect></_>
    <_>
      <rect>
        1 0 6 2</rect></_>
    <_>
      <rect>
        1 0 6 5</rect></_>
    <_>
      <rect>
        1 1 6 2</rect></_>
    <_>
      <rect>
        1 2 3 1</rect></_>
    <_>
      <rect>
        1 3 1 1</rect></_>
    <_>
      <rect>
        1 3 2 1</rect></_>
    <_>
      <rect>
        1 5 5 5</rect></_>
    <_>
      <rect>
        1 5 6 5</rect></_>
    <_>
      <rect>
        1 8 3 2</rect></_>
    <_>
      <rect>
        1 11 2 1</rect></_>
    <_>
      <rect>
        1 11 3 3</rect></_>
    <_>
      <rect>
        1 12 2 2</rect></_>
    <_>
      <rect>
        1 15 4 1</rect></_>
    <_>
      <rect>
        1 17 1 1</rect></_>
    <_>
      <rect>
        1 17 2 1</rect></_>
    <_>
      <rect>
        1 17 3 1</rect></_>
    <_>
      <rect>
        1 17 6 1</rect></_>
    <_>
      <rect>
        2 0 6 1</rect></_>
    <_>
      <rect>
        2 0 6 3</rect></_>
    <_>
      <rect>
        2 2 1 1</rect></_>
    <_>
      <rect>
        2 3 1 1</rect></_>
    <_>
      <rect>
        2 3 5 2</rect></_>
    <_>
      <rect>
        2 6 6 4</rect></_>
    <_>
      <rect>
        2 8 6 4</rect></_>
    <_>
      <rect>
        2 14 2 1</rect></_>
    <_>
      <rect>
        3 1 2 1</rect></_>
    <_>
      <rect>
        3 1 5 1</rect></_>
    <_>
      <rect>
        3 2 1 1</rect></_>
    <_>
      <rect>
        3 4 3 1</rect></_>
    <_>
      <rect>
        3 9 4 2</rect></_>
    <_>
      <rect>
        3 10 2 1</rect></_>
    <_>
      <rect>
        3 11 5 2</rect></_>
    <_>
      <rect>
        3 13 3 2</rect></_>
    <_>
      <rect>
        3 14 2 1</rect></_>
    <_>
      <rect>
        4 0 5 1</rect></_>
    <_>
      <rect>
        4 2 1 1</rect></_>
    <_>
      <rect>
        4 4 2 1</rect></_>
    <_>
      <rect>
        4 4 4 1</rect></_>
    <_>
      <rect>
        4 6 2 2</rect></_>
    <_>
      <rect>
        4 8 1 2</rect></_>
    <_>
      <rect>
        4 8 3 4</rect></_>
    <_>
      <rect>
        4 8 4 2</rect></_>
    <_>
      <rect>
        4 12 4 2</rect></_>
    <_>
      <rect>
        4 14 2 2</rect></_>
    <_>
      <rect>
        4 17 3 1</rect></_>
    <_>
      <rect>
        4 17 4 1</rect></_>
    <_>
      <rect>
        4 17 5 1</rect></_>
    <_>
      <rect>
        5 0 4 1</rect></_>
    <_>
      <rect>
        5 1 5 6</rect></_>
    <_>
      <rect>
        5 2 1 1</rect></_>
    <_>
      <rect>
        5 2 2 1</rect></_>
    <_>
      <rect>
        5 5 3 2</rect></_>
    <_>
      <rect>
        5 7 4 4</rect></_>
    <_>
      <rect>
        5 8 2 1</rect></_>
    <_>
      <rect>
        5 11 3 2</rect></_>
    <_>
      <rect>
        5 11 3 3</rect></_>
    <_>
      <rect>
        5 13 2 1</rect></_>
    <_>
      <rect>
        5 17 3 1</rect></_>
    <_>
      <rect>
        6 0 2 1</rect></_>
    <_>
      <rect>
        6 3 3 1</rect></_>
    <_>
      <rect>
        6 7 3 1</rect></_>
    <_>
      <rect>
        6 12 3 1</rect></_>
    <_>
      <rect>
        6 13 2 1</rect></_>
    <_>
      <rect>
        7 0 1 1</rect></_>
    <_>
      <rect>
        7 2 3 1</rect></_>
    <_>
      <rect>
        7 4 3 3</rect></_>
    <_>
      <rect>
        7 5 2 2</rect></_>
    <_>
      <rect>
        7 8 4 2</rect></_>
    <_>
      <rect>
        7 9 2 1</rect></_>
    <_>
      <rect>
        7 12 2 1</rect></_>
    <_>
      <rect>
        7 13 2 1</rect></_>
    <_>
      <rect>
        7 15 2 1</rect></_>
    <_>
      <rect>
        8 0 2 1</rect></_>
    <_>
      <rect>
        8 0 4 2</rect></_>
    <_>
      <rect>
        8 0 4 6</rect></_>
    <_>
      <rect>
        8 1 1 1</rect></_>
    <_>
      <rect>
        8 3 1 1</rect></_>
    <_>
      <rect>
        8 8 1 1</rect></_>
    <_>
      <rect>
        8 9 2 1</rect></_>
    <_>
      <rect>
        8 14 2 1</rect></_>
    <_>
      <rect>
        8 15 2 1</rect></_>
    <_>
      <rect>
        8 17 1 1</rect></_>
    <_>
      <rect>
        9 0 1 1</rect></_>
    <_>
      <rect>
        9 0 3 5</rect></_>
    <_>
      <rect>
        9 4 3 1</rect></_>
    <_>
      <rect>
        9 11 3 3</rect></_>
    <_>
      <rect>
        9 12 3 2</rect></_>
    <_>
      <rect>
        10 0 1 1</rect></_>
    <_>
      <rect>
        10 0 3 1</rect></_>
    <_>
      <rect>
        10 1 1 1</rect></_>
    <_>
      <rect>
        10 1 3 2</rect></_>
    <_>
      <rect>
        10 2 1 1</rect></_>
    <_>
      <rect>
        10 4 2 1</rect></_>
    <_>
      <rect>
        10 5 3 5</rect></_>
    <_>
      <rect>
        10 6 3 1</rect></_>
    <_>
      <rect>
        10 8 1 1</rect></_>
    <_>
      <rect>
        10 8 3 4</rect></_>
    <_>
      <rect>
        10 13 3 2</rect></_>
    <_>
      <rect>
        10 15 2 1</rect></_>
    <_>
      <rect>
        11 0 2 2</rect></_>
    <_>
      <rect>
        11 0 3 3</rect></_>
    <_>
      <rect>
        11 1 3 3</rect></_>
    <_>
      <rect>
        11 2 2 1</rect></_>
    <_>
      <rect>
        11 2 3 1</rect></_>
    <_>
      <rect>
        11 6 3 3</rect></_>
    <_>
      <rect>
        11 9 2 1</rect></_>
    <_>
      <rect>
        11 10 3 2</rect></_>
    <_>
      <rect>
        11 11 1 1</rect></_>
    <_>
      <rect>
        11 11 3 2</rect></_>
    <_>
      <rect>
        11 11 3 3</rect></_>
    <_>
      <rect>
        11 13 2 2</rect></_>
    <_>
      <rect>
        11 14 3 2</rect></_>
    <_>
      <rect>
        12 0 2 1</rect></_>
    <_>
      <rect>
        12 1 2 1</rect></_>
    <_>
      <rect>
        12 3 1 1</rect></_>
    <_>
      <rect>
        12 6 1 1</rect></_>
    <_>
      <rect>
        12 8 1 1</rect></_>
    <_>
      <rect>
        12 8 2 1</rect></_>
    <_>
      <rect>
        12 9 1 1</rect></_>
    <_>
      <rect>
        12 10 2 2</rect></_>
    <_>
      <rect>
        12 13 1 1</rect></_>
    <_>
      <rect>
        12 16 1 1</rect></_>
    <_>
      <rect>
        13 0 2 2</rect></_>
    <_>
      <rect>
        13 2 1 1</rect></_>
    <_>
      <rect>
        13 4 2 3</rect></_>
    <_>
      <rect>
        13 5 2 3</rect></_>
    <_>
      <rect>
        13 6 2 1</rect></_>
    <_>
      <rect>
        13 11 1 1</rect></_>
    <_>
      <rect>
        13 12 2 1</rect></_>
    <_>
      <rect>
        13 17 2 1</rect></_>
    <_>
      <rect>
        14 2 1 1</rect></_>
    <_>
      <rect>
        14 2 2 1</rect></_>
    <_>
      <rect>
        14 3 2 1</rect></_>
    <_>
      <rect>
        14 5 2 1</rect></_>
    <_>
      <rect>
        14 17 1 1</rect></_>
    <_>
      <rect>
        15 11 1 1</rect></_>
    <_>
      <rect>
        16 1 1 2</rect></_>
    <_>
      <rect>
        16 2 1 1</rect></_>
    <_>
      <rect>
        16 4 1 1</rect></_>
    <_>
      <rect>
        16 15 1 1</rect></_>
    <_>
      <rect>
        16 17 1 1</rect></_>
    <_>
      <rect>
        17 13 1 1</rect></_>
    <_>
      <rect>
        17 14 1 2</rect></_>
    <_>
      <rect>
        17 17 1 1</rect></_></features></cascade>
</opencv_storage>
