<?xml version="1.0"?>
<opencv_storage>
<stage12>
  <maxWeakCount>11</maxWeakCount>
  <stageThreshold>-1.4791113138198853e+00</stageThreshold>
  <weakClassifiers>
    <_>
      <internalNodes>
        0 -1 3220 -149220259 -1203721375 1225220383 -1283971829
        -1471338421 -1424957305 -209105924 -1076303522</internalNodes>
      <leafValues>
        -6.2735378742218018e-01 3.5236939787864685e-02</leafValues></_>
    <_>
      <internalNodes>
        0 -1 2331 -1400362456 -1077396050 318912511 -748697315
        -1295890304 -1282875263 -502721910 136846352</internalNodes>
      <leafValues>
        -6.5894114971160889e-01 1.5584570169448853e-01</leafValues></_>
    <_>
      <internalNodes>
        0 -1 2914 -560490761 -98620672 -1853798395 -577248950
        -1316366328 -1822390047 -1895581675 -995852032</internalNodes>
      <leafValues>
        -4.1851145029067993e-01 3.1906092166900635e-01</leafValues></_>
    <_>
      <internalNodes>
        0 -1 1194 -2038236515 -376581879 -1333538083 -1885895920
        -1027571496 -358969341 -662085400 -1734808079</internalNodes>
      <leafValues>
        -3.9685976505279541e-01 3.6975240707397461e-01</leafValues></_>
    <_>
      <internalNodes>
        0 -1 1369 672862758 1884562243 1536209 1204625889 1636526727
        -7198034 1267804891 1134574084</internalNodes>
      <leafValues>
        -5.4153692722320557e-01 2.7959015965461731e-01</leafValues></_>
    <_>
      <internalNodes>
        0 -1 3715 -167808989 -1848781632 430276696 1084810074
        -1702141624 243466369 -1123870543 -765035177</internalNodes>
      <leafValues>
        -4.1525840759277344e-01 3.5963284969329834e-01</leafValues></_>
    <_>
      <internalNodes>
        0 -1 3638 -330124549 -1604549494 17219595 177340431 1914900567
        2122978440 1261664448 -285511469</internalNodes>
      <leafValues>
        -5.1571172475814819e-01 2.8385215997695923e-01</leafValues></_>
    <_>
      <internalNodes>
        0 -1 1782 -670709254 387872922 1090652567 -346636077 -652827986
        -1843560312 -360486262 1128974888</internalNodes>
      <leafValues>
        -3.9356282353401184e-01 3.9976471662521362e-01</leafValues></_>
    <_>
      <internalNodes>
        0 -1 885 -1005336910 -553627261 -2130361082 1079298086
        -598769430 372419072 1763090796 -1031016446</internalNodes>
      <leafValues>
        -5.0498968362808228e-01 3.1581398844718933e-01</leafValues></_>
    <_>
      <internalNodes>
        0 -1 3684 1121929331 -195476710 1385185293 2119270407 306332054
        -643823350 1107957901 -838670210</internalNodes>
      <leafValues>
        -3.8364627957344055e-01 4.2726653814315796e-01</leafValues></_>
    <_>
      <internalNodes>
        0 -1 3965 194773176 295225808 -1072594665 98439296 1090935373
        -905543538 -1847049741 -1966575056</internalNodes>
      <leafValues>
        -7.0897865295410156e-01 2.3716220259666443e-01</leafValues></_></weakClassifiers></stage12>
</opencv_storage>
