<?xml version="1.0"?>
<opencv_storage>
<stage14>
  <maxWeakCount>11</maxWeakCount>
  <stageThreshold>-1.1264574527740479e+00</stageThreshold>
  <weakClassifiers>
    <_>
      <internalNodes>
        0 -1 2391 430191316 -547595860 -1828715077 927533059 1208191677
        -1731165783 -2088158934 -1881669240</internalNodes>
      <leafValues>
        -6.0416668653488159e-01 4.3814431875944138e-02</leafValues></_>
    <_>
      <internalNodes>
        0 -1 2085 -896609232 -539324316 84354326 -560801531 -928960094
        -895899472 1040327402 2310721</internalNodes>
      <leafValues>
        -5.1979672908782959e-01 2.3404976725578308e-01</leafValues></_>
    <_>
      <internalNodes>
        0 -1 2514 808456304 1843053213 1226093895 -1152858099 2031127224
        -23527390 -524219939 -1468252160</internalNodes>
      <leafValues>
        -4.5686188340187073e-01 3.0248704552650452e-01</leafValues></_>
    <_>
      <internalNodes>
        0 -1 68 1307239236 -1282272298 1442844989 478089683 2017068956
        -149097088 -938933269 1653743968</internalNodes>
      <leafValues>
        -5.7692521810531616e-01 2.6478227972984314e-01</leafValues></_>
    <_>
      <internalNodes>
        0 -1 491 1171062020 -723726334 1359247828 -843033834 -1407147537
        -1719139811 -1207916375 -2097708240</internalNodes>
      <leafValues>
        -4.6178519725799561e-01 3.0597224831581116e-01</leafValues></_>
    <_>
      <internalNodes>
        0 -1 2831 -179555344 176196246 1895944351 702312724 1074436480
        -1175420800 -1442827352 -1074397149</internalNodes>
      <leafValues>
        -4.1692176461219788e-01 3.6324858665466309e-01</leafValues></_>
    <_>
      <internalNodes>
        0 -1 3036 -23724678 1496752109 -805331093 -1352798469 2116923044
        -1946750977 -33747013 -1963479622</internalNodes>
      <leafValues>
        -3.2069292664527893e-01 5.3450632095336914e-01</leafValues></_>
    <_>
      <internalNodes>
        0 -1 751 -12659211 -173129810 -1073823821 -1078484995
        -1109551694 -1350599691 1048149929 -1152485518</internalNodes>
      <leafValues>
        -2.5718423724174500e-01 6.1960864067077637e-01</leafValues></_>
    <_>
      <internalNodes>
        0 -1 3905 683171580 -1227829032 -1820065677 -1117956094
        -1834876514 1009483784 -1995945558 -1412883094</internalNodes>
      <leafValues>
        -4.0964284539222717e-01 4.0202933549880981e-01</leafValues></_>
    <_>
      <internalNodes>
        0 -1 1667 1088031723 1560313988 221057255 1045364877 -1793961453
        -1853292151 261840542 514882114</internalNodes>
      <leafValues>
        -4.9608603119850159e-01 3.2863110303878784e-01</leafValues></_>
    <_>
      <internalNodes>
        0 -1 1569 1376836053 948195388 -1827565555 -1724937974 281020604
        -2147480478 -721417830 -2066964154</internalNodes>
      <leafValues>
        -4.1345235705375671e-01 3.9380151033401489e-01</leafValues></_></weakClassifiers></stage14>
</opencv_storage>
