<?xml version="1.0"?>
<opencv_storage>
<stage7>
  <maxWeakCount>9</maxWeakCount>
  <stageThreshold>-1.5597232580184937e+00</stageThreshold>
  <weakClassifiers>
    <_>
      <internalNodes>
        0 -1 3147 -1164168975 -1352695598 -1793762977 -680524328
        1041086972 -1815150443 1237685245 -1632092508</internalNodes>
      <leafValues>
        -6.5429478883743286e-01 1.4623171649873257e-02</leafValues></_>
    <_>
      <internalNodes>
        0 -1 2655 880825056 -585252519 -2012101659 293437833 -1457877523
        2051547274 -636818517 -1602691964</internalNodes>
      <leafValues>
        -5.6803506612777710e-01 2.4971200525760651e-01</leafValues></_>
    <_>
      <internalNodes>
        0 -1 311 -1151720656 1058115842 -1736437317 -148831725
        1360098100 -1190428660 1635858708 -1644208365</internalNodes>
      <leafValues>
        -5.6572818756103516e-01 2.7124390006065369e-01</leafValues></_>
    <_>
      <internalNodes>
        0 -1 3535 -394132469 1002985107 1661042821 -1114882025
        -598389697 1782452867 2013501658 -433034898</internalNodes>
      <leafValues>
        -4.2745846509933472e-01 3.6204761266708374e-01</leafValues></_>
    <_>
      <internalNodes>
        0 -1 3364 -842552853 -2106818126 -666827596 -1550728808
        1359135251 1764884483 1254797314 -487472501</internalNodes>
      <leafValues>
        -4.5494148135185242e-01 3.5711765289306641e-01</leafValues></_>
    <_>
      <internalNodes>
        0 -1 2607 -1100867719 -1714405278 422597018 -1521974952 20994140
        -1978974069 -1155461668 -1088550768</internalNodes>
      <leafValues>
        -5.0215965509414673e-01 3.2661971449851990e-01</leafValues></_>
    <_>
      <internalNodes>
        0 -1 113 -938029040 -2102360118 286265653 2109826050 -349757109
        -1165913723 1108188103 -1049246427</internalNodes>
      <leafValues>
        -5.1993489265441895e-01 3.3716979622840881e-01</leafValues></_>
    <_>
      <internalNodes>
        0 -1 1665 130261860 -659832822 -1810861286 295045259 700675563
        673949724 -393616934 1000606304</internalNodes>
      <leafValues>
        -6.3700288534164429e-01 2.7570709586143494e-01</leafValues></_>
    <_>
      <internalNodes>
        0 -1 3042 -1330507024 -2079453176 -1073489855 -1048415861
        -1001016472 -1920466891 1275807833 -1897631527</internalNodes>
      <leafValues>
        -5.9295952320098877e-01 2.8292122483253479e-01</leafValues></_></weakClassifiers></stage7>
</opencv_storage>
