<?xml version="1.0"?>
<opencv_storage>
<stage1>
  <maxWeakCount>7</maxWeakCount>
  <stageThreshold>-1.3021872043609619e+00</stageThreshold>
  <weakClassifiers>
    <_>
      <internalNodes>
        0 -1 977 1418703007 398446859 85008687 1406132713 835252159
        977242299 463649279 67103231</internalNodes>
      <leafValues>
        -7.1278458833694458e-01 3.0434781312942505e-01</leafValues></_>
    <_>
      <internalNodes>
        0 -1 412 -1278824600 -1144941366 1098924248 -485369455
        -528243526 1929576502 -519542321 844833471</internalNodes>
      <leafValues>
        -6.6360986232757568e-01 3.3484551310539246e-01</leafValues></_>
    <_>
      <internalNodes>
        0 -1 3678 -147307408 -69334957 -1852728937 -1819223667
        -427246852 -896879990 -217892707 -1161936710</internalNodes>
      <leafValues>
        -5.0807970762252808e-01 4.1620156168937683e-01</leafValues></_>
    <_>
      <internalNodes>
        0 -1 261 1987621474 1044596242 -804254133 337605202 839189093
        898941315 1633907707 1610561271</internalNodes>
      <leafValues>
        -6.5308767557144165e-01 3.4992927312850952e-01</leafValues></_>
    <_>
      <internalNodes>
        0 -1 3905 419174140 312885793 -805203937 611844457 -1971314165
        1518899347 -992342290 -1146594332</internalNodes>
      <leafValues>
        -6.4302438497543335e-01 3.7339627742767334e-01</leafValues></_>
    <_>
      <internalNodes>
        0 -1 408 -535770898 -1759537772 285262143 492245028 537061627
        -226358806 -1995891521 55525690</internalNodes>
      <leafValues>
        -5.1306009292602539e-01 4.2180773615837097e-01</leafValues></_>
    <_>
      <internalNodes>
        0 -1 633 -369061827 319983626 1477296405 902965314 -1299119853
        -1308589941 -353673011 -1498983849</internalNodes>
      <leafValues>
        -5.0744718313217163e-01 4.6872252225875854e-01</leafValues></_></weakClassifiers></stage1>
</opencv_storage>
