<?xml version="1.0"?>
<opencv_storage>
<stage18>
  <maxWeakCount>14</maxWeakCount>
  <stageThreshold>-1.4120476245880127e+00</stageThreshold>
  <weakClassifiers>
    <_>
      <internalNodes>
        0 -1 1579 -1093797379 -1227287733 -251629659 1974387738
        1807777949 -75267550 -1115485715 -559958518</internalNodes>
      <leafValues>
        -4.9460044503211975e-01 1.8735891580581665e-01</leafValues></_>
    <_>
      <internalNodes>
        0 -1 3484 413937973 365069468 1418436523 -1354217783 1779326512
        -1423851386 184686124 -1283966372</internalNodes>
      <leafValues>
        -4.8881295323371887e-01 2.1335080265998840e-01</leafValues></_>
    <_>
      <internalNodes>
        0 -1 3653 743485424 281548172 -1316341668 583430316 -795082284
        994779232 -886295466 581699800</internalNodes>
      <leafValues>
        -6.3822311162948608e-01 1.7523978650569916e-01</leafValues></_>
    <_>
      <internalNodes>
        0 -1 1742 -1931553482 130442318 -921140926 988811970 960970248
        877396097 562058844 538998929</internalNodes>
      <leafValues>
        -6.2152409553527832e-01 2.1215687692165375e-01</leafValues></_>
    <_>
      <internalNodes>
        0 -1 373 442189696 394809492 -1681335780 -104038334 1925870373
        981500056 -1157493456 723319112</internalNodes>
      <leafValues>
        -5.9121555089950562e-01 2.0711232721805573e-01</leafValues></_>
    <_>
      <internalNodes>
        0 -1 1170 -641728736 -1225084933 804782007 792313727 -1085192279
        -536979533 -1363394696 -1934645698</internalNodes>
      <leafValues>
        -3.1081682443618774e-01 4.3242812156677246e-01</leafValues></_>
    <_>
      <internalNodes>
        0 -1 1915 -1802553733 746062914 -2008780322 -623344704
        -1589568217 730767556 -60808856 -1880281744</internalNodes>
      <leafValues>
        -4.2175391316413879e-01 3.1421306729316711e-01</leafValues></_>
    <_>
      <internalNodes>
        0 -1 1761 -167632144 1737769643 -1741021174 257227688 554701373
        2014062728 714819593 1900022282</internalNodes>
      <leafValues>
        -6.1679100990295410e-01 2.2253176569938660e-01</leafValues></_>
    <_>
      <internalNodes>
        0 -1 3524 2081707853 610176078 -1416540010 1033298113 1406064944
        -366313394 -912174687 -1587171304</internalNodes>
      <leafValues>
        -4.2671591043472290e-01 3.2195752859115601e-01</leafValues></_>
    <_>
      <internalNodes>
        0 -1 2508 135727894 838963221 -1785719330 1268039830 -434533932
        957564955 88691458 685585350</internalNodes>
      <leafValues>
        -6.0133522748947144e-01 2.2740900516510010e-01</leafValues></_>
    <_>
      <internalNodes>
        0 -1 3024 -1038446272 -64892879 75530769 -116002815 405701177
        -1167015920 -1878975782 -1470557933</internalNodes>
      <leafValues>
        -3.9401251077651978e-01 3.7645944952964783e-01</leafValues></_>
    <_>
      <internalNodes>
        0 -1 1973 1010569492 444072159 1359055219 2085487435 1661995159
        -490700758 -1148548968 -893771006</internalNodes>
      <leafValues>
        -4.4056636095046997e-01 3.4565204381942749e-01</leafValues></_>
    <_>
      <internalNodes>
        0 -1 3488 -1294921 -1430379537 1023409775 2094825471 -805405215
        -17301665 -1358987539 -92275425</internalNodes>
      <leafValues>
        -2.9657247662544250e-01 5.1346719264984131e-01</leafValues></_>
    <_>
      <internalNodes>
        0 -1 3420 2090345720 9569674 1124162110 140410994 -729737104
        1301333120 -2117524787 1024811544</internalNodes>
      <leafValues>
        -6.1954259872436523e-01 2.4579057097434998e-01</leafValues></_></weakClassifiers></stage18>
</opencv_storage>
