<?xml version="1.0"?>
<opencv_storage>
<stage13>
  <maxWeakCount>100</maxWeakCount>
  <stageThreshold>-1.1107393503189087e+00</stageThreshold>
  <weakClassifiers>
    <_>
      <internalNodes>
        0 -1 8313 6.6187918186187744e-01</internalNodes>
      <leafValues>
        6.3100045919418335e-01 -1.8162839114665985e-01</leafValues></_>
    <_>
      <internalNodes>
        0 -1 40274 -1.3277128338813782e-02</internalNodes>
      <leafValues>
        4.1881942749023438e-01 3.1579606235027313e-02</leafValues></_>
    <_>
      <internalNodes>
        0 -1 64448 -5.3458161652088165e-02</internalNodes>
      <leafValues>
        2.9444876313209534e-01 -6.9651588797569275e-02</leafValues></_>
    <_>
      <internalNodes>
        0 -1 1791 -3.7210869789123535e-01</internalNodes>
      <leafValues>
        4.5523640513420105e-01 -5.9360794723033905e-02</leafValues></_>
    <_>
      <internalNodes>
        0 -1 574 -5.2763772010803223e-01</internalNodes>
      <leafValues>
        -6.2808102369308472e-01 2.3448923602700233e-02</leafValues></_>
    <_>
      <internalNodes>
        0 -1 3603 1.4233760535717010e-01</internalNodes>
      <leafValues>
        -7.0955738425254822e-02 2.6149690151214600e-01</leafValues></_>
    <_>
      <internalNodes>
        0 -1 53041 -4.9675162881612778e-02</internalNodes>
      <leafValues>
        3.0371060967445374e-01 -6.7411251366138458e-02</leafValues></_>
    <_>
      <internalNodes>
        0 -1 45520 1.6268026083707809e-02</internalNodes>
      <leafValues>
        -5.1101271063089371e-02 3.5245111584663391e-01</leafValues></_>
    <_>
      <internalNodes>
        0 -1 6485 -5.9802491217851639e-02</internalNodes>
      <leafValues>
        2.4821434915065765e-01 -5.1249343901872635e-02</leafValues></_>
    <_>
      <internalNodes>
        0 -1 75997 -3.9104856550693512e-02</internalNodes>
      <leafValues>
        3.2486101984977722e-01 -4.3168578296899796e-02</leafValues></_>
    <_>
      <internalNodes>
        0 -1 11383 3.7977874279022217e-02</internalNodes>
      <leafValues>
        -6.1443660408258438e-02 1.8669687211513519e-01</leafValues></_>
    <_>
      <internalNodes>
        0 -1 4408 -7.1175866760313511e-03</internalNodes>
      <leafValues>
        2.9203540086746216e-01 -4.5835547149181366e-02</leafValues></_>
    <_>
      <internalNodes>
        0 -1 29711 8.2183212041854858e-02</internalNodes>
      <leafValues>
        -3.4485962241888046e-02 3.8510033488273621e-01</leafValues></_>
    <_>
      <internalNodes>
        0 -1 1 8.9525408111512661e-04</internalNodes>
      <leafValues>
        5.9788543730974197e-02 -2.1720510721206665e-01</leafValues></_>
    <_>
      <internalNodes>
        0 -1 1 -6.1221467331051826e-04</internalNodes>
      <leafValues>
        -2.2661186754703522e-01 7.7648304402828217e-02</leafValues></_>
    <_>
      <internalNodes>
        0 -1 67636 7.0196348242461681e-03</internalNodes>
      <leafValues>
        -3.0238086357712746e-02 3.8645488023757935e-01</leafValues></_>
    <_>
      <internalNodes>
        0 -1 61441 -4.0135462768375874e-05</internalNodes>
      <leafValues>
        1.1754771322011948e-01 -1.0582035779953003e-01</leafValues></_>
    <_>
      <internalNodes>
        0 -1 21674 -1.4363980852067471e-02</internalNodes>
      <leafValues>
        2.2375696897506714e-01 -5.0772439688444138e-02</leafValues></_>
    <_>
      <internalNodes>
        0 -1 51257 -4.3855026888195425e-05</internalNodes>
      <leafValues>
        1.1233383417129517e-01 -9.1536678373813629e-02</leafValues></_>
    <_>
      <internalNodes>
        0 -1 72748 -2.3434173315763474e-02</internalNodes>
      <leafValues>
        2.2089765965938568e-01 -4.3532028794288635e-02</leafValues></_>
    <_>
      <internalNodes>
        0 -1 75167 -9.8392844665795565e-04</internalNodes>
      <leafValues>
        -2.1896746754646301e-01 4.3435443192720413e-02</leafValues></_>
    <_>
      <internalNodes>
        0 -1 65647 -1.0279810056090355e-02</internalNodes>
      <leafValues>
        2.1056267619132996e-01 -4.9686737358570099e-02</leafValues></_>
    <_>
      <internalNodes>
        0 -1 3898 7.6173041015863419e-03</internalNodes>
      <leafValues>
        -4.0237601846456528e-02 2.4056152999401093e-01</leafValues></_>
    <_>
      <internalNodes>
        0 -1 73521 -6.6198629792779684e-04</internalNodes>
      <leafValues>
        -1.6757167875766754e-01 6.0441136360168457e-02</leafValues></_>
    <_>
      <internalNodes>
        0 -1 14539 3.3216461539268494e-02</internalNodes>
      <leafValues>
        -4.8383090645074844e-02 2.1621599793434143e-01</leafValues></_>
    <_>
      <internalNodes>
        0 -1 54561 2.7236454188823700e-03</internalNodes>
      <leafValues>
        -1.0371031612157822e-01 1.1570214480161667e-01</leafValues></_>
    <_>
      <internalNodes>
        0 -1 962 -5.1891215145587921e-02</internalNodes>
      <leafValues>
        1.6966311633586884e-01 -5.4834894835948944e-02</leafValues></_>
    <_>
      <internalNodes>
        0 -1 16273 1.4415420591831207e-02</internalNodes>
      <leafValues>
        -7.3703400790691376e-02 1.4815060794353485e-01</leafValues></_>
    <_>
      <internalNodes>
        0 -1 15700 -3.4213416278362274e-02</internalNodes>
      <leafValues>
        2.1792294085025787e-01 -5.0254367291927338e-02</leafValues></_>
    <_>
      <internalNodes>
        0 -1 31 -2.0175624638795853e-02</internalNodes>
      <leafValues>
        -2.2549365460872650e-01 5.2878767251968384e-02</leafValues></_>
    <_>
      <internalNodes>
        0 -1 567 4.0298217535018921e-01</internalNodes>
      <leafValues>
        2.0393621176481247e-02 -5.4171770811080933e-01</leafValues></_>
    <_>
      <internalNodes>
        0 -1 77838 -8.9013681281358004e-04</internalNodes>
      <leafValues>
        -2.0220242440700531e-01 5.2602373063564301e-02</leafValues></_>
    <_>
      <internalNodes>
        0 -1 31882 -3.4126646816730499e-02</internalNodes>
      <leafValues>
        2.7812385559082031e-01 -3.6608468741178513e-02</leafValues></_>
    <_>
      <internalNodes>
        0 -1 16 1.1992800980806351e-02</internalNodes>
      <leafValues>
        4.0450509637594223e-02 -2.6091712713241577e-01</leafValues></_>
    <_>
      <internalNodes>
        0 -1 50845 -1.5483874594792724e-03</internalNodes>
      <leafValues>
        1.8096452951431274e-01 -5.4806191474199295e-02</leafValues></_>
    <_>
      <internalNodes>
        0 -1 34172 -2.3869933560490608e-02</internalNodes>
      <leafValues>
        4.4758987426757812e-01 -1.9131310284137726e-02</leafValues></_>
    <_>
      <internalNodes>
        0 -1 35798 -2.0468529313802719e-02</internalNodes>
      <leafValues>
        -3.8010311126708984e-01 2.5406105443835258e-02</leafValues></_>
    <_>
      <internalNodes>
        0 -1 12566 3.4480512142181396e-02</internalNodes>
      <leafValues>
        -2.0795943215489388e-02 4.3300569057464600e-01</leafValues></_>
    <_>
      <internalNodes>
        0 -1 7445 -6.2674493528902531e-04</internalNodes>
      <leafValues>
        -1.4865933358669281e-01 5.7213179767131805e-02</leafValues></_>
    <_>
      <internalNodes>
        0 -1 7445 -4.4636821257881820e-05</internalNodes>
      <leafValues>
        1.0001745074987411e-01 -8.5630260407924652e-02</leafValues></_>
    <_>
      <internalNodes>
        0 -1 77955 -8.5114222019910812e-03</internalNodes>
      <leafValues>
        2.8569132089614868e-01 -2.7621433138847351e-02</leafValues></_>
    <_>
      <internalNodes>
        0 -1 58588 -5.9812108520418406e-04</internalNodes>
      <leafValues>
        -1.4129693806171417e-01 5.5120792239904404e-02</leafValues></_>
    <_>
      <internalNodes>
        0 -1 27698 1.8081508576869965e-02</internalNodes>
      <leafValues>
        -4.7712583094835281e-02 1.7360635101795197e-01</leafValues></_>
    <_>
      <internalNodes>
        0 -1 14640 -1.5858214348554611e-02</internalNodes>
      <leafValues>
        2.1336667239665985e-01 -4.9423556774854660e-02</leafValues></_>
    <_>
      <internalNodes>
        0 -1 78312 6.5940409898757935e-02</internalNodes>
      <leafValues>
        1.4343387447297573e-02 -5.6847333908081055e-01</leafValues></_>
    <_>
      <internalNodes>
        0 -1 37619 1.9272167235612869e-02</internalNodes>
      <leafValues>
        -4.1198495775461197e-02 2.0036637783050537e-01</leafValues></_>
    <_>
      <internalNodes>
        0 -1 59874 3.0773440375924110e-02</internalNodes>
      <leafValues>
        -5.7945329695940018e-02 1.4627446234226227e-01</leafValues></_>
    <_>
      <internalNodes>
        0 -1 78299 2.7762535028159618e-03</internalNodes>
      <leafValues>
        4.8820666968822479e-02 -1.9220870733261108e-01</leafValues></_>
    <_>
      <internalNodes>
        0 -1 58433 -3.4951055567944422e-05</internalNodes>
      <leafValues>
        1.0167904943227768e-01 -8.0160103738307953e-02</leafValues></_>
    <_>
      <internalNodes>
        0 -1 58433 3.8871108699822798e-05</internalNodes>
      <leafValues>
        -9.2399470508098602e-02 1.1271362006664276e-01</leafValues></_>
    <_>
      <internalNodes>
        0 -1 68701 -7.5469340663403273e-04</internalNodes>
      <leafValues>
        -1.5343369543552399e-01 5.3408659994602203e-02</leafValues></_>
    <_>
      <internalNodes>
        0 -1 68701 1.2033793609589338e-03</internalNodes>
      <leafValues>
        4.1877176612615585e-02 -2.0164614915847778e-01</leafValues></_>
    <_>
      <internalNodes>
        0 -1 65691 -1.1298460885882378e-02</internalNodes>
      <leafValues>
        1.5437915921211243e-01 -5.2927218377590179e-02</leafValues></_>
    <_>
      <internalNodes>
        0 -1 68700 3.8178128306753933e-05</internalNodes>
      <leafValues>
        -8.1906750798225403e-02 1.0373453050851822e-01</leafValues></_>
    <_>
      <internalNodes>
        0 -1 7445 3.7650326703442261e-05</internalNodes>
      <leafValues>
        -7.8523106873035431e-02 1.0083357989788055e-01</leafValues></_>
    <_>
      <internalNodes>
        0 -1 58433 3.1942775240167975e-04</internalNodes>
      <leafValues>
        6.2745518982410431e-02 -1.2546207010746002e-01</leafValues></_>
    <_>
      <internalNodes>
        0 -1 15909 5.9728048741817474e-02</internalNodes>
      <leafValues>
        -2.5071103125810623e-02 2.9832646250724792e-01</leafValues></_>
    <_>
      <internalNodes>
        0 -1 68700 -3.5135573853040114e-05</internalNodes>
      <leafValues>
        9.7396053373813629e-02 -7.8930079936981201e-02</leafValues></_>
    <_>
      <internalNodes>
        0 -1 68680 -1.2921285815536976e-03</internalNodes>
      <leafValues>
        -1.6805076599121094e-01 4.7463580965995789e-02</leafValues></_>
    <_>
      <internalNodes>
        0 -1 34153 9.4150910153985023e-03</internalNodes>
      <leafValues>
        -4.9432266503572464e-02 1.6062574088573456e-01</leafValues></_>
    <_>
      <internalNodes>
        0 -1 45113 -1.2872643768787384e-02</internalNodes>
      <leafValues>
        1.9209894537925720e-01 -3.9180725812911987e-02</leafValues></_>
    <_>
      <internalNodes>
        0 -1 78454 1.5123505145311356e-03</internalNodes>
      <leafValues>
        3.7183307111263275e-02 -2.0869266986846924e-01</leafValues></_>
    <_>
      <internalNodes>
        0 -1 28262 7.9053267836570740e-03</internalNodes>
      <leafValues>
        -6.6817544400691986e-02 1.1128801107406616e-01</leafValues></_>
    <_>
      <internalNodes>
        0 -1 34933 -9.2187095433473587e-03</internalNodes>
      <leafValues>
        1.3087089359760284e-01 -6.5059036016464233e-02</leafValues></_>
    <_>
      <internalNodes>
        0 -1 50564 1.1684328317642212e-02</internalNodes>
      <leafValues>
        -7.1177102625370026e-02 1.2835878133773804e-01</leafValues></_>
    <_>
      <internalNodes>
        0 -1 21679 -5.4617068963125348e-04</internalNodes>
      <leafValues>
        -1.3442379236221313e-01 5.5062413215637207e-02</leafValues></_>
    <_>
      <internalNodes>
        0 -1 70297 -4.4396863813744858e-05</internalNodes>
      <leafValues>
        9.7369045019149780e-02 -7.6119750738143921e-02</leafValues></_>
    <_>
      <internalNodes>
        0 -1 70297 3.5946672142017633e-05</internalNodes>
      <leafValues>
        -8.5546337068080902e-02 9.6555814146995544e-02</leafValues></_>
    <_>
      <internalNodes>
        0 -1 6112 -4.1789166629314423e-02</internalNodes>
      <leafValues>
        4.0673884749412537e-01 -1.7049608752131462e-02</leafValues></_>
    <_>
      <internalNodes>
        0 -1 6399 -1.3492881320416927e-02</internalNodes>
      <leafValues>
        -2.7442935109138489e-01 3.0699081718921661e-02</leafValues></_>
    <_>
      <internalNodes>
        0 -1 14514 2.5418205186724663e-03</internalNodes>
      <leafValues>
        -6.9510169327259064e-02 1.1063921451568604e-01</leafValues></_>
    <_>
      <internalNodes>
        0 -1 65060 -1.5518040527240373e-05</internalNodes>
      <leafValues>
        9.1896623373031616e-02 -8.7015911936759949e-02</leafValues></_>
    <_>
      <internalNodes>
        0 -1 5229 5.8247189968824387e-02</internalNodes>
      <leafValues>
        -4.5387677848339081e-02 1.7873197793960571e-01</leafValues></_>
    <_>
      <internalNodes>
        0 -1 17593 -5.8681584894657135e-02</internalNodes>
      <leafValues>
        1.8200553953647614e-01 -4.3667167425155640e-02</leafValues></_>
    <_>
      <internalNodes>
        0 -1 48216 4.0947576053440571e-05</internalNodes>
      <leafValues>
        -7.4832029640674591e-02 9.7145847976207733e-02</leafValues></_>
    <_>
      <internalNodes>
        0 -1 57252 -3.4429319202899933e-02</internalNodes>
      <leafValues>
        2.9347184300422668e-01 -2.5180853903293610e-02</leafValues></_>
    <_>
      <internalNodes>
        0 -1 15834 2.3024375550448895e-03</internalNodes>
      <leafValues>
        -7.6616011559963226e-02 9.7007475793361664e-02</leafValues></_>
    <_>
      <internalNodes>
        0 -1 11251 -1.6450410839752294e-05</internalNodes>
      <leafValues>
        9.5902182161808014e-02 -8.1288613379001617e-02</leafValues></_>
    <_>
      <internalNodes>
        0 -1 8314 -6.0249143280088902e-04</internalNodes>
      <leafValues>
        -1.4885932207107544e-01 5.2872132509946823e-02</leafValues></_>
    <_>
      <internalNodes>
        0 -1 77925 2.1634357050061226e-02</internalNodes>
      <leafValues>
        -2.5096846744418144e-02 3.2510742545127869e-01</leafValues></_>
    <_>
      <internalNodes>
        0 -1 78180 -8.0645512789487839e-03</internalNodes>
      <leafValues>
        3.4068638086318970e-01 -2.2692983970046043e-02</leafValues></_>
    <_>
      <internalNodes>
        0 -1 60118 -3.5246487241238356e-03</internalNodes>
      <leafValues>
        1.5148641169071198e-01 -4.8750672489404678e-02</leafValues></_>
    <_>
      <internalNodes>
        0 -1 67249 -3.9869431930128485e-05</internalNodes>
      <leafValues>
        9.2822074890136719e-02 -8.2934916019439697e-02</leafValues></_>
    <_>
      <internalNodes>
        0 -1 70448 1.2217361945658922e-03</internalNodes>
      <leafValues>
        5.6555356830358505e-02 -1.3385935127735138e-01</leafValues></_>
    <_>
      <internalNodes>
        0 -1 78446 1.0455092415213585e-03</internalNodes>
      <leafValues>
        4.0568388998508453e-02 -1.7240343987941742e-01</leafValues></_>
    <_>
      <internalNodes>
        0 -1 61705 4.2533397674560547e-02</internalNodes>
      <leafValues>
        -3.4784547984600067e-02 2.0716646313667297e-01</leafValues></_>
    <_>
      <internalNodes>
        0 -1 75019 1.4208753782440908e-05</internalNodes>
      <leafValues>
        -7.7888727188110352e-02 9.4856560230255127e-02</leafValues></_>
    <_>
      <internalNodes>
        0 -1 58312 2.1587643772363663e-02</internalNodes>
      <leafValues>
        -4.3808158487081528e-02 1.5722307562828064e-01</leafValues></_>
    <_>
      <internalNodes>
        0 -1 2855 -5.2773095667362213e-02</internalNodes>
      <leafValues>
        2.9020509123802185e-01 -2.4909164756536484e-02</leafValues></_>
    <_>
      <internalNodes>
        0 -1 883 3.2336115837097168e-02</internalNodes>
      <leafValues>
        -2.8908291831612587e-02 2.5065547227859497e-01</leafValues></_>
    <_>
      <internalNodes>
        0 -1 28052 -1.0245011653751135e-03</internalNodes>
      <leafValues>
        -1.8518631160259247e-01 4.2950551956892014e-02</leafValues></_>
    <_>
      <internalNodes>
        0 -1 22761 2.0521774888038635e-02</internalNodes>
      <leafValues>
        -2.0907925441861153e-02 3.3650273084640503e-01</leafValues></_>
    <_>
      <internalNodes>
        0 -1 8315 7.7286863233894110e-04</internalNodes>
      <leafValues>
        4.8920322209596634e-02 -1.4900651574134827e-01</leafValues></_>
    <_>
      <internalNodes>
        0 -1 696 -2.3375672101974487e-01</internalNodes>
      <leafValues>
        -4.9349802732467651e-01 1.4443806372582912e-02</leafValues></_>
    <_>
      <internalNodes>
        0 -1 15449 -1.4208753782440908e-05</internalNodes>
      <leafValues>
        9.6380241215229034e-02 -7.7689699828624725e-02</leafValues></_>
    <_>
      <internalNodes>
        0 -1 2849 -2.0456686615943909e-02</internalNodes>
      <leafValues>
        1.6832689940929413e-01 -4.0713783353567123e-02</leafValues></_>
    <_>
      <internalNodes>
        0 -1 12960 6.8762345472350717e-04</internalNodes>
      <leafValues>
        5.7541280984878540e-02 -1.3192865252494812e-01</leafValues></_>
    <_>
      <internalNodes>
        0 -1 6363 -3.4372106194496155e-02</internalNodes>
      <leafValues>
        6.0442024469375610e-01 -1.2000381015241146e-02</leafValues></_>
    <_>
      <internalNodes>
        0 -1 78343 8.2948867930099368e-04</internalNodes>
      <leafValues>
        4.8082657158374786e-02 -1.4570562541484833e-01</leafValues></_>
    <_>
      <internalNodes>
        0 -1 55836 -3.8649905472993851e-03</internalNodes>
      <leafValues>
        1.2379843741655350e-01 -5.6832443922758102e-02</leafValues></_></weakClassifiers></stage13>
</opencv_storage>
