<?xml version="1.0"?>
<opencv_storage>
<stage15>
  <maxWeakCount>8</maxWeakCount>
  <stageThreshold>-1.1033539772033691e+00</stageThreshold>
  <weakClassifiers>
    <_>
      <internalNodes>
        0 -1 3492 186014069 -761343083 -1694139937 -1317233955
        -1480772931 -183556565 -1626907815 -1400357900</internalNodes>
      <leafValues>
        -6.3052207231521606e-01 2.8708133846521378e-02</leafValues></_>
    <_>
      <internalNodes>
        0 -1 3630 748435323 43300188 -950807365 -2002510883 -1307566127
        -341059321 -389911003 -1393436017</internalNodes>
      <leafValues>
        -4.9043232202529907e-01 2.6377895474433899e-01</leafValues></_>
    <_>
      <internalNodes>
        0 -1 1426 -1477493833 -486882997 520635634 -1207449852
        1190097445 1618835939 1436578869 896125820</internalNodes>
      <leafValues>
        -5.6006538867950439e-01 2.5829184055328369e-01</leafValues></_>
    <_>
      <internalNodes>
        0 -1 3366 -1962726969 151308315 -364650347 671783117 -123487992
        -1144356765 -167250488 -1900951719</internalNodes>
      <leafValues>
        -3.7609979510307312e-01 3.9560174942016602e-01</leafValues></_>
    <_>
      <internalNodes>
        0 -1 3831 -1429721299 -2046274134 -527314549 1692404666
        134456312 -1402789750 -1381689081 -1367490075</internalNodes>
      <leafValues>
        -4.3955466151237488e-01 3.5387209057807922e-01</leafValues></_>
    <_>
      <internalNodes>
        0 -1 3678 -384806700 -10349429 -1760677537 -1246183059
        -1377274403 -28671318 -609351204 -1441250886</internalNodes>
      <leafValues>
        -5.4125630855560303e-01 2.9493692517280579e-01</leafValues></_>
    <_>
      <internalNodes>
        0 -1 396 1350942497 -1363066744 -335441746 -1643787655 815996415
        1552512015 1269328481 108679682</internalNodes>
      <leafValues>
        -6.1383295059204102e-01 2.5624367594718933e-01</leafValues></_>
    <_>
      <internalNodes>
        0 -1 752 -1437442308 1079280953 -2105439971 700484882 1484788213
        653329141 1024000837 430239917</internalNodes>
      <leafValues>
        -5.3731918334960938e-01 2.9912060499191284e-01</leafValues></_></weakClassifiers></stage15>
</opencv_storage>
