<?xml version="1.0"?>
<opencv_storage>
<stage5>
  <maxWeakCount>9</maxWeakCount>
  <stageThreshold>-8.6366015672683716e-01</stageThreshold>
  <weakClassifiers>
    <_>
      <internalNodes>
        0 -1 3374 -285802753 9893790 -1064251243 587150046 1489750524
        2081013794 -238604853 -540026409</internalNodes>
      <leafValues>
        -6.0235887765884399e-01 1.7209301888942719e-01</leafValues></_>
    <_>
      <internalNodes>
        0 -1 3205 -964104275 -1605727525 1209336730 6140236 -308663967
        1099400301 -511639260 1627893479</internalNodes>
      <leafValues>
        -6.2757521867752075e-01 2.1767315268516541e-01</leafValues></_>
    <_>
      <internalNodes>
        0 -1 61 1681949312 1721365915 -1769653095 -1749020209 -536339980
        -171667039 -1999583071 -573221163</internalNodes>
      <leafValues>
        -6.1488670110702515e-01 2.4721601605415344e-01</leafValues></_>
    <_>
      <internalNodes>
        0 -1 1402 -1527929201 24447426 -1342080401 365543578 1976045830
        377127618 -1971125877 1790744715</internalNodes>
      <leafValues>
        -5.1631766557693481e-01 3.5742399096488953e-01</leafValues></_>
    <_>
      <internalNodes>
        0 -1 3261 102400540 2071109953 -1996285890 411177993 616706365
        -1098477142 -1717982773 -123549297</internalNodes>
      <leafValues>
        -4.9227645993232727e-01 3.5788834095001221e-01</leafValues></_>
    <_>
      <internalNodes>
        0 -1 3245 1498072832 1427555393 -2129473229 339775834 541773956
        -1136541566 -2112491437 144032773</internalNodes>
      <leafValues>
        -6.0844159126281738e-01 2.7214902639389038e-01</leafValues></_>
    <_>
      <internalNodes>
        0 -1 1473 1614936228 427983260 8459722 -1693249391 402907598
        -1111277413 150995549 11485335</internalNodes>
      <leafValues>
        -5.5162537097930908e-01 3.0525603890419006e-01</leafValues></_>
    <_>
      <internalNodes>
        0 -1 1106 -639979500 849536084 -1190244044 780585032 273168965
        -1006501879 650343441 1808493105</internalNodes>
      <leafValues>
        -6.6622740030288696e-01 2.5212964415550232e-01</leafValues></_>
    <_>
      <internalNodes>
        0 -1 3384 1796976127 771416063 -1459831041 1395324837 2096463223
        914126711 -427821706 -2055213059</internalNodes>
      <leafValues>
        -4.0129336714744568e-01 4.4348022341728210e-01</leafValues></_></weakClassifiers></stage5>
</opencv_storage>
