<?xml version="1.0"?>
<opencv_storage>
<stage1>
  <maxWeakCount>33</maxWeakCount>
  <stageThreshold>-1.5285741090774536e+00</stageThreshold>
  <weakClassifiers>
    <_>
      <internalNodes>
        0 -1 75 2.9533337801694870e-02</internalNodes>
      <leafValues>
        -7.1253073215484619e-01 -2.3575639352202415e-02</leafValues></_>
    <_>
      <internalNodes>
        0 -1 86 2.8721705079078674e-02</internalNodes>
      <leafValues>
        -3.9766669273376465e-01 3.0000662803649902e-01</leafValues></_>
    <_>
      <internalNodes>
        0 -1 2 3.8690030574798584e-02</internalNodes>
      <leafValues>
        -2.1602216362953186e-01 4.0432217717170715e-01</leafValues></_>
    <_>
      <internalNodes>
        0 -1 75 1.3405004516243935e-02</internalNodes>
      <leafValues>
        -6.6462624073028564e-01 8.3507597446441650e-02</leafValues></_>
    <_>
      <internalNodes>
        0 -1 26 8.7666856124997139e-03</internalNodes>
      <leafValues>
        -4.4853568077087402e-01 1.6775517165660858e-01</leafValues></_>
    <_>
      <internalNodes>
        0 -1 46 2.1450754255056381e-02</internalNodes>
      <leafValues>
        1.6293072700500488e-01 -3.1411501765251160e-01</leafValues></_>
    <_>
      <internalNodes>
        0 -1 100 2.8361756354570389e-02</internalNodes>
      <leafValues>
        -1.6337718069553375e-01 3.3218160271644592e-01</leafValues></_>
    <_>
      <internalNodes>
        0 -1 0 1.7910048365592957e-02</internalNodes>
      <leafValues>
        -2.3110681772232056e-01 2.1022148430347443e-01</leafValues></_>
    <_>
      <internalNodes>
        0 -1 87 1.4758117496967316e-02</internalNodes>
      <leafValues>
        -2.5055444240570068e-01 1.3390916585922241e-01</leafValues></_>
    <_>
      <internalNodes>
        0 -1 120 4.2439363896846771e-02</internalNodes>
      <leafValues>
        -1.6386240720748901e-01 2.5764152407646179e-01</leafValues></_>
    <_>
      <internalNodes>
        0 -1 4 1.0194589197635651e-01</internalNodes>
      <leafValues>
        5.0700038671493530e-02 -5.7738822698593140e-01</leafValues></_>
    <_>
      <internalNodes>
        0 -1 109 4.6794377267360687e-03</internalNodes>
      <leafValues>
        4.8065817356109619e-01 -8.4845572710037231e-02</leafValues></_>
    <_>
      <internalNodes>
        0 -1 1 1.4514167793095112e-02</internalNodes>
      <leafValues>
        -3.0516460537910461e-01 1.1366239190101624e-01</leafValues></_>
    <_>
      <internalNodes>
        0 -1 17 4.3595042079687119e-02</internalNodes>
      <leafValues>
        4.8771608620882034e-02 -5.8405965566635132e-01</leafValues></_>
    <_>
      <internalNodes>
        0 -1 137 1.4196578413248062e-02</internalNodes>
      <leafValues>
        2.3917040228843689e-01 -1.5120626986026764e-01</leafValues></_>
    <_>
      <internalNodes>
        0 -1 107 9.5950989052653313e-03</internalNodes>
      <leafValues>
        -3.0281984806060791e-01 1.0904190689325333e-01</leafValues></_>
    <_>
      <internalNodes>
        0 -1 52 1.4481764286756516e-02</internalNodes>
      <leafValues>
        1.7394764721393585e-01 -2.0937299728393555e-01</leafValues></_>
    <_>
      <internalNodes>
        0 -1 39 7.7559594064950943e-03</internalNodes>
      <leafValues>
        -8.0395185947418213e-01 4.0428906679153442e-02</leafValues></_>
    <_>
      <internalNodes>
        0 -1 32 3.4603388048708439e-03</internalNodes>
      <leafValues>
        6.0155928134918213e-01 -4.8396948724985123e-02</leafValues></_>
    <_>
      <internalNodes>
        0 -1 124 1.0185864754021168e-02</internalNodes>
      <leafValues>
        -2.5258606672286987e-01 1.1938113719224930e-01</leafValues></_>
    <_>
      <internalNodes>
        0 -1 13 2.1319199353456497e-02</internalNodes>
      <leafValues>
        -4.3343669176101685e-01 7.0505179464817047e-02</leafValues></_>
    <_>
      <internalNodes>
        0 -1 19 1.8325719283893704e-03</internalNodes>
      <leafValues>
        6.8739002943038940e-01 -4.1667934507131577e-02</leafValues></_>
    <_>
      <internalNodes>
        0 -1 127 2.1992539986968040e-02</internalNodes>
      <leafValues>
        -1.5904279053211212e-01 1.7046177387237549e-01</leafValues></_>
    <_>
      <internalNodes>
        0 -1 69 6.0343861579895020e-02</internalNodes>
      <leafValues>
        -4.2650990188121796e-02 6.1894112825393677e-01</leafValues></_>
    <_>
      <internalNodes>
        0 -1 30 4.3230563402175903e-02</internalNodes>
      <leafValues>
        -9.8634622991085052e-02 2.5594410300254822e-01</leafValues></_>
    <_>
      <internalNodes>
        0 -1 3 4.9769796431064606e-02</internalNodes>
      <leafValues>
        -1.2570953369140625e-01 2.0670211315155029e-01</leafValues></_>
    <_>
      <internalNodes>
        0 -1 73 2.4120897054672241e-02</internalNodes>
      <leafValues>
        -1.6740514338016510e-01 1.8195579946041107e-01</leafValues></_>
    <_>
      <internalNodes>
        0 -1 109 1.4217179268598557e-02</internalNodes>
      <leafValues>
        2.1221658587455750e-01 -1.3630674779415131e-01</leafValues></_>
    <_>
      <internalNodes>
        0 -1 121 1.0185955464839935e-01</internalNodes>
      <leafValues>
        4.9773827195167542e-02 -5.6355345249176025e-01</leafValues></_>
    <_>
      <internalNodes>
        0 -1 14 2.4601422250270844e-02</internalNodes>
      <leafValues>
        -2.0437975227832794e-01 1.4798326790332794e-01</leafValues></_>
    <_>
      <internalNodes>
        0 -1 84 8.0778539180755615e-02</internalNodes>
      <leafValues>
        5.4703392088413239e-02 -4.3457826972007751e-01</leafValues></_>
    <_>
      <internalNodes>
        0 -1 23 1.3196364976465702e-02</internalNodes>
      <leafValues>
        2.3045626282691956e-01 -1.0667382180690765e-01</leafValues></_>
    <_>
      <internalNodes>
        0 -1 57 3.1933221966028214e-02</internalNodes>
      <leafValues>
        -1.3645556569099426e-01 1.8603561818599701e-01</leafValues></_></weakClassifiers></stage1>
</opencv_storage>
