<?xml version="1.0"?>
<opencv_storage>
<stage15>
  <maxWeakCount>64</maxWeakCount>
  <stageThreshold>-6.7694538831710815e-01</stageThreshold>
  <weakClassifiers>
    <_>
      <internalNodes>
        0 -1 295 -1033379038 1313830656 14862368 -1595355616 605381696
        67650593 1886733410 357002834</internalNodes>
      <leafValues>
        3.4415313601493835e-01 6.6540533304214478e-01</leafValues></_>
    <_>
      <internalNodes>
        0 -1 3696 1461699334 1360761634 -1308220287 138293595
        -2060154624 697359633 2026511050 1081337706</internalNodes>
      <leafValues>
        -9.9065877497196198e-02 2.7595615386962891e-01</leafValues></_>
    <_>
      <internalNodes>
        0 -1 410 1376453280 1969000895 84372899 1928714463 1344875235
        944542416 1014953967 1418830337</internalNodes>
      <leafValues>
        -2.2488684952259064e-01 1.5243048965930939e-01</leafValues></_>
    <_>
      <internalNodes>
        0 -1 339 -344605010 1606651970 -1811676144 682152800 2001370978
        1738014820 1881297716 1718870422</internalNodes>
      <leafValues>
        -2.0392829179763794e-01 1.6363510489463806e-01</leafValues></_>
    <_>
      <internalNodes>
        0 -1 3760 -262803873 -2118328936 1013118808 418619145 1095222853
        19442194 -222051324 -731394670</internalNodes>
      <leafValues>
        -1.5144532918930054e-01 2.0935826003551483e-01</leafValues></_>
    <_>
      <internalNodes>
        0 -1 2549 1699586734 1201361706 1521037909 1881982362 1393583104
        1076133956 1075418804 1084463295</internalNodes>
      <leafValues>
        -2.5346812605857849e-01 1.0997752100229263e-01</leafValues></_>
    <_>
      <internalNodes>
        0 -1 3256 -79773070 1429216048 370313231 1543075985 1007051530
        -935915094 1866507486 1485563114</internalNodes>
      <leafValues>
        -1.6068807244300842e-01 2.0222088694572449e-01</leafValues></_>
    <_>
      <internalNodes>
        0 -1 1079 409416452 1531466312 699008798 822982979 -1816960008
        1405653321 -292380050 848674026</internalNodes>
      <leafValues>
        -2.0311896502971649e-01 1.5384888648986816e-01</leafValues></_>
    <_>
      <internalNodes>
        0 -1 2221 1997656066 2101906322 -2112301645 142010840 -220478290
        1005870608 -670637639 1267463818</internalNodes>
      <leafValues>
        -1.5704824030399323e-01 1.9795866310596466e-01</leafValues></_>
    <_>
      <internalNodes>
        0 -1 2327 -46237697 -1450177236 -53233315 -1825072112 790536628
        -1399511446 -1762773028 -1111544494</internalNodes>
      <leafValues>
        -1.1749054491519928e-01 2.6090657711029053e-01</leafValues></_>
    <_>
      <internalNodes>
        0 -1 1859 -744626552 1357397112 1462990033 2022774581 -889402941
        -1570228244 2128729342 -979899253</internalNodes>
      <leafValues>
        -1.2495343387126923e-01 2.4768823385238647e-01</leafValues></_>
    <_>
      <internalNodes>
        0 -1 50 -2107414366 -24663121 -1032820929 -1690488146 1559683508
        1795626433 310508155 -632046814</internalNodes>
      <leafValues>
        -1.5230993926525116e-01 2.0713429152965546e-01</leafValues></_>
    <_>
      <internalNodes>
        0 -1 30 1147186380 -1222770387 50475088 -47556574 -1391675204
        984449698 1745358651 397676562</internalNodes>
      <leafValues>
        -2.0621810853481293e-01 1.5708816051483154e-01</leafValues></_>
    <_>
      <internalNodes>
        0 -1 2485 -259530113 -344877361 -1599310241 433806267 -820520309
        -274983273 1300732813 -338853006</internalNodes>
      <leafValues>
        -9.6761755645275116e-02 3.3930411934852600e-01</leafValues></_>
    <_>
      <internalNodes>
        0 -1 13 2411560 777448196 -1744563906 292079246 -1864647691
        228714515 1823236292 1410852402</internalNodes>
      <leafValues>
        -2.6234331727027893e-01 1.2738218903541565e-01</leafValues></_>
    <_>
      <internalNodes>
        0 -1 3742 -579342273 1180320747 2114599833 1467273690 -513915475
        129737891 -187209796 -83383457</internalNodes>
      <leafValues>
        -9.9521711468696594e-02 3.3987659215927124e-01</leafValues></_>
    <_>
      <internalNodes>
        0 -1 2191 -336422931 1633643745 -72647905 -135031908 1992747882
        -1065257697 -1123776225 -456159490</internalNodes>
      <leafValues>
        -1.0298692435026169e-01 3.0861777067184448e-01</leafValues></_>
    <_>
      <internalNodes>
        0 -1 227 1895882818 1164509834 -1677418467 -1045271530
        1707104942 1926332506 -1643388794 1614087683</internalNodes>
      <leafValues>
        -1.9260880351066589e-01 1.6901162266731262e-01</leafValues></_>
    <_>
      <internalNodes>
        0 -1 3717 1533779919 -1755978338 -662731779 -1722448625
        -245515526 502839180 -1150015524 -656671809</internalNodes>
      <leafValues>
        -9.1447710990905762e-02 3.5701224207878113e-01</leafValues></_>
    <_>
      <internalNodes>
        0 -1 3377 -1747394942 -2109372606 1925237776 282617476 50495748
        1309262556 13463680 4205314</internalNodes>
      <leafValues>
        -3.1311845779418945e-01 1.0656427592039108e-01</leafValues></_>
    <_>
      <internalNodes>
        0 -1 2783 1388685607 -1087919459 1133633591 -311953986
        -606784574 1848230833 1888411231 -291927301</internalNodes>
      <leafValues>
        -1.0582791268825531e-01 3.1320849061012268e-01</leafValues></_>
    <_>
      <internalNodes>
        0 -1 2216 1935524763 -135948171 1620583325 534869209 1945282504
        -1557486864 -659376310 -809646849</internalNodes>
      <leafValues>
        -8.9194923639297485e-02 3.6009922623634338e-01</leafValues></_>
    <_>
      <internalNodes>
        0 -1 1214 42827810 -2003783569 -2000418785 1782716441 1796727091
        -556257080 -743105743 241752589</internalNodes>
      <leafValues>
        -2.1854047477245331e-01 1.5754401683807373e-01</leafValues></_>
    <_>
      <internalNodes>
        0 -1 575 270139656 1800722345 -1051806160 863286264 -1938419692
        90188020 1200754865 34649004</internalNodes>
      <leafValues>
        -3.2250496745109558e-01 1.1318551748991013e-01</leafValues></_>
    <_>
      <internalNodes>
        0 -1 1649 -349728361 1728040335 1927824855 1028880607 1526630810
        -1623941624 1372483774 -15337633</internalNodes>
      <leafValues>
        -1.0430593788623810e-01 3.4174951910972595e-01</leafValues></_>
    <_>
      <internalNodes>
        0 -1 3211 637200232 33561476 -1455730286 538479814 680209726
        315687088 815071440 91752920</internalNodes>
      <leafValues>
        -3.2396721839904785e-01 1.1124549806118011e-01</leafValues></_>
    <_>
      <internalNodes>
        0 -1 2934 1874643383 2134003755 914001974 -1019128575 234442958
        -69937428 200718567 -590630678</internalNodes>
      <leafValues>
        -1.1613649129867554e-01 3.0439937114715576e-01</leafValues></_>
    <_>
      <internalNodes>
        0 -1 373 -778410396 -410203391 2129372 -745933538 -1174385319
        903547024 689719604 930821979</internalNodes>
      <leafValues>
        -2.0581664144992828e-01 1.6935412585735321e-01</leafValues></_>
    <_>
      <internalNodes>
        0 -1 1123 1776845368 184225534 996586476 767472522 -813005218
        1596841889 399558072 -1155864826</internalNodes>
      <leafValues>
        -1.7920017242431641e-01 1.9701591134071350e-01</leafValues></_>
    <_>
      <internalNodes>
        0 -1 232 -154147589 -150877765 1380082869 -637886053 1195619274
        -552499547 -384307394 -47459330</internalNodes>
      <leafValues>
        -8.6302585899829865e-02 4.0160676836967468e-01</leafValues></_>
    <_>
      <internalNodes>
        0 -1 2196 -244132161 961228986 -1108088797 1966854925 1737682906
        -1100030968 -1071861782 -1077727586</internalNodes>
      <leafValues>
        -8.5263796150684357e-02 3.9664512872695923e-01</leafValues></_>
    <_>
      <internalNodes>
        0 -1 1399 -137168809 1992106574 1202233759 1909010855 538217423
        -37099306 -571103561 -540037429</internalNodes>
      <leafValues>
        -8.0025196075439453e-02 4.0443670749664307e-01</leafValues></_>
    <_>
      <internalNodes>
        0 -1 33 33735180 291815666 -1826082559 1719534229 1380389923
        379882229 -1736476800 1356866304</internalNodes>
      <leafValues>
        -3.1800585985183716e-01 1.1350139975547791e-01</leafValues></_>
    <_>
      <internalNodes>
        0 -1 719 -679744513 -74078473 327019686 -675091182 455191239
        1829134235 -1326531441 -309335218</internalNodes>
      <leafValues>
        -9.6140831708908081e-02 3.6712375283241272e-01</leafValues></_>
    <_>
      <internalNodes>
        0 -1 3056 1405590747 -142333101 411382843 -2597422 1250670997
        -318322408 -547120116 1587276302</internalNodes>
      <leafValues>
        -1.2479517608880997e-01 2.8398633003234863e-01</leafValues></_>
    <_>
      <internalNodes>
        0 -1 435 -636499533 -1013763013 -1024613421 -306914331
        -163272471 -1185735649 -596701747 -536884357</internalNodes>
      <leafValues>
        -9.0687654912471771e-02 3.8014292716979980e-01</leafValues></_>
    <_>
      <internalNodes>
        0 -1 3584 -28749418 -337683384 1360384128 986321089 -1038030592
        1411093512 -1816092296 -534730351</internalNodes>
      <leafValues>
        -1.9124473631381989e-01 1.8421931564807892e-01</leafValues></_>
    <_>
      <internalNodes>
        0 -1 2455 -2122272054 705783830 1091175446 -141258712 -502953540
        -1207876602 -1760762103 -333530900</internalNodes>
      <leafValues>
        -1.8567554652690887e-01 1.9395017623901367e-01</leafValues></_>
    <_>
      <internalNodes>
        0 -1 3931 1700775135 498728883 1336622421 -1637757829
        -1023834976 -316297870 -826813892 -764414289</internalNodes>
      <leafValues>
        -9.1707743704319000e-02 3.9182361960411072e-01</leafValues></_>
    <_>
      <internalNodes>
        0 -1 958 1639568906 1183383803 1987588786 1533114656 1338671111
        -2066534572 1271930876 1971558318</internalNodes>
      <leafValues>
        -1.7977699637413025e-01 2.0086976885795593e-01</leafValues></_>
    <_>
      <internalNodes>
        0 -1 3473 1961612991 -68052910 -902413954 2006039615 754111654
        -685956356 -1996503041 -23615057</internalNodes>
      <leafValues>
        -8.9181490242481232e-02 3.9550194144248962e-01</leafValues></_>
    <_>
      <internalNodes>
        0 -1 3697 377863984 -922729020 1510082623 -666128680 2049682772
        -343407004 1908630425 1684555011</internalNodes>
      <leafValues>
        -2.1693341434001923e-01 1.6425053775310516e-01</leafValues></_>
    <_>
      <internalNodes>
        0 -1 3580 2027079902 824549980 1351807545 1103141964 535390434
        1792182403 1384285370 193064632</internalNodes>
      <leafValues>
        -1.8372833728790283e-01 1.9674655795097351e-01</leafValues></_>
    <_>
      <internalNodes>
        0 -1 236 -1911609641 1459020419 1643768056 -373564023 466664244
        -900400278 560898414 -571467866</internalNodes>
      <leafValues>
        -1.4853689074516296e-01 2.4667514860630035e-01</leafValues></_>
    <_>
      <internalNodes>
        0 -1 1427 1410767870 1875513924 269017113 -1747397442 -90757436
        1853227411 457777605 1096075893</internalNodes>
      <leafValues>
        -2.1108756959438324e-01 1.7268548905849457e-01</leafValues></_>
    <_>
      <internalNodes>
        0 -1 3347 1121386842 22188145 403531792 827758156 1264695572
        -980769656 1382551696 476822758</internalNodes>
      <leafValues>
        -2.2549024224281311e-01 1.5951454639434814e-01</leafValues></_>
    <_>
      <internalNodes>
        0 -1 306 -409083254 -808782934 1668754365 -56759698 565369114
        -51152961 -1827218047 -940067917</internalNodes>
      <leafValues>
        -1.3363713026046753e-01 2.7608376741409302e-01</leafValues></_>
    <_>
      <internalNodes>
        0 -1 2528 1652396811 -1726480710 -887046569 1129991371
        -2133393976 -722982237 911643917 -15888120</internalNodes>
      <leafValues>
        -1.3599255681037903e-01 2.6660567522048950e-01</leafValues></_>
    <_>
      <internalNodes>
        0 -1 1134 -232747983 -27267473 1820045269 -693012051 606651227
        -362351151 1982514078 -1123695712</internalNodes>
      <leafValues>
        -1.3841708004474640e-01 2.6346287131309509e-01</leafValues></_>
    <_>
      <internalNodes>
        0 -1 1877 618594944 724566742 74974796 46840557 1130879465
        97378882 1362374336 36503836</internalNodes>
      <leafValues>
        -3.0811357498168945e-01 1.2058362364768982e-01</leafValues></_>
    <_>
      <internalNodes>
        0 -1 3011 -185284147 -714740719 -2143678328 343340644 1143602258
        1725263688 -1049248093 -157851197</internalNodes>
      <leafValues>
        -1.5713931620121002e-01 2.3601105809211731e-01</leafValues></_>
    <_>
      <internalNodes>
        0 -1 1469 -733637709 1541101489 684921495 -1745131273 1376226996
        -42234646 -109094931 -313011557</internalNodes>
      <leafValues>
        -1.0115422308444977e-01 3.6130043864250183e-01</leafValues></_>
    <_>
      <internalNodes>
        0 -1 3821 -265715573 179422646 -710085007 -1403700413
        -1371445489 -1902059737 -1030764590 -802781463</internalNodes>
      <leafValues>
        -1.5743644535541534e-01 2.3041792213916779e-01</leafValues></_>
    <_>
      <internalNodes>
        0 -1 3024 -789605802 -380659888 -52711037 -168665650 1530737319
        -122889985 2124067807 -1258869730</internalNodes>
      <leafValues>
        -1.3324651122093201e-01 2.8177329897880554e-01</leafValues></_>
    <_>
      <internalNodes>
        0 -1 3042 1254159418 360573404 -515946565 -574226468 -1497965383
        503297154 -990081364 -350584037</internalNodes>
      <leafValues>
        -1.3413797318935394e-01 2.9039427638053894e-01</leafValues></_>
    <_>
      <internalNodes>
        0 -1 114 118349550 1208770776 1317411429 513194059 1673575018
        -1196899478 -527220192 1734205558</internalNodes>
      <leafValues>
        -2.1837879717350006e-01 1.8787348270416260e-01</leafValues></_>
    <_>
      <internalNodes>
        0 -1 70 -1604248398 876327553 2028473561 1468388495 591934807
        1469584068 1166923649 -745997846</internalNodes>
      <leafValues>
        -1.7298410832881927e-01 2.2281879186630249e-01</leafValues></_>
    <_>
      <internalNodes>
        0 -1 2894 -193921833 1364467259 497087227 1157790121 1824056510
        -1678989956 -858255946 -105067459</internalNodes>
      <leafValues>
        -1.1989947408437729e-01 3.2168668508529663e-01</leafValues></_>
    <_>
      <internalNodes>
        0 -1 1116 -749213931 1224365920 716134813 -1558145034
        -1893219241 -1653096595 -1509541392 -86780381</internalNodes>
      <leafValues>
        -1.3357678055763245e-01 2.7466320991516113e-01</leafValues></_>
    <_>
      <internalNodes>
        0 -1 1846 -2091488517 1639251785 803223993 -1927057641 402178051
        -40400767 -1665209165 -21638898</internalNodes>
      <leafValues>
        -1.2112873792648315e-01 3.1378099322319031e-01</leafValues></_>
    <_>
      <internalNodes>
        0 -1 3238 -196229641 1072524953 -266954017 -182100163 -121456737
        -1694502346 981763803 -37910497</internalNodes>
      <leafValues>
        -8.3275713026523590e-02 4.3393194675445557e-01</leafValues></_>
    <_>
      <internalNodes>
        0 -1 0 1368708527 -1599413491 2146423231 -1220996365 2119492991
        -1163747674 -82616930 -210289401</internalNodes>
      <leafValues>
        -1.1660259962081909e-01 3.1286203861236572e-01</leafValues></_>
    <_>
      <internalNodes>
        0 -1 1044 -558257233 -406223312 447606224 1205182030 1288282574
        -1006258196 -332889849 -184332601</internalNodes>
      <leafValues>
        -1.2752963602542877e-01 3.0318647623062134e-01</leafValues></_>
    <_>
      <internalNodes>
        0 -1 619 328794898 -1524897859 1090195751 723780455 2086689346
        1807030031 1604723851 -569886541</internalNodes>
      <leafValues>
        -1.8027928471565247e-01 2.1807442605495453e-01</leafValues></_></weakClassifiers></stage15>
</opencv_storage>
