<?xml version="1.0"?>
<opencv_storage>
<stage5>
  <maxWeakCount>45</maxWeakCount>
  <stageThreshold>-7.4201273918151855e-01</stageThreshold>
  <weakClassifiers>
    <_>
      <internalNodes>
        0 -1 2805 -1025515006 7004138 -461209600 541255266 1305989124
        72730170 1659166724 1086842435</internalNodes>
      <leafValues>
        8.7278105318546295e-02 6.6639375686645508e-01</leafValues></_>
    <_>
      <internalNodes>
        0 -1 246 -272645197 -2107197280 -266349606 -398530976 1097610581
        1754001207 1421231380 -453773853</internalNodes>
      <leafValues>
        -9.3326605856418610e-02 4.0807652473449707e-01</leafValues></_>
    <_>
      <internalNodes>
        0 -1 3320 -16781533 -435452476 -426299120 1618516990 -589315327
        1141000376 -2136673152 -1056964653</internalNodes>
      <leafValues>
        -2.5072732567787170e-01 2.4548000097274780e-01</leafValues></_>
    <_>
      <internalNodes>
        0 -1 3649 -321917473 -1945068650 -1202543938 -463274048
        -559422202 -1387736015 -492857723 -454039081</internalNodes>
      <leafValues>
        -1.8469743430614471e-01 3.0205416679382324e-01</leafValues></_>
    <_>
      <internalNodes>
        0 -1 55 -358094162 -2045860313 1141112912 -627633216 1221544085
        1153467554 1614922388 -230436121</internalNodes>
      <leafValues>
        -2.8440916538238525e-01 1.9118231534957886e-01</leafValues></_>
    <_>
      <internalNodes>
        0 -1 1749 -925147593 -2044063454 -48301961 -1836011074
        -1673385407 -1348690825 -437619852 -297339213</internalNodes>
      <leafValues>
        -1.9337563216686249e-01 2.9659393429756165e-01</leafValues></_>
    <_>
      <internalNodes>
        0 -1 2019 -1978726846 729899842 1443226486 -1205188240
        -974236651 -911299565 285766656 -1498413200</internalNodes>
      <leafValues>
        -3.0252018570899963e-01 1.8069964647293091e-01</leafValues></_>
    <_>
      <internalNodes>
        0 -1 3569 -623393260 2109768256 -1229458188 -1197293405
        1881053252 -1074272898 -790606688 -525611285</internalNodes>
      <leafValues>
        -2.1875306963920593e-01 2.5903743505477905e-01</leafValues></_>
    <_>
      <internalNodes>
        0 -1 3968 129715284 -1907595303 -579314185 270438355 -1425059379
        -1474500547 -2138492475 -1392620383</internalNodes>
      <leafValues>
        -2.3582151532173157e-01 2.3062588274478912e-01</leafValues></_>
    <_>
      <internalNodes>
        0 -1 2227 -1408850607 -1903032861 2048013948 -1325492088
        -1600359340 912267553 -1024194955 -396167856</internalNodes>
      <leafValues>
        -2.3936593532562256e-01 2.2382146120071411e-01</leafValues></_>
    <_>
      <internalNodes>
        0 -1 2827 -421570186 -1931072848 -1091668170 709110008
        -1329386388 -1914408161 -1127262988 -386990391</internalNodes>
      <leafValues>
        -2.0397624373435974e-01 2.7180749177932739e-01</leafValues></_>
    <_>
      <internalNodes>
        0 -1 1765 -1439499651 -1243870957 -357061797 -1083640390
        -2010771516 -1363547609 1706196 -1440608223</internalNodes>
      <leafValues>
        -2.2515337169170380e-01 2.4711327254772186e-01</leafValues></_>
    <_>
      <internalNodes>
        0 -1 3156 1524351366 298500097 -1808526824 -1168976488
        -794075066 705234752 -2004348800 1142423327</internalNodes>
      <leafValues>
        -2.6101669669151306e-01 2.0519514381885529e-01</leafValues></_>
    <_>
      <internalNodes>
        0 -1 66 -786961330 601165913 -1340825502 302290185 1946421469
        377520179 -1030282306 1910628875</internalNodes>
      <leafValues>
        -2.8461971879005432e-01 1.8616189062595367e-01</leafValues></_>
    <_>
      <internalNodes>
        0 -1 328 -828905630 583489344 -1870221068 -1361905282 1497645636
        1360152587 1076314868 1622274823</internalNodes>
      <leafValues>
        -3.6542037129402161e-01 1.4383254945278168e-01</leafValues></_>
    <_>
      <internalNodes>
        0 -1 2327 -1404431075 733353407 -1428868269 -403809900
        -1184074627 -1622527997 -1146354700 -1435488400</internalNodes>
      <leafValues>
        -2.4236084520816803e-01 2.2171354293823242e-01</leafValues></_>
    <_>
      <internalNodes>
        0 -1 666 573179988 774641889 -197352714 -1573604584 135334976
        -914255815 -1507184364 -454687120</internalNodes>
      <leafValues>
        -3.2039994001388550e-01 1.6394050419330597e-01</leafValues></_>
    <_>
      <internalNodes>
        0 -1 64 -658050942 -1289412600 395897 288398195 1422639824
        -1681047534 1099825488 374428018</internalNodes>
      <leafValues>
        -2.8992724418640137e-01 1.7887027561664581e-01</leafValues></_>
    <_>
      <internalNodes>
        0 -1 3939 -2103743466 -2132129955 -195418400 -1536150820
        -1998435008 -1198159557 -1316265088 -527237888</internalNodes>
      <leafValues>
        -2.4840930104255676e-01 2.1691535413265228e-01</leafValues></_>
    <_>
      <internalNodes>
        0 -1 1133 -258542886 533439474 -1172200904 827317397 645254045
        24411710 -2049144593 431804587</internalNodes>
      <leafValues>
        -2.0571771264076233e-01 2.5639489293098450e-01</leafValues></_>
    <_>
      <internalNodes>
        0 -1 3702 -1440856975 -1625659384 -1649543623 -1651949035
        -1826730624 -387809 -1397742172 -1897758877</internalNodes>
      <leafValues>
        -2.1810957789421082e-01 2.3841972649097443e-01</leafValues></_>
    <_>
      <internalNodes>
        0 -1 2369 -94644710 454240597 -1607989255 270696680 329547946
        -1932654260 1488638122 -895766925</internalNodes>
      <leafValues>
        -1.7126691341400146e-01 3.1715416908264160e-01</leafValues></_>
    <_>
      <internalNodes>
        0 -1 2790 -590492117 -387336603 -117704582 1114726585 85302379
        -1687507476 1123870032 -185864246</internalNodes>
      <leafValues>
        -1.8546977639198303e-01 2.9238674044609070e-01</leafValues></_>
    <_>
      <internalNodes>
        0 -1 1565 -1415970256 -1325363185 965052467 -1615448516
        -555676280 -115926462 -1076705397 -1405429708</internalNodes>
      <leafValues>
        -2.4808126688003540e-01 2.1620669960975647e-01</leafValues></_>
    <_>
      <internalNodes>
        0 -1 13 -2134654976 367182538 -1936700114 -1859300796 -531901221
        927471618 1892941912 1690748470</internalNodes>
      <leafValues>
        -2.8773728013038635e-01 1.8548928201198578e-01</leafValues></_>
    <_>
      <internalNodes>
        0 -1 1678 -327950881 -1155291376 1071817084 -467509184
        1955333854 -360361302 72463697 2127001091</internalNodes>
      <leafValues>
        -1.7714837193489075e-01 3.0370599031448364e-01</leafValues></_>
    <_>
      <internalNodes>
        0 -1 3021 -1384248523 -1955270752 -1073750978 782012083
        -1375790792 -1362755585 -174584864 -1096106283</internalNodes>
      <leafValues>
        -2.0386748015880585e-01 2.5968164205551147e-01</leafValues></_>
    <_>
      <internalNodes>
        0 -1 3808 -365962188 621322002 318079443 -118512419 -2022766552
        -668179077 -1063247132 -398006444</internalNodes>
      <leafValues>
        -2.0886825025081635e-01 2.5703081488609314e-01</leafValues></_>
    <_>
      <internalNodes>
        0 -1 1172 -362875685 2047185095 -2059530057 -217563517
        -1604560664 -1909813917 673229004 -269895325</internalNodes>
      <leafValues>
        -1.4253564178943634e-01 3.8321563601493835e-01</leafValues></_>
    <_>
      <internalNodes>
        0 -1 3255 -816056481 -45384917 -769396170 -1307177966 1424936396
        -839195810 1278061820 -321393941</internalNodes>
      <leafValues>
        -1.2475564330816269e-01 4.1589647531509399e-01</leafValues></_>
    <_>
      <internalNodes>
        0 -1 3357 613040476 -1497091006 2023207678 -1839164752
        -2131223544 -825585375 -357033166 -996089632</internalNodes>
      <leafValues>
        -2.7169418334960938e-01 1.9940441846847534e-01</leafValues></_>
    <_>
      <internalNodes>
        0 -1 2295 1655084338 644419630 -1933845808 -524086220 535456799
        -92868071 550318388 -359348587</internalNodes>
      <leafValues>
        -2.4482367932796478e-01 2.3118105530738831e-01</leafValues></_>
    <_>
      <internalNodes>
        0 -1 2785 1809315400 -1535597651 4223056 811225735 1073893958
        35751936 -2066704546 1080545018</internalNodes>
      <leafValues>
        -2.9262033104896545e-01 1.8925011157989502e-01</leafValues></_>
    <_>
      <internalNodes>
        0 -1 3964 1299799419 7758946 -25435981 -1028745068 -64091125
        -392183945 -511794368 -1576216885</internalNodes>
      <leafValues>
        -2.0347572863101959e-01 2.7048382163047791e-01</leafValues></_>
    <_>
      <internalNodes>
        0 -1 556 -1013322226 -1564235505 -737062336 812038942 1932414981
        1681983782 2068160608 1616859526</internalNodes>
      <leafValues>
        -3.6238533258438110e-01 1.5012812614440918e-01</leafValues></_>
    <_>
      <internalNodes>
        0 -1 2443 -1525675724 478740799 -909668782 -1441256246
        -997521147 -1446896504 -261966576 -388709108</internalNodes>
      <leafValues>
        -2.8058108687400818e-01 2.0690883696079254e-01</leafValues></_>
    <_>
      <internalNodes>
        0 -1 74 -903727118 1000541673 -340606989 -1612812747 1018561883
        1867960082 15991804 -21795037</internalNodes>
      <leafValues>
        -1.9418935477733612e-01 2.8901547193527222e-01</leafValues></_>
    <_>
      <internalNodes>
        0 -1 1128 -1500620175 -545914623 -911104677 -59895790 751007256
        -1666893645 156250256 -1402901712</internalNodes>
      <leafValues>
        -2.3273389041423798e-01 2.3756840825080872e-01</leafValues></_>
    <_>
      <internalNodes>
        0 -1 3540 -1631697899 1729899543 -1343999081 -1100453722
        -1611768060 -19941994 -1942982222 -1105148644</internalNodes>
      <leafValues>
        -2.2201322019100189e-01 2.4860180914402008e-01</leafValues></_>
    <_>
      <internalNodes>
        0 -1 1575 -1344538445 -110419653 1743675432 288287444 -550680758
        -905405528 911540922 -1065095021</internalNodes>
      <leafValues>
        -1.6607841849327087e-01 3.3678612112998962e-01</leafValues></_>
    <_>
      <internalNodes>
        0 -1 1744 -982673898 -1975801317 -307908560 842965910 -146828907
        -1975380002 2020510594 -104610889</internalNodes>
      <leafValues>
        -1.7730259895324707e-01 3.0550989508628845e-01</leafValues></_>
    <_>
      <internalNodes>
        0 -1 306 263734935 -1904057018 -562081866 1055571578 1441342724
        -675672283 -47242763 -460988767</internalNodes>
      <leafValues>
        -2.2497253119945526e-01 2.4878557026386261e-01</leafValues></_>
    <_>
      <internalNodes>
        0 -1 1152 -896867026 1527652553 -1174053790 2009846411
        -1911610248 2015363152 -460395602 1682022731</internalNodes>
      <leafValues>
        -2.5963500142097473e-01 2.1956783533096313e-01</leafValues></_>
    <_>
      <internalNodes>
        0 -1 221 -255548596 -1252618225 -787083080 -1828419214
        1365919201 1796753468 -997736053 1980080170</internalNodes>
      <leafValues>
        -2.7565333247184753e-01 1.9991122186183929e-01</leafValues></_>
    <_>
      <internalNodes>
        0 -1 3555 -1355117104 857767943 -535812839 -1117082891
        -1030990180 -1987428222 1689573594 -1237842907</internalNodes>
      <leafValues>
        -2.8731235861778259e-01 1.8938997387886047e-01</leafValues></_></weakClassifiers></stage5>
</opencv_storage>
