<?xml version="1.0"?>
<opencv_storage>
<stage18>
  <maxWeakCount>63</maxWeakCount>
  <stageThreshold>-5.9855395555496216e-01</stageThreshold>
  <weakClassifiers>
    <_>
      <internalNodes>
        0 -1 2601 72893700 1006071601 -358666968 723527976 297691136
        -1864389190 -1730007634 547546720</internalNodes>
      <leafValues>
        4.0303030610084534e-01 6.7740285396575928e-01</leafValues></_>
    <_>
      <internalNodes>
        0 -1 408 -248304544 -1082085504 499728218 -1646912598 884991917
        -1074115009 2140758812 1624296262</internalNodes>
      <leafValues>
        -1.0384297370910645e-01 2.6243442296981812e-01</leafValues></_>
    <_>
      <internalNodes>
        0 -1 3660 1309027584 1366210413 -531747042 -506976738 -904604348
        310459523 1063474620 552870160</internalNodes>
      <leafValues>
        -2.4860458076000214e-01 1.2934634089469910e-01</leafValues></_>
    <_>
      <internalNodes>
        0 -1 2041 1701833614 1393728138 -1777163224 -1159648774
        1390371015 -1870089547 2109970478 1421882916</internalNodes>
      <leafValues>
        -2.0367407798767090e-01 1.5297402441501617e-01</leafValues></_>
    <_>
      <internalNodes>
        0 -1 892 460580796 851365789 -1207935970 1930595144 -524520155
        1716525584 -351180024 547911754</internalNodes>
      <leafValues>
        -2.3077391088008881e-01 1.3890954852104187e-01</leafValues></_>
    <_>
      <internalNodes>
        0 -1 1783 36176388 206858574 -1589264803 -1491298398 268766005
        1801724613 -931894116 1774223154</internalNodes>
      <leafValues>
        -3.1000217795372009e-01 7.3147870600223541e-02</leafValues></_>
    <_>
      <internalNodes>
        0 -1 2259 1419949503 -1125205758 -1074410842 -1361132562
        -99816792 -2118376812 -375741008 -137351232</internalNodes>
      <leafValues>
        -1.4538837969303131e-01 2.1260115504264832e-01</leafValues></_>
    <_>
      <internalNodes>
        0 -1 182 1142969616 381476253 1151116736 1049664430 298193457
        139203791 1847919076 1902207570</internalNodes>
      <leafValues>
        -2.7409538626670837e-01 1.1980681121349335e-01</leafValues></_>
    <_>
      <internalNodes>
        0 -1 2500 -767499456 1100628573 -1050374478 -2027638263
        -306513643 -1073910047 -1576726706 1719017268</internalNodes>
      <leafValues>
        -2.0614109933376312e-01 1.5030936896800995e-01</leafValues></_>
    <_>
      <internalNodes>
        0 -1 3601 1196043636 1897097806 -2134605040 -1567272922
        1293400617 -2048132682 2002799620 1078053494</internalNodes>
      <leafValues>
        -2.1538366377353668e-01 1.4887151122093201e-01</leafValues></_>
    <_>
      <internalNodes>
        0 -1 391 -1467312351 378956964 1090552434 -1716873674 82767613
        1401061793 -978205780 1843751074</internalNodes>
      <leafValues>
        -1.8099345266819000e-01 1.7597135901451111e-01</leafValues></_>
    <_>
      <internalNodes>
        0 -1 373 287966164 219339449 1178615108 -1088419236 649211361
        1658088214 800719148 1685262940</internalNodes>
      <leafValues>
        -2.3172304034233093e-01 1.4335553348064423e-01</leafValues></_>
    <_>
      <internalNodes>
        0 -1 3024 -995878323 -50563687 -1741501442 1621960144 1155071678
        1378265568 -1228754373 -2068049888</internalNodes>
      <leafValues>
        -1.9155026972293854e-01 1.7762506008148193e-01</leafValues></_>
    <_>
      <internalNodes>
        0 -1 336 1265110817 -999761048 437604394 -1295596618 -181069479
        254976121 457259792 270572626</internalNodes>
      <leafValues>
        -2.6772028207778931e-01 1.2707599997520447e-01</leafValues></_>
    <_>
      <internalNodes>
        0 -1 2479 -1552381328 415781714 -1059824398 -1729132246
        1630828036 1734871482 1717129489 -2074605548</internalNodes>
      <leafValues>
        -2.5006276369094849e-01 1.3033336400985718e-01</leafValues></_>
    <_>
      <internalNodes>
        0 -1 2986 1388169282 268446277 1606549676 550773033 1940799188
        2050689169 -2055125999 543554064</internalNodes>
      <leafValues>
        -2.6374545693397522e-01 1.2644736468791962e-01</leafValues></_>
    <_>
      <internalNodes>
        0 -1 2408 -261624756 -1125978183 1989487217 -1962348402
        1567379893 532765174 -1244263016 -436946180</internalNodes>
      <leafValues>
        -1.6664770245552063e-01 2.0768068730831146e-01</leafValues></_>
    <_>
      <internalNodes>
        0 -1 1146 -1054685918 1482834165 1146904909 -1684076312
        2009159921 1653150654 356647180 1660184128</internalNodes>
      <leafValues>
        -2.2332970798015594e-01 1.5292078256607056e-01</leafValues></_>
    <_>
      <internalNodes>
        0 -1 3220 -420307361 2137309895 -34160661 664960954 2118071795
        -459907548 -690880229 -337414089</internalNodes>
      <leafValues>
        -1.2135886400938034e-01 2.8240606188774109e-01</leafValues></_>
    <_>
      <internalNodes>
        0 -1 109 -851367181 -252773789 -201868136 -566237551 1448558326
        -646041782 -1016111701 -152623997</internalNodes>
      <leafValues>
        -1.1215092986822128e-01 2.9382935166358948e-01</leafValues></_>
    <_>
      <internalNodes>
        0 -1 2603 1690984464 848884677 -339649302 773644288 -363408347
        1354791281 -996586151 1078033958</internalNodes>
      <leafValues>
        -2.7956047654151917e-01 1.2463209033012390e-01</leafValues></_>
    <_>
      <internalNodes>
        0 -1 3527 -149266595 381075048 499445694 -1343717940 1377134449
        225245113 -1477424456 -1934048666</internalNodes>
      <leafValues>
        -1.6108210384845734e-01 2.0921038091182709e-01</leafValues></_>
    <_>
      <internalNodes>
        0 -1 338 546048100 606061444 742470000 -457514326 1142176340
        1614117040 -1324808672 1417950320</internalNodes>
      <leafValues>
        -3.8452154397964478e-01 8.9186333119869232e-02</leafValues></_>
    <_>
      <internalNodes>
        0 -1 3941 1388298052 895858144 -1157763972 397454964 2047785998
        -1430782200 -1920518496 1156544799</internalNodes>
      <leafValues>
        -1.7154450714588165e-01 2.0106540620326996e-01</leafValues></_>
    <_>
      <internalNodes>
        0 -1 633 1080468852 -1138760992 1147357049 -1514559910
        1148897997 2120383297 579159160 -520323001</internalNodes>
      <leafValues>
        -1.7576046288013458e-01 1.9714948534965515e-01</leafValues></_>
    <_>
      <internalNodes>
        0 -1 2467 -745025565 413309015 -100777626 -1141056304 -229055739
        -407382226 -363570037 -1429232637</internalNodes>
      <leafValues>
        -1.2284964323043823e-01 2.7954459190368652e-01</leafValues></_>
    <_>
      <internalNodes>
        0 -1 177 1886644598 -717542220 767006231 -831743482 -783322641
        787420689 551822664 -1346034646</internalNodes>
      <leafValues>
        -1.5934593975543976e-01 2.1836692094802856e-01</leafValues></_>
    <_>
      <internalNodes>
        0 -1 527 -134615555 -1663065 -280900329 -1580993792 -652243219
        -602032399 -996469031 -1086349169</internalNodes>
      <leafValues>
        -8.8213220238685608e-02 3.9313477277755737e-01</leafValues></_>
    <_>
      <internalNodes>
        0 -1 2853 -925758971 1156359614 1107321002 -1925567050
        -915951868 -787381877 2022189956 -1412951408</internalNodes>
      <leafValues>
        -1.9994540512561798e-01 1.8208388984203339e-01</leafValues></_>
    <_>
      <internalNodes>
        0 -1 1638 1524296300 548676812 47104000 275515597 1282348999
        1476873272 -2064121692 1613763089</internalNodes>
      <leafValues>
        -2.9293155670166016e-01 1.2106551975011826e-01</leafValues></_>
    <_>
      <internalNodes>
        0 -1 361 47072420 -2133928084 -732229904 -398810360 -197829822
        3987490 606032640 607396182</internalNodes>
      <leafValues>
        -3.8477990031242371e-01 9.3494266271591187e-02</leafValues></_>
    <_>
      <internalNodes>
        0 -1 1760 -1696198307 -1644820035 1395182302 -1121276996
        -24049443 -624823618 -576819335 -241036362</internalNodes>
      <leafValues>
        -1.4308020472526550e-01 2.5793924927711487e-01</leafValues></_>
    <_>
      <internalNodes>
        0 -1 1055 -57191469 876409613 52294211 -1188252894 2081407087
        -207649730 223619914 -294820630</internalNodes>
      <leafValues>
        -1.2884779274463654e-01 2.7969160676002502e-01</leafValues></_>
    <_>
      <internalNodes>
        0 -1 1832 -590348291 487980667 -336792009 -190484675 134943903
        -1225826358 587167987 -134225905</internalNodes>
      <leafValues>
        -8.5564419627189636e-02 4.0520590543746948e-01</leafValues></_>
    <_>
      <internalNodes>
        0 -1 452 -1173875615 -160131338 -2134867842 362231816 1769506748
        -1434409436 25371500 161497120</internalNodes>
      <leafValues>
        -2.7811515331268311e-01 1.3365823030471802e-01</leafValues></_>
    <_>
      <internalNodes>
        0 -1 2832 1884256348 -634439058 -1884209245 -1613319968
        933291685 892077499 -746454791 -269840464</internalNodes>
      <leafValues>
        -1.4500840008258820e-01 2.4738052487373352e-01</leafValues></_>
    <_>
      <internalNodes>
        0 -1 2313 -1381889504 1078466445 -465041024 -491745396
        1711857920 551815629 -240907760 1080185764</internalNodes>
      <leafValues>
        -3.7996819615364075e-01 9.7157634794712067e-02</leafValues></_>
    <_>
      <internalNodes>
        0 -1 437 574655000 -1694172946 81532952 147947982 1359586244
        278720704 -2000338600 1452089407</internalNodes>
      <leafValues>
        -2.5840684771537781e-01 1.3799597322940826e-01</leafValues></_>
    <_>
      <internalNodes>
        0 -1 2337 1212449826 -126558163 -552893797 -1550543365
        1666568320 1874533475 1297621165 1622486096</internalNodes>
      <leafValues>
        -2.2996719181537628e-01 1.5809312462806702e-01</leafValues></_>
    <_>
      <internalNodes>
        0 -1 83 -961595819 1676865330 770743157 535810338 -1458940483
        2029970444 1048575276 1580008503</internalNodes>
      <leafValues>
        -1.7748326063156128e-01 2.0665115118026733e-01</leafValues></_>
    <_>
      <internalNodes>
        0 -1 1170 1754278022 604280032 -1792366020 725806356 8598573
        974301309 1654412128 1626152970</internalNodes>
      <leafValues>
        -2.9802006483078003e-01 1.2441975623369217e-01</leafValues></_>
    <_>
      <internalNodes>
        0 -1 3454 -50014211 -152967235 -1297255052 -979037689 -967209475
        -1365129089 -955338550 -46399750</internalNodes>
      <leafValues>
        -1.0064476728439331e-01 3.8303419947624207e-01</leafValues></_>
    <_>
      <internalNodes>
        0 -1 1708 -579982874 1729732674 -971964240 368370177 -972729199
        -77359588 -490136568 1928613204</internalNodes>
      <leafValues>
        -2.2229643166065216e-01 1.7227588593959808e-01</leafValues></_>
    <_>
      <internalNodes>
        0 -1 2177 -764578207 1682212754 806782074 -440426060 1404894929
        317679085 -1762046674 -2035961326</internalNodes>
      <leafValues>
        -1.6533565521240234e-01 2.2418120503425598e-01</leafValues></_>
    <_>
      <internalNodes>
        0 -1 1606 1173154146 697575354 100879590 -2101765363 1288056647
        1950388728 1018527833 1688770832</internalNodes>
      <leafValues>
        -2.6108172535896301e-01 1.4415664970874786e-01</leafValues></_>
    <_>
      <internalNodes>
        0 -1 2824 -876466644 -195535595 1123582980 -1809919430
        -417330393 -410709643 -367349147 1087726704</internalNodes>
      <leafValues>
        -2.6670956611633301e-01 1.4116322994232178e-01</leafValues></_>
    <_>
      <internalNodes>
        0 -1 3579 -1540663750 467912585 -1519004044 -1010959814
        -193936384 -37054729 -990674246 -525167638</internalNodes>
      <leafValues>
        -1.7057384550571442e-01 2.1704404056072235e-01</leafValues></_>
    <_>
      <internalNodes>
        0 -1 1675 -192242079 -1682796866 1862250473 -794064910
        -1001489020 -1770285503 -348695511 -2016813554</internalNodes>
      <leafValues>
        -1.4687000215053558e-01 2.5439867377281189e-01</leafValues></_>
    <_>
      <internalNodes>
        0 -1 3963 -1096342503 411837278 -252432040 332661025 850772040
        13107959 -1526389816 1087140924</internalNodes>
      <leafValues>
        -2.4933481216430664e-01 1.5801431238651276e-01</leafValues></_>
    <_>
      <internalNodes>
        0 -1 1746 -1348762231 1993059684 245968908 125748555 1884242096
        943982513 1638443289 -1918505030</internalNodes>
      <leafValues>
        -1.7175927758216858e-01 2.1753987669944763e-01</leafValues></_>
    <_>
      <internalNodes>
        0 -1 3761 -94971980 813189914 394628866 632197668 1674449136
        166339266 -1650513381 1348313602</internalNodes>
      <leafValues>
        -2.0818722248077393e-01 1.8002733588218689e-01</leafValues></_>
    <_>
      <internalNodes>
        0 -1 485 -1000135449 2129781097 389887419 -1411696793 -369909327
        2133570555 1100500462 -157311249</internalNodes>
      <leafValues>
        -1.0526002943515778e-01 3.5368457436561584e-01</leafValues></_>
    <_>
      <internalNodes>
        0 -1 2783 -505458197 2069994007 95037651 -4661585 -952658439
        -11026011 -112350022 -397709189</internalNodes>
      <leafValues>
        -1.0068637877702713e-01 3.6070746183395386e-01</leafValues></_>
    <_>
      <internalNodes>
        0 -1 3744 -934803968 -1792388724 -1836395844 1263333968
        -346707607 280438861 1367029824 645148232</internalNodes>
      <leafValues>
        -2.8885918855667114e-01 1.3800472021102905e-01</leafValues></_>
    <_>
      <internalNodes>
        0 -1 1866 -359859361 359761934 653406474 -93093266 -69212177
        -236665455 -1342836255 -321004547</internalNodes>
      <leafValues>
        -1.2011469155550003e-01 3.1858679652214050e-01</leafValues></_>
    <_>
      <internalNodes>
        0 -1 827 -1453251312 1457095349 -1313294000 1087341371
        1301152194 1624487908 486916934 828661950</internalNodes>
      <leafValues>
        -2.6779258251190186e-01 1.4660508930683136e-01</leafValues></_>
    <_>
      <internalNodes>
        0 -1 2638 -1103453528 420076827 -1389444578 -1465875069
        1731585408 -1314902941 -338923825 96215048</internalNodes>
      <leafValues>
        -2.3693726956844330e-01 1.6076841950416565e-01</leafValues></_>
    <_>
      <internalNodes>
        0 -1 313 -900763779 1551943087 -808132742 -525374418 -2055530843
        -20691171 -186039456 -1244149990</internalNodes>
      <leafValues>
        -1.7234534025192261e-01 2.3395524919033051e-01</leafValues></_>
    <_>
      <internalNodes>
        0 -1 3119 -600989687 894909703 1963569337 -1618405242 1454851173
        857505 -446152250 1487823472</internalNodes>
      <leafValues>
        -2.0084269344806671e-01 1.8872877955436707e-01</leafValues></_>
    <_>
      <internalNodes>
        0 -1 3018 2105276283 1826144120 -1220566092 -144608051
        -268190512 1001735343 1340871817 -1075342100</internalNodes>
      <leafValues>
        -1.2674172222614288e-01 2.9640987515449524e-01</leafValues></_>
    <_>
      <internalNodes>
        0 -1 1134 -1123510281 1978828749 -381943915 -237594218
        -564166725 174893034 -1486802039 -1517424464</internalNodes>
      <leafValues>
        -1.3642728328704834e-01 2.7696293592453003e-01</leafValues></_>
    <_>
      <internalNodes>
        0 -1 2529 -489985210 -2119880509 -1601424510 2000579713
        324338384 544535610 -506385008 541547760</internalNodes>
      <leafValues>
        -2.6854839920997620e-01 1.4091560244560242e-01</leafValues></_>
    <_>
      <internalNodes>
        0 -1 3349 1786571835 -1773913369 1798938620 1124530418
        -718322469 -661799565 144399690 -1052229945</internalNodes>
      <leafValues>
        -1.6410595178604126e-01 2.5299492478370667e-01</leafValues></_></weakClassifiers></stage18>
</opencv_storage>
