<?xml version="1.0"?>
<opencv_storage>
<stage3>
  <maxWeakCount>54</maxWeakCount>
  <stageThreshold>-7.7790600061416626e-01</stageThreshold>
  <weakClassifiers>
    <_>
      <internalNodes>
        0 -1 413 1564516480 1368633052 -204422784 -148137239 -723978261
        365191520 -1892568373 1355113155</internalNodes>
      <leafValues>
        3.5107985138893127e-01 7.3256790637969971e-01</leafValues></_>
    <_>
      <internalNodes>
        0 -1 788 -200988156 -105618033 1402929925 -539018561 -77226502
        834733764 -1134039121 100638395</internalNodes>
      <leafValues>
        -1.0478119552135468e-01 3.8070282340049744e-01</leafValues></_>
    <_>
      <internalNodes>
        0 -1 737 268444448 836217239 1836329310 1901887706 121962975
        826361240 1086008831 1404634222</internalNodes>
      <leafValues>
        -2.4698843061923981e-01 2.2038018703460693e-01</leafValues></_>
    <_>
      <internalNodes>
        0 -1 10 -288430969 -1535539189 1920833653 -1446788437 -978905781
        -780019373 -170474079 -412650633</internalNodes>
      <leafValues>
        -1.4205576479434967e-01 3.2991170883178711e-01</leafValues></_>
    <_>
      <internalNodes>
        0 -1 786 135341568 -1646574314 -1966368417 -1122383539 423698678
        -292878278 -351298644 553419493</internalNodes>
      <leafValues>
        -2.3136144876480103e-01 1.7010360956192017e-01</leafValues></_>
    <_>
      <internalNodes>
        0 -1 2746 -512427068 13985257 1343918100 -2116353569 1210209501
        713895945 81732008 27748327</internalNodes>
      <leafValues>
        -2.3328292369842529e-01 1.7646189033985138e-01</leafValues></_>
    <_>
      <internalNodes>
        0 -1 3675 -1010319344 -1865288705 926786919 -95814655 -157938799
        41006789 -278691643 -1594888141</internalNodes>
      <leafValues>
        -1.4798444509506226e-01 2.6624816656112671e-01</leafValues></_>
    <_>
      <internalNodes>
        0 -1 1128 791675229 -1228003959 906876885 -1956216705 353794737
        107814955 512785754 -5500776</internalNodes>
      <leafValues>
        -2.0606698095798492e-01 1.9794218242168427e-01</leafValues></_>
    <_>
      <internalNodes>
        0 -1 257 -453398880 -1343044606 -988749792 -1019038894
        1700152224 923824401 1272278025 1664549427</internalNodes>
      <leafValues>
        -2.2373719513416290e-01 1.7495001852512360e-01</leafValues></_>
    <_>
      <internalNodes>
        0 -1 3661 68363296 1438842795 1221045017 -434456777 832112662
        1463539884 -66082748 812124770</internalNodes>
      <leafValues>
        -2.9437711834907532e-01 1.3000278174877167e-01</leafValues></_>
    <_>
      <internalNodes>
        0 -1 3526 530584785 -1801700200 -146894920 -1149432087
        1032854073 -2021704199 1435647369 -1611787096</internalNodes>
      <leafValues>
        -1.8501128256320953e-01 2.1413120627403259e-01</leafValues></_>
    <_>
      <internalNodes>
        0 -1 27 494305926 79004121 -1009969376 17693846 973648355
        1365516352 -1055937960 1963149351</internalNodes>
      <leafValues>
        -2.2847816348075867e-01 1.7212145030498505e-01</leafValues></_>
    <_>
      <internalNodes>
        0 -1 385 -1608213372 -1912030825 -483560510 -652406970
        -1588028685 31132642 -86421007 1991975080</internalNodes>
      <leafValues>
        -2.1480660140514374e-01 1.7980793118476868e-01</leafValues></_>
    <_>
      <internalNodes>
        0 -1 643 -766903746 1355145189 -1067187738 63942670 1187948737
        -1708616534 720576493 1273481834</internalNodes>
      <leafValues>
        -1.7277841269969940e-01 2.2884082794189453e-01</leafValues></_>
    <_>
      <internalNodes>
        0 -1 3779 692062998 147378225 -1115549526 760481742 -1724718921
        1673205521 152424700 486475984</internalNodes>
      <leafValues>
        -2.3952569067478180e-01 1.6356109082698822e-01</leafValues></_>
    <_>
      <internalNodes>
        0 -1 1703 1241753638 1501585836 1361183364 -1513617854 -12215823
        270277568 -486318472 1188464290</internalNodes>
      <leafValues>
        -2.4229536950588226e-01 1.5725019574165344e-01</leafValues></_>
    <_>
      <internalNodes>
        0 -1 3841 -1993320815 -1362870929 -686435320 -1766765148
        -1478119420 38769851 -76895515 -1292824151</internalNodes>
      <leafValues>
        -1.9283436238765717e-01 2.0188307762145996e-01</leafValues></_>
    <_>
      <internalNodes>
        0 -1 2836 -1280949440 1183658915 -216546415 -141261857
        1569245756 -1818505014 -232777612 -1426181598</internalNodes>
      <leafValues>
        -2.0693543553352356e-01 1.8733143806457520e-01</leafValues></_>
    <_>
      <internalNodes>
        0 -1 709 -164647166 1988852837 -1933633832 -1177796686 893668053
        -243147490 -522741716 -1749555842</internalNodes>
      <leafValues>
        -1.7673659324645996e-01 2.2615867853164673e-01</leafValues></_>
    <_>
      <internalNodes>
        0 -1 222 412397472 -1601922302 2040932480 1958406184 -1269275886
        644604017 2106850596 928113185</internalNodes>
      <leafValues>
        -2.8483745455741882e-01 1.3977579772472382e-01</leafValues></_>
    <_>
      <internalNodes>
        0 -1 2831 869035300 620570839 1360715728 -1682405182 -872554479
        -610370687 -1042630507 1073230317</internalNodes>
      <leafValues>
        -2.3007653653621674e-01 1.7301271855831146e-01</leafValues></_>
    <_>
      <internalNodes>
        0 -1 2958 -359397215 -190826082 422711645 -1149493056 -691226627
        -1810857185 1594119956 -67203651</internalNodes>
      <leafValues>
        -1.5554443001747131e-01 2.6072937250137329e-01</leafValues></_>
    <_>
      <internalNodes>
        0 -1 2095 1268511979 1379698155 459397516 -375791323 287679488
        -2081366814 1208870286 2129627727</internalNodes>
      <leafValues>
        -1.3081598281860352e-01 3.1883695721626282e-01</leafValues></_>
    <_>
      <internalNodes>
        0 -1 3018 -431164680 654060029 -1271647266 -1571639835
        -669731679 839725294 -1075664740 -1098982180</internalNodes>
      <leafValues>
        -1.8062806129455566e-01 2.2251915931701660e-01</leafValues></_>
    <_>
      <internalNodes>
        0 -1 71 1331689494 -84704517 1459618372 -1257629163 -254437388
        -2012446323 1978595613 1617003063</internalNodes>
      <leafValues>
        -2.0144936442375183e-01 2.0212870836257935e-01</leafValues></_>
    <_>
      <internalNodes>
        0 -1 2763 1379964677 -189043310 491378606 -590402032 715109428
        918361839 -73429643 -1745471240</internalNodes>
      <leafValues>
        -1.7481189966201782e-01 2.3302726447582245e-01</leafValues></_>
    <_>
      <internalNodes>
        0 -1 2460 1646293534 2090383024 1100022096 -1312669016
        -2102037620 -1258043117 184829980 545239554</internalNodes>
      <leafValues>
        -2.4571642279624939e-01 1.6877132654190063e-01</leafValues></_>
    <_>
      <internalNodes>
        0 -1 1949 471515223 -337168014 1730699139 2103984914 -843525760
        -1292034196 -1295911805 -542965858</internalNodes>
      <leafValues>
        -1.3939779996871948e-01 2.9906168580055237e-01</leafValues></_>
    <_>
      <internalNodes>
        0 -1 6 135006500 1965241569 -570481315 -617889591 -250801729
        -892038 -36284305 -257211</internalNodes>
      <leafValues>
        -1.4825174212455750e-01 2.6949739456176758e-01</leafValues></_>
    <_>
      <internalNodes>
        0 -1 350 232653856 642785950 328921934 -559010388 1712956003
        1694753330 -168531356 1739711058</internalNodes>
      <leafValues>
        -3.0474239587783813e-01 1.3535211980342865e-01</leafValues></_>
    <_>
      <internalNodes>
        0 -1 3743 1452001540 32302239 -255735723 -1817620286 1468923938
        4724887 1335798484 14932039</internalNodes>
      <leafValues>
        -2.1372020244598389e-01 1.9522035121917725e-01</leafValues></_>
    <_>
      <internalNodes>
        0 -1 3654 1325536737 -841251469 -619873577 -48496753 2141985831
        -568609027 -626790813 -1079497784</internalNodes>
      <leafValues>
        -1.6355472803115845e-01 2.6323735713958740e-01</leafValues></_>
    <_>
      <internalNodes>
        0 -1 3060 -1129222887 -583401354 -2060341004 -455896307
        1324927401 -1493923231 -1109754445 -1143214929</internalNodes>
      <leafValues>
        -1.2700465321540833e-01 3.1670129299163818e-01</leafValues></_>
    <_>
      <internalNodes>
        0 -1 906 -149705738 578836671 1303118338 1176741898 1410700759
        860381769 -487373479 1742956299</internalNodes>
      <leafValues>
        -1.8719200789928436e-01 2.2073289752006531e-01</leafValues></_>
    <_>
      <internalNodes>
        0 -1 3803 -222022573 -1069557912 -1738005212 -173497251
        -621428732 1406589814 -234704335 -90151842</internalNodes>
      <leafValues>
        -1.8139044940471649e-01 2.3421369493007660e-01</leafValues></_>
    <_>
      <internalNodes>
        0 -1 2485 143712516 1921825809 -519903070 1704285977 1061806699
        1561909566 -860843789 45953568</internalNodes>
      <leafValues>
        -2.5907209515571594e-01 1.6525627672672272e-01</leafValues></_>
    <_>
      <internalNodes>
        0 -1 2607 -2131710912 954640 709011317 -100794276 1095298548
        2079851154 586752945 -1087632828</internalNodes>
      <leafValues>
        -2.4262221157550812e-01 1.7147557437419891e-01</leafValues></_>
    <_>
      <internalNodes>
        0 -1 3929 1381027597 -2098045867 -1743682654 1112830474
        842904416 1452507153 994271763 -186957280</internalNodes>
      <leafValues>
        -2.1557836234569550e-01 1.9412373006343842e-01</leafValues></_>
    <_>
      <internalNodes>
        0 -1 2527 -2066952700 1162486817 1163102830 1794284384 775487557
        1175833931 1248709920 47232770</internalNodes>
      <leafValues>
        -3.2163920998573303e-01 1.2871678173542023e-01</leafValues></_>
    <_>
      <internalNodes>
        0 -1 31 853789271 -1817363397 -1418024433 622308777 -308174087
        1720053524 -20570469 533734762</internalNodes>
      <leafValues>
        -1.4854155480861664e-01 2.8283846378326416e-01</leafValues></_>
    <_>
      <internalNodes>
        0 -1 3135 -1670331695 -28124656 959683100 -206145564 -1336679530
        -1633235609 -912409194 -171202915</internalNodes>
      <leafValues>
        -1.3167607784271240e-01 3.1081071496009827e-01</leafValues></_>
    <_>
      <internalNodes>
        0 -1 3280 -34351585 557246552 875301094 -1107976064 -1201297473
        53008277 -1533511795 -432020037</internalNodes>
      <leafValues>
        -1.2378163635730743e-01 3.3544412255287170e-01</leafValues></_>
    <_>
      <internalNodes>
        0 -1 1479 -2038677806 1287656898 -2042909625 2095452030
        1047734467 -2097616698 -1472746123 -85081959</internalNodes>
      <leafValues>
        -1.8579779565334320e-01 2.2998155653476715e-01</leafValues></_>
    <_>
      <internalNodes>
        0 -1 619 1944440815 1558026228 -1054867251 -79694878 1920396047
        1779215983 1714506667 -607002717</internalNodes>
      <leafValues>
        -1.2547731399536133e-01 3.4935319423675537e-01</leafValues></_>
    <_>
      <internalNodes>
        0 -1 2535 340299813 -1899411662 -1847962640 1927547868
        -1340917648 -1858067852 -1987759136 -823099848</internalNodes>
      <leafValues>
        -2.3283296823501587e-01 1.8449346721172333e-01</leafValues></_>
    <_>
      <internalNodes>
        0 -1 325 1776153983 -545211551 -320786500 -335745816 1242987831
        1459379325 1941438385 -1214838861</internalNodes>
      <leafValues>
        -1.4477612078189850e-01 3.0336594581604004e-01</leafValues></_>
    <_>
      <internalNodes>
        0 -1 104 -702108954 -1009284853 1845823917 -720289131 -868180769
        -209805935 -1334598295 1931038479</internalNodes>
      <leafValues>
        -1.7319242656230927e-01 2.4917361140251160e-01</leafValues></_>
    <_>
      <internalNodes>
        0 -1 1643 1375998887 -1577810316 -1269738936 -1099632638
        -888874583 -148647927 1502586024 4685101</internalNodes>
      <leafValues>
        -2.2224834561347961e-01 2.0260734856128693e-01</leafValues></_>
    <_>
      <internalNodes>
        0 -1 1912 -482614509 1168564471 -269123865 -476332237 -180055447
        -1914978858 -448176223 -450631537</internalNodes>
      <leafValues>
        -1.1363587528467178e-01 3.9299395680427551e-01</leafValues></_>
    <_>
      <internalNodes>
        0 -1 1726 -262884984 879789997 -261351045 -1220599577 -728798507
        -2023541522 -1043373410 -1746162525</internalNodes>
      <leafValues>
        -1.5071590244770050e-01 2.8977423906326294e-01</leafValues></_>
    <_>
      <internalNodes>
        0 -1 2568 724527833 314644422 -1109252714 -1617943721
        -2068792405 -2130512055 -1410484834 2113786902</internalNodes>
      <leafValues>
        -1.6046245396137238e-01 2.7557244896888733e-01</leafValues></_>
    <_>
      <internalNodes>
        0 -1 2732 306764064 1685325444 279908669 -1947061476 -338657416
        -1194160031 -591527803 258575700</internalNodes>
      <leafValues>
        -2.7218392491340637e-01 1.6438484191894531e-01</leafValues></_>
    <_>
      <internalNodes>
        0 -1 1660 1750861672 -506840898 -251618120 -796756834 810032384
        1122013833 627253337 1022642211</internalNodes>
      <leafValues>
        -2.8904774785041809e-01 1.5344908833503723e-01</leafValues></_>
    <_>
      <internalNodes>
        0 -1 1176 -1049711575 905701466 1110794990 -1824739782
        -629640205 -1263714841 331316523 -1548452917</internalNodes>
      <leafValues>
        -1.6945166885852814e-01 2.5214624404907227e-01</leafValues></_></weakClassifiers></stage3>
</opencv_storage>
