<?xml version="1.0"?>
<opencv_storage>
<cascade>
  <stageType>BOOST</stageType>
  <featureType>HOG</featureType>
  <height>20</height>
  <width>20</width>
  <stageParams>
    <boostType>GAB</boostType>
    <minHitRate>9.9900001287460327e-01</minHitRate>
    <maxFalseAlarm>5.0000000000000000e-01</maxFalseAlarm>
    <weightTrimRate>9.4999999999999996e-01</weightTrimRate>
    <maxDepth>1</maxDepth>
    <maxWeakCount>100</maxWeakCount></stageParams>
  <featureParams>
    <maxCatCount>0</maxCatCount>
    <featSize>36</featSize></featureParams>
  <stageNum>20</stageNum>
  <stages>
    <!-- stage 0 -->
    <_>
      <maxWeakCount>9</maxWeakCount>
      <stageThreshold>-2.0084156990051270e+00</stageThreshold>
      <weakClassifiers>
        <_>
          <internalNodes>
            0 -1 2 2.0515371114015579e-02</internalNodes>
          <leafValues>
            -7.8034681081771851e-01 2.5944584608078003e-01</leafValues></_>
        <_>
          <internalNodes>
            0 -1 75 1.7149843275547028e-02</internalNodes>
          <leafValues>
            -8.5164946317672729e-01 2.0851448178291321e-01</leafValues></_>
        <_>
          <internalNodes>
            0 -1 86 1.9673980772495270e-02</internalNodes>
          <leafValues>
            -5.8597868680953979e-01 2.6545622944831848e-01</leafValues></_>
        <_>
          <internalNodes>
            0 -1 63 1.2960771098732948e-02</internalNodes>
          <leafValues>
            -4.4587874412536621e-01 2.1518245339393616e-01</leafValues></_>
        <_>
          <internalNodes>
            0 -1 53 4.4790521264076233e-02</internalNodes>
          <leafValues>
            1.2917470932006836e-01 -7.8584259748458862e-01</leafValues></_>
        <_>
          <internalNodes>
            0 -1 100 4.8380240797996521e-02</internalNodes>
          <leafValues>
            -1.0395646840333939e-01 7.6308673620223999e-01</leafValues></_>
        <_>
          <internalNodes>
            0 -1 1 9.5171034336090088e-03</internalNodes>
          <leafValues>
            -5.2414470911026001e-01 1.2162463366985321e-01</leafValues></_>
        <_>
          <internalNodes>
            0 -1 87 1.2044316157698631e-02</internalNodes>
          <leafValues>
            -3.8538721203804016e-01 1.3780909776687622e-01</leafValues></_>
        <_>
          <internalNodes>
            0 -1 115 2.2639114409685135e-02</internalNodes>
          <leafValues>
            1.6512039303779602e-01 -3.5616174340248108e-01</leafValues></_></weakClassifiers></_>
    <!-- stage 1 -->
    <_>
      <maxWeakCount>33</maxWeakCount>
      <stageThreshold>-1.5285741090774536e+00</stageThreshold>
      <weakClassifiers>
        <_>
          <internalNodes>
            0 -1 75 2.9533337801694870e-02</internalNodes>
          <leafValues>
            -7.1253073215484619e-01 -2.3575639352202415e-02</leafValues></_>
        <_>
          <internalNodes>
            0 -1 86 2.8721705079078674e-02</internalNodes>
          <leafValues>
            -3.9766669273376465e-01 3.0000662803649902e-01</leafValues></_>
        <_>
          <internalNodes>
            0 -1 2 3.8690030574798584e-02</internalNodes>
          <leafValues>
            -2.1602216362953186e-01 4.0432217717170715e-01</leafValues></_>
        <_>
          <internalNodes>
            0 -1 75 1.3405004516243935e-02</internalNodes>
          <leafValues>
            -6.6462624073028564e-01 8.3507597446441650e-02</leafValues></_>
        <_>
          <internalNodes>
            0 -1 26 8.7666856124997139e-03</internalNodes>
          <leafValues>
            -4.4853568077087402e-01 1.6775517165660858e-01</leafValues></_>
        <_>
          <internalNodes>
            0 -1 46 2.1450754255056381e-02</internalNodes>
          <leafValues>
            1.6293072700500488e-01 -3.1411501765251160e-01</leafValues></_>
        <_>
          <internalNodes>
            0 -1 100 2.8361756354570389e-02</internalNodes>
          <leafValues>
            -1.6337718069553375e-01 3.3218160271644592e-01</leafValues></_>
        <_>
          <internalNodes>
            0 -1 0 1.7910048365592957e-02</internalNodes>
          <leafValues>
            -2.3110681772232056e-01 2.1022148430347443e-01</leafValues></_>
        <_>
          <internalNodes>
            0 -1 87 1.4758117496967316e-02</internalNodes>
          <leafValues>
            -2.5055444240570068e-01 1.3390916585922241e-01</leafValues></_>
        <_>
          <internalNodes>
            0 -1 120 4.2439363896846771e-02</internalNodes>
          <leafValues>
            -1.6386240720748901e-01 2.5764152407646179e-01</leafValues></_>
        <_>
          <internalNodes>
            0 -1 4 1.0194589197635651e-01</internalNodes>
          <leafValues>
            5.0700038671493530e-02 -5.7738822698593140e-01</leafValues></_>
        <_>
          <internalNodes>
            0 -1 109 4.6794377267360687e-03</internalNodes>
          <leafValues>
            4.8065817356109619e-01 -8.4845572710037231e-02</leafValues></_>
        <_>
          <internalNodes>
            0 -1 1 1.4514167793095112e-02</internalNodes>
          <leafValues>
            -3.0516460537910461e-01 1.1366239190101624e-01</leafValues></_>
        <_>
          <internalNodes>
            0 -1 17 4.3595042079687119e-02</internalNodes>
          <leafValues>
            4.8771608620882034e-02 -5.8405965566635132e-01</leafValues></_>
        <_>
          <internalNodes>
            0 -1 137 1.4196578413248062e-02</internalNodes>
          <leafValues>
            2.3917040228843689e-01 -1.5120626986026764e-01</leafValues></_>
        <_>
          <internalNodes>
            0 -1 107 9.5950989052653313e-03</internalNodes>
          <leafValues>
            -3.0281984806060791e-01 1.0904190689325333e-01</leafValues></_>
        <_>
          <internalNodes>
            0 -1 52 1.4481764286756516e-02</internalNodes>
          <leafValues>
            1.7394764721393585e-01 -2.0937299728393555e-01</leafValues></_>
        <_>
          <internalNodes>
            0 -1 39 7.7559594064950943e-03</internalNodes>
          <leafValues>
            -8.0395185947418213e-01 4.0428906679153442e-02</leafValues></_>
        <_>
          <internalNodes>
            0 -1 32 3.4603388048708439e-03</internalNodes>
          <leafValues>
            6.0155928134918213e-01 -4.8396948724985123e-02</leafValues></_>
        <_>
          <internalNodes>
            0 -1 124 1.0185864754021168e-02</internalNodes>
          <leafValues>
            -2.5258606672286987e-01 1.1938113719224930e-01</leafValues></_>
        <_>
          <internalNodes>
            0 -1 13 2.1319199353456497e-02</internalNodes>
          <leafValues>
            -4.3343669176101685e-01 7.0505179464817047e-02</leafValues></_>
        <_>
          <internalNodes>
            0 -1 19 1.8325719283893704e-03</internalNodes>
          <leafValues>
            6.8739002943038940e-01 -4.1667934507131577e-02</leafValues></_>
        <_>
          <internalNodes>
            0 -1 127 2.1992539986968040e-02</internalNodes>
          <leafValues>
            -1.5904279053211212e-01 1.7046177387237549e-01</leafValues></_>
        <_>
          <internalNodes>
            0 -1 69 6.0343861579895020e-02</internalNodes>
          <leafValues>
            -4.2650990188121796e-02 6.1894112825393677e-01</leafValues></_>
        <_>
          <internalNodes>
            0 -1 30 4.3230563402175903e-02</internalNodes>
          <leafValues>
            -9.8634622991085052e-02 2.5594410300254822e-01</leafValues></_>
        <_>
          <internalNodes>
            0 -1 3 4.9769796431064606e-02</internalNodes>
          <leafValues>
            -1.2570953369140625e-01 2.0670211315155029e-01</leafValues></_>
        <_>
          <internalNodes>
            0 -1 73 2.4120897054672241e-02</internalNodes>
          <leafValues>
            -1.6740514338016510e-01 1.8195579946041107e-01</leafValues></_>
        <_>
          <internalNodes>
            0 -1 109 1.4217179268598557e-02</internalNodes>
          <leafValues>
            2.1221658587455750e-01 -1.3630674779415131e-01</leafValues></_>
        <_>
          <internalNodes>
            0 -1 121 1.0185955464839935e-01</internalNodes>
          <leafValues>
            4.9773827195167542e-02 -5.6355345249176025e-01</leafValues></_>
        <_>
          <internalNodes>
            0 -1 14 2.4601422250270844e-02</internalNodes>
          <leafValues>
            -2.0437975227832794e-01 1.4798326790332794e-01</leafValues></_>
        <_>
          <internalNodes>
            0 -1 84 8.0778539180755615e-02</internalNodes>
          <leafValues>
            5.4703392088413239e-02 -4.3457826972007751e-01</leafValues></_>
        <_>
          <internalNodes>
            0 -1 23 1.3196364976465702e-02</internalNodes>
          <leafValues>
            2.3045626282691956e-01 -1.0667382180690765e-01</leafValues></_>
        <_>
          <internalNodes>
            0 -1 57 3.1933221966028214e-02</internalNodes>
          <leafValues>
            -1.3645556569099426e-01 1.8603561818599701e-01</leafValues></_></weakClassifiers></_>
    <!-- stage 2 -->
    <_>
      <maxWeakCount>69</maxWeakCount>
      <stageThreshold>-1.4594049453735352e+00</stageThreshold>
      <weakClassifiers>
        <_>
          <internalNodes>
            0 -1 86 3.9546579122543335e-02</internalNodes>
          <leafValues>
            -4.7760060429573059e-01 4.8543687909841537e-02</leafValues></_>
        <_>
          <internalNodes>
            0 -1 53 9.9590346217155457e-03</internalNodes>
          <leafValues>
            2.7517229318618774e-01 -2.1654006838798523e-01</leafValues></_>
        <_>
          <internalNodes>
            0 -1 64 3.6611527204513550e-02</internalNodes>
          <leafValues>
            -1.1280526220798492e-01 3.7573993206024170e-01</leafValues></_>
        <_>
          <internalNodes>
            0 -1 1 4.8040315508842468e-02</internalNodes>
          <leafValues>
            -9.0451501309871674e-02 4.5015567541122437e-01</leafValues></_>
        <_>
          <internalNodes>
            0 -1 3 4.8289779573678970e-02</internalNodes>
          <leafValues>
            -1.7345169186592102e-01 2.4271734058856964e-01</leafValues></_>
        <_>
          <internalNodes>
            0 -1 92 1.5288471244275570e-02</internalNodes>
          <leafValues>
            2.2988343238830566e-01 -1.3680142164230347e-01</leafValues></_>
        <_>
          <internalNodes>
            0 -1 125 4.6214256435632706e-03</internalNodes>
          <leafValues>
            -4.1423895955085754e-01 1.1557400971651077e-01</leafValues></_>
        <_>
          <internalNodes>
            0 -1 12 2.0503398030996323e-02</internalNodes>
          <leafValues>
            -3.7447291612625122e-01 4.8233237117528915e-02</leafValues></_>
        <_>
          <internalNodes>
            0 -1 46 1.0312784463167191e-02</internalNodes>
          <leafValues>
            2.6760312914848328e-01 -9.5103174448013306e-02</leafValues></_>
        <_>
          <internalNodes>
            0 -1 55 5.0260394811630249e-02</internalNodes>
          <leafValues>
            -6.5903447568416595e-02 4.7028869390487671e-01</leafValues></_>
        <_>
          <internalNodes>
            0 -1 87 1.5014478936791420e-02</internalNodes>
          <leafValues>
            -2.4597395956516266e-01 1.1227764189243317e-01</leafValues></_>
        <_>
          <internalNodes>
            0 -1 53 4.5339312404394150e-02</internalNodes>
          <leafValues>
            4.9876306205987930e-02 -6.4112269878387451e-01</leafValues></_>
        <_>
          <internalNodes>
            0 -1 2 1.9050385802984238e-02</internalNodes>
          <leafValues>
            -3.1185361742973328e-01 8.9621193706989288e-02</leafValues></_>
        <_>
          <internalNodes>
            0 -1 63 2.8651650995016098e-02</internalNodes>
          <leafValues>
            -1.0925488919019699e-01 2.4086044728755951e-01</leafValues></_>
        <_>
          <internalNodes>
            0 -1 69 3.9432391524314880e-02</internalNodes>
          <leafValues>
            -8.5142455995082855e-02 3.7777394056320190e-01</leafValues></_>
        <_>
          <internalNodes>
            0 -1 93 2.2936454042792320e-02</internalNodes>
          <leafValues>
            -1.9984623789787292e-01 1.2565435469150543e-01</leafValues></_>
        <_>
          <internalNodes>
            0 -1 137 1.5744237229228020e-02</internalNodes>
          <leafValues>
            1.9334374368190765e-01 -1.2587635219097137e-01</leafValues></_>
        <_>
          <internalNodes>
            0 -1 39 1.0227096080780029e-01</internalNodes>
          <leafValues>
            2.8583103790879250e-02 -6.8756389617919922e-01</leafValues></_>
        <_>
          <internalNodes>
            0 -1 19 4.1011944413185120e-03</internalNodes>
          <leafValues>
            4.2652392387390137e-01 -5.5242456495761871e-02</leafValues></_>
        <_>
          <internalNodes>
            0 -1 129 1.0430593043565750e-01</internalNodes>
          <leafValues>
            2.6024339720606804e-02 -8.2317453622817993e-01</leafValues></_>
        <_>
          <internalNodes>
            0 -1 80 6.2419950962066650e-02</internalNodes>
          <leafValues>
            1.8824845552444458e-02 -8.9970588684082031e-01</leafValues></_>
        <_>
          <internalNodes>
            0 -1 51 4.3076295405626297e-03</internalNodes>
          <leafValues>
            3.9603716135025024e-01 -5.9727244079113007e-02</leafValues></_>
        <_>
          <internalNodes>
            0 -1 86 2.0064098760485649e-02</internalNodes>
          <leafValues>
            -2.3647247254848480e-01 1.0398150235414505e-01</leafValues></_>
        <_>
          <internalNodes>
            0 -1 67 1.9384227693080902e-02</internalNodes>
          <leafValues>
            2.3781180381774902e-01 -9.2458702623844147e-02</leafValues></_>
        <_>
          <internalNodes>
            0 -1 138 1.1597194243222475e-03</internalNodes>
          <leafValues>
            -8.7191963195800781e-01 2.5134103372693062e-02</leafValues></_>
        <_>
          <internalNodes>
            0 -1 8 4.3282746337354183e-03</internalNodes>
          <leafValues>
            -4.0950113534927368e-01 4.5037060976028442e-02</leafValues></_>
        <_>
          <internalNodes>
            0 -1 100 5.0623841583728790e-02</internalNodes>
          <leafValues>
            -4.9218207597732544e-02 4.4611987471580505e-01</leafValues></_>
        <_>
          <internalNodes>
            0 -1 45 3.4814686514437199e-03</internalNodes>
          <leafValues>
            3.7244531512260437e-01 -4.8507295548915863e-02</leafValues></_>
        <_>
          <internalNodes>
            0 -1 124 2.0646236836910248e-02</internalNodes>
          <leafValues>
            -1.2470716238021851e-01 1.5920068323612213e-01</leafValues></_>
        <_>
          <internalNodes>
            0 -1 52 8.6725046858191490e-03</internalNodes>
          <leafValues>
            2.1254061162471771e-01 -9.7981348633766174e-02</leafValues></_>
        <_>
          <internalNodes>
            0 -1 3 2.3990042507648468e-02</internalNodes>
          <leafValues>
            -2.5193023681640625e-01 7.2266072034835815e-02</leafValues></_>
        <_>
          <internalNodes>
            0 -1 43 9.5354951918125153e-03</internalNodes>
          <leafValues>
            -2.4169880151748657e-01 8.7561339139938354e-02</leafValues></_>
        <_>
          <internalNodes>
            0 -1 6 1.3914631679654121e-02</internalNodes>
          <leafValues>
            1.6180048882961273e-01 -1.2711791694164276e-01</leafValues></_>
        <_>
          <internalNodes>
            0 -1 84 9.6440024673938751e-02</internalNodes>
          <leafValues>
            2.5328481569886208e-02 -6.7163258790969849e-01</leafValues></_>
        <_>
          <internalNodes>
            0 -1 85 4.7348596155643463e-02</internalNodes>
          <leafValues>
            -1.2417547404766083e-01 1.2167608737945557e-01</leafValues></_>
        <_>
          <internalNodes>
            0 -1 123 4.4391997158527374e-02</internalNodes>
          <leafValues>
            -5.8699939399957657e-02 3.1301859021186829e-01</leafValues></_>
        <_>
          <internalNodes>
            0 -1 102 2.5586746633052826e-02</internalNodes>
          <leafValues>
            -1.7473740875720978e-01 1.1928208917379379e-01</leafValues></_>
        <_>
          <internalNodes>
            0 -1 106 3.0496584251523018e-02</internalNodes>
          <leafValues>
            -7.3515288531780243e-02 2.4187722802162170e-01</leafValues></_>
        <_>
          <internalNodes>
            0 -1 1 9.4496319070458412e-03</internalNodes>
          <leafValues>
            -3.4938141703605652e-01 4.8329990357160568e-02</leafValues></_>
        <_>
          <internalNodes>
            0 -1 20 2.6225950568914413e-03</internalNodes>
          <leafValues>
            6.5567308664321899e-01 -2.9421348124742508e-02</leafValues></_>
        <_>
          <internalNodes>
            0 -1 21 1.5984114259481430e-02</internalNodes>
          <leafValues>
            -2.4443595111370087e-01 7.1119181811809540e-02</leafValues></_>
        <_>
          <internalNodes>
            0 -1 140 1.6312886029481888e-02</internalNodes>
          <leafValues>
            1.5279047191143036e-01 -1.1358498036861420e-01</leafValues></_>
        <_>
          <internalNodes>
            0 -1 100 3.3598938025534153e-03</internalNodes>
          <leafValues>
            4.0074515342712402e-01 -3.7737671285867691e-02</leafValues></_>
        <_>
          <internalNodes>
            0 -1 42 3.7447039037942886e-02</internalNodes>
          <leafValues>
            -4.8492293804883957e-02 3.1127202510833740e-01</leafValues></_>
        <_>
          <internalNodes>
            0 -1 80 2.3657899349927902e-02</internalNodes>
          <leafValues>
            8.3785846829414368e-02 -1.7559853196144104e-01</leafValues></_>
        <_>
          <internalNodes>
            0 -1 36 1.2197604402899742e-02</internalNodes>
          <leafValues>
            -2.1659012138843536e-01 8.5821121931076050e-02</leafValues></_>
        <_>
          <internalNodes>
            0 -1 47 5.5832732468843460e-03</internalNodes>
          <leafValues>
            4.0014225244522095e-01 -3.6753673106431961e-02</leafValues></_>
        <_>
          <internalNodes>
            0 -1 65 9.8287044093012810e-03</internalNodes>
          <leafValues>
            -2.6451581716537476e-01 5.9717513620853424e-02</leafValues></_>
        <_>
          <internalNodes>
            0 -1 13 2.7857651934027672e-02</internalNodes>
          <leafValues>
            -2.3006153106689453e-01 6.4518004655838013e-02</leafValues></_>
        <_>
          <internalNodes>
            0 -1 59 2.3932226002216339e-02</internalNodes>
          <leafValues>
            8.2034826278686523e-02 -1.6868215799331665e-01</leafValues></_>
        <_>
          <internalNodes>
            0 -1 7 6.2504336237907410e-02</internalNodes>
          <leafValues>
            1.2205931358039379e-02 -9.5803123712539673e-01</leafValues></_>
        <_>
          <internalNodes>
            0 -1 133 3.1942807137966156e-02</internalNodes>
          <leafValues>
            -6.8732522428035736e-02 2.0014855265617371e-01</leafValues></_>
        <_>
          <internalNodes>
            0 -1 108 9.6731004305183887e-04</internalNodes>
          <leafValues>
            5.6880927085876465e-01 -2.0908918231725693e-02</leafValues></_>
        <_>
          <internalNodes>
            0 -1 36 4.1512750089168549e-02</internalNodes>
          <leafValues>
            -4.6059545129537582e-02 3.0699852108955383e-01</leafValues></_>
        <_>
          <internalNodes>
            0 -1 129 5.8381846174597740e-03</internalNodes>
          <leafValues>
            -4.5211458206176758e-01 3.6484390497207642e-02</leafValues></_>
        <_>
          <internalNodes>
            0 -1 100 3.0212420970201492e-02</internalNodes>
          <leafValues>
            -7.0328839123249054e-02 1.6987839341163635e-01</leafValues></_>
        <_>
          <internalNodes>
            0 -1 136 1.2569358572363853e-02</internalNodes>
          <leafValues>
            1.6370224952697754e-01 -8.5571333765983582e-02</leafValues></_>
        <_>
          <internalNodes>
            0 -1 64 1.2890762649476528e-02</internalNodes>
          <leafValues>
            -1.7024134099483490e-01 7.1648091077804565e-02</leafValues></_>
        <_>
          <internalNodes>
            0 -1 29 2.5635219644755125e-03</internalNodes>
          <leafValues>
            5.3713828325271606e-01 -2.7709225192666054e-02</leafValues></_>
        <_>
          <internalNodes>
            0 -1 120 3.8659952580928802e-02</internalNodes>
          <leafValues>
            -1.0517486184835434e-01 1.2470150738954544e-01</leafValues></_>
        <_>
          <internalNodes>
            0 -1 121 6.6865772008895874e-02</internalNodes>
          <leafValues>
            6.5532848238945007e-02 -2.3301824927330017e-01</leafValues></_>
        <_>
          <internalNodes>
            0 -1 14 2.4147704243659973e-02</internalNodes>
          <leafValues>
            -1.4506430923938751e-01 9.4939097762107849e-02</leafValues></_>
        <_>
          <internalNodes>
            0 -1 50 2.3565419018268585e-02</internalNodes>
          <leafValues>
            1.1720933020114899e-01 -1.1628184467554092e-01</leafValues></_>
        <_>
          <internalNodes>
            0 -1 35 5.9944394975900650e-02</internalNodes>
          <leafValues>
            2.1187735721468925e-02 -6.0146254301071167e-01</leafValues></_>
        <_>
          <internalNodes>
            0 -1 122 4.5267041772603989e-02</internalNodes>
          <leafValues>
            -5.7099889963865280e-02 2.4329410493373871e-01</leafValues></_>
        <_>
          <internalNodes>
            0 -1 107 2.5829283520579338e-02</internalNodes>
          <leafValues>
            -9.4507984817028046e-02 1.5931148827075958e-01</leafValues></_>
        <_>
          <internalNodes>
            0 -1 74 1.9352275878190994e-02</internalNodes>
          <leafValues>
            -1.9688759744167328e-01 6.9072976708412170e-02</leafValues></_>
        <_>
          <internalNodes>
            0 -1 96 6.3616909086704254e-02</internalNodes>
          <leafValues>
            -2.3213019594550133e-02 6.6154456138610840e-01</leafValues></_>
        <_>
          <internalNodes>
            0 -1 24 1.0139374062418938e-02</internalNodes>
          <leafValues>
            1.8130402266979218e-01 -7.9967871308326721e-02</leafValues></_></weakClassifiers></_>
    <!-- stage 3 -->
    <_>
      <maxWeakCount>86</maxWeakCount>
      <stageThreshold>-1.4297714233398438e+00</stageThreshold>
      <weakClassifiers>
        <_>
          <internalNodes>
            0 -1 2 3.1485915184020996e-02</internalNodes>
          <leafValues>
            -5.3547132015228271e-01 -6.6002488136291504e-02</leafValues></_>
        <_>
          <internalNodes>
            0 -1 52 1.8391214311122894e-02</internalNodes>
          <leafValues>
            1.6225811839103699e-01 -3.5570555925369263e-01</leafValues></_>
        <_>
          <internalNodes>
            0 -1 64 5.0594620406627655e-02</internalNodes>
          <leafValues>
            -7.2939477860927582e-02 4.5331487059593201e-01</leafValues></_>
        <_>
          <internalNodes>
            0 -1 85 4.9512229859828949e-02</internalNodes>
          <leafValues>
            -1.5445815026760101e-01 1.8448632955551147e-01</leafValues></_>
        <_>
          <internalNodes>
            0 -1 1 3.1568564474582672e-02</internalNodes>
          <leafValues>
            -1.3767704367637634e-01 2.4706724286079407e-01</leafValues></_>
        <_>
          <internalNodes>
            0 -1 26 5.8361617848277092e-03</internalNodes>
          <leafValues>
            -4.2988729476928711e-01 9.7960375249385834e-02</leafValues></_>
        <_>
          <internalNodes>
            0 -1 123 6.3399888575077057e-02</internalNodes>
          <leafValues>
            -4.0023025125265121e-02 5.9482645988464355e-01</leafValues></_>
        <_>
          <internalNodes>
            0 -1 12 3.5011466592550278e-02</internalNodes>
          <leafValues>
            -1.8524280190467834e-01 1.5862491726875305e-01</leafValues></_>
        <_>
          <internalNodes>
            0 -1 69 6.2542319297790527e-02</internalNodes>
          <leafValues>
            -5.1356229931116104e-02 5.6088578701019287e-01</leafValues></_>
        <_>
          <internalNodes>
            0 -1 62 9.6567161381244659e-02</internalNodes>
          <leafValues>
            4.8350844532251358e-02 -6.9112080335617065e-01</leafValues></_>
        <_>
          <internalNodes>
            0 -1 55 6.2703035771846771e-02</internalNodes>
          <leafValues>
            -4.3795254081487656e-02 6.6836845874786377e-01</leafValues></_>
        <_>
          <internalNodes>
            0 -1 108 2.1501645445823669e-02</internalNodes>
          <leafValues>
            1.1888135969638824e-01 -2.2027134895324707e-01</leafValues></_>
        <_>
          <internalNodes>
            0 -1 74 5.9827584773302078e-03</internalNodes>
          <leafValues>
            -6.8896067142486572e-01 3.7619728595018387e-02</leafValues></_>
        <_>
          <internalNodes>
            0 -1 107 8.9495852589607239e-03</internalNodes>
          <leafValues>
            -3.0442866683006287e-01 7.2406843304634094e-02</leafValues></_>
        <_>
          <internalNodes>
            0 -1 3 4.7677256166934967e-02</internalNodes>
          <leafValues>
            -1.4674706757068634e-01 1.8549634516239166e-01</leafValues></_>
        <_>
          <internalNodes>
            0 -1 119 5.2714310586452484e-02</internalNodes>
          <leafValues>
            -5.1853895187377930e-02 4.4757959246635437e-01</leafValues></_>
        <_>
          <internalNodes>
            0 -1 87 1.1847173795104027e-02</internalNodes>
          <leafValues>
            -2.6378783583641052e-01 7.7313736081123352e-02</leafValues></_>
        <_>
          <internalNodes>
            0 -1 30 4.4673789292573929e-02</internalNodes>
          <leafValues>
            -1.0631755739450455e-01 2.3843491077423096e-01</leafValues></_>
        <_>
          <internalNodes>
            0 -1 140 1.2865130789577961e-02</internalNodes>
          <leafValues>
            1.9082893431186676e-01 -1.0335090011358261e-01</leafValues></_>
        <_>
          <internalNodes>
            0 -1 132 6.6069466993212700e-03</internalNodes>
          <leafValues>
            -3.4869733452796936e-01 5.9240221977233887e-02</leafValues></_>
        <_>
          <internalNodes>
            0 -1 127 6.8008773028850555e-02</internalNodes>
          <leafValues>
            -2.9648931697010994e-02 6.5413331985473633e-01</leafValues></_>
        <_>
          <internalNodes>
            0 -1 86 3.0326567590236664e-02</internalNodes>
          <leafValues>
            -1.4379277825355530e-01 1.2842699885368347e-01</leafValues></_>
        <_>
          <internalNodes>
            0 -1 26 3.1464241445064545e-02</internalNodes>
          <leafValues>
            -8.4282115101814270e-02 1.9944179058074951e-01</leafValues></_>
        <_>
          <internalNodes>
            0 -1 22 3.3303931355476379e-02</internalNodes>
          <leafValues>
            -1.5143148601055145e-01 1.2569423019886017e-01</leafValues></_>
        <_>
          <internalNodes>
            0 -1 71 1.1121119558811188e-01</internalNodes>
          <leafValues>
            2.0502192899584770e-02 -8.7427294254302979e-01</leafValues></_>
        <_>
          <internalNodes>
            0 -1 63 5.3809862583875656e-02</internalNodes>
          <leafValues>
            -4.3061628937721252e-02 4.4569984078407288e-01</leafValues></_>
        <_>
          <internalNodes>
            0 -1 124 1.1147475801408291e-02</internalNodes>
          <leafValues>
            -2.0738261938095093e-01 8.4417529404163361e-02</leafValues></_>
        <_>
          <internalNodes>
            0 -1 39 2.1389439702033997e-02</internalNodes>
          <leafValues>
            -2.7010905742645264e-01 7.5689807534217834e-02</leafValues></_>
        <_>
          <internalNodes>
            0 -1 45 1.6475901007652283e-02</internalNodes>
          <leafValues>
            1.0579618066549301e-01 -1.5278337895870209e-01</leafValues></_>
        <_>
          <internalNodes>
            0 -1 70 9.4963132869452238e-04</internalNodes>
          <leafValues>
            -7.3400759696960449e-01 2.0299088209867477e-02</leafValues></_>
        <_>
          <internalNodes>
            0 -1 59 3.0535809695720673e-02</internalNodes>
          <leafValues>
            6.9575957953929901e-02 -2.2121536731719971e-01</leafValues></_>
        <_>
          <internalNodes>
            0 -1 73 4.7778678126633167e-03</internalNodes>
          <leafValues>
            -4.0871781110763550e-01 3.8238093256950378e-02</leafValues></_>
        <_>
          <internalNodes>
            0 -1 55 9.3152914196252823e-03</internalNodes>
          <leafValues>
            2.0470425486564636e-01 -7.6033234596252441e-02</leafValues></_>
        <_>
          <internalNodes>
            0 -1 39 1.3225321471691132e-01</internalNodes>
          <leafValues>
            1.5708256512880325e-02 -8.5139554738998413e-01</leafValues></_>
        <_>
          <internalNodes>
            0 -1 114 1.4584032818675041e-02</internalNodes>
          <leafValues>
            1.3205470144748688e-01 -1.1348535865545273e-01</leafValues></_>
        <_>
          <internalNodes>
            0 -1 24 4.1264310479164124e-02</internalNodes>
          <leafValues>
            -5.2938133478164673e-02 3.3820310235023499e-01</leafValues></_>
        <_>
          <internalNodes>
            0 -1 126 9.2315031215548515e-03</internalNodes>
          <leafValues>
            -2.4205975234508514e-01 6.2227018177509308e-02</leafValues></_>
        <_>
          <internalNodes>
            0 -1 120 4.2125530540943146e-02</internalNodes>
          <leafValues>
            -1.1629787087440491e-01 1.5028592944145203e-01</leafValues></_>
        <_>
          <internalNodes>
            0 -1 125 2.1530755329877138e-03</internalNodes>
          <leafValues>
            -5.2946907281875610e-01 3.3797319978475571e-02</leafValues></_>
        <_>
          <internalNodes>
            0 -1 58 4.3896880000829697e-02</internalNodes>
          <leafValues>
            -9.3196287751197815e-02 1.6859649121761322e-01</leafValues></_>
        <_>
          <internalNodes>
            0 -1 37 3.8577910512685776e-02</internalNodes>
          <leafValues>
            -7.0166468620300293e-02 2.4900856614112854e-01</leafValues></_>
        <_>
          <internalNodes>
            0 -1 14 4.0692746639251709e-02</internalNodes>
          <leafValues>
            -8.3299592137336731e-02 2.0469668507575989e-01</leafValues></_>
        <_>
          <internalNodes>
            0 -1 110 1.1843468993902206e-02</internalNodes>
          <leafValues>
            2.5672879815101624e-01 -6.5322913229465485e-02</leafValues></_>
        <_>
          <internalNodes>
            0 -1 69 1.3335745781660080e-02</internalNodes>
          <leafValues>
            -1.8796299397945404e-01 8.1084743142127991e-02</leafValues></_>
        <_>
          <internalNodes>
            0 -1 89 2.1147835999727249e-02</internalNodes>
          <leafValues>
            1.1341778188943863e-01 -1.4289166033267975e-01</leafValues></_>
        <_>
          <internalNodes>
            0 -1 125 3.4286744892597198e-02</internalNodes>
          <leafValues>
            -6.4072385430335999e-02 2.0273277163505554e-01</leafValues></_>
        <_>
          <internalNodes>
            0 -1 98 7.8466132283210754e-02</internalNodes>
          <leafValues>
            1.7188875004649162e-02 -7.9451048374176025e-01</leafValues></_>
        <_>
          <internalNodes>
            0 -1 100 5.7563342154026031e-02</internalNodes>
          <leafValues>
            -3.1933128833770752e-02 4.6283370256423950e-01</leafValues></_>
        <_>
          <internalNodes>
            0 -1 137 3.8309603929519653e-02</internalNodes>
          <leafValues>
            4.4721115380525589e-02 -2.7873098850250244e-01</leafValues></_>
        <_>
          <internalNodes>
            0 -1 74 1.8339809030294418e-02</internalNodes>
          <leafValues>
            -1.8814074993133545e-01 6.8273201584815979e-02</leafValues></_>
        <_>
          <internalNodes>
            0 -1 8 6.0259062796831131e-02</internalNodes>
          <leafValues>
            2.4807093665003777e-02 -5.0158250331878662e-01</leafValues></_>
        <_>
          <internalNodes>
            0 -1 130 1.0919800959527493e-02</internalNodes>
          <leafValues>
            3.0546635389328003e-01 -4.7033902257680893e-02</leafValues></_>
        <_>
          <internalNodes>
            0 -1 129 5.8982642367482185e-03</internalNodes>
          <leafValues>
            -4.2316725850105286e-01 3.1181005761027336e-02</leafValues></_>
        <_>
          <internalNodes>
            0 -1 33 9.8550599068403244e-03</internalNodes>
          <leafValues>
            2.0374917984008789e-01 -7.2965942323207855e-02</leafValues></_>
        <_>
          <internalNodes>
            0 -1 43 2.5853369385004044e-02</internalNodes>
          <leafValues>
            -7.6261438429355621e-02 1.8996757268905640e-01</leafValues></_>
        <_>
          <internalNodes>
            0 -1 71 6.4080352894961834e-03</internalNodes>
          <leafValues>
            -3.2309082150459290e-01 3.4996036440134048e-02</leafValues></_>
        <_>
          <internalNodes>
            0 -1 46 1.6797024756669998e-02</internalNodes>
          <leafValues>
            1.1079633980989456e-01 -1.1828307062387466e-01</leafValues></_>
        <_>
          <internalNodes>
            0 -1 46 4.6397961676120758e-02</internalNodes>
          <leafValues>
            -3.8887925446033478e-02 3.8914182782173157e-01</leafValues></_>
        <_>
          <internalNodes>
            0 -1 121 1.7032335698604584e-01</internalNodes>
          <leafValues>
            1.4592657797038555e-02 -1.</leafValues></_>
        <_>
          <internalNodes>
            0 -1 139 4.6645909547805786e-02</internalNodes>
          <leafValues>
            -7.8184708952903748e-02 1.6824539005756378e-01</leafValues></_>
        <_>
          <internalNodes>
            0 -1 77 2.2035739384591579e-03</internalNodes>
          <leafValues>
            -6.4006960391998291e-01 2.0746275782585144e-02</leafValues></_>
        <_>
          <internalNodes>
            0 -1 2 1.0288134217262268e-01</internalNodes>
          <leafValues>
            -1.9981808960437775e-02 8.5921645164489746e-01</leafValues></_>
        <_>
          <internalNodes>
            0 -1 16 3.8142144680023193e-02</internalNodes>
          <leafValues>
            4.6052362769842148e-02 -3.1506440043449402e-01</leafValues></_>
        <_>
          <internalNodes>
            0 -1 123 3.8249086588621140e-02</internalNodes>
          <leafValues>
            -6.9435782730579376e-02 2.2894652187824249e-01</leafValues></_>
        <_>
          <internalNodes>
            0 -1 0 2.4780663661658764e-03</internalNodes>
          <leafValues>
            -5.2977001667022705e-01 2.3855766281485558e-02</leafValues></_>
        <_>
          <internalNodes>
            0 -1 7 1.6185909509658813e-02</internalNodes>
          <leafValues>
            1.1475473642349243e-01 -1.2472680956125259e-01</leafValues></_>
        <_>
          <internalNodes>
            0 -1 55 3.7794783711433411e-02</internalNodes>
          <leafValues>
            -4.6738177537918091e-02 2.5176259875297546e-01</leafValues></_>
        <_>
          <internalNodes>
            0 -1 76 2.1681403741240501e-02</internalNodes>
          <leafValues>
            -2.5212031602859497e-01 4.8254504799842834e-02</leafValues></_>
        <_>
          <internalNodes>
            0 -1 8 1.0671652853488922e-02</internalNodes>
          <leafValues>
            -1.6963110864162445e-01 7.2631172835826874e-02</leafValues></_>
        <_>
          <internalNodes>
            0 -1 57 3.1321629881858826e-02</internalNodes>
          <leafValues>
            -1.0198009014129639e-01 1.2163303792476654e-01</leafValues></_>
        <_>
          <internalNodes>
            0 -1 56 1.4388501644134521e-02</internalNodes>
          <leafValues>
            1.5273348987102509e-01 -9.0551443397998810e-02</leafValues></_>
        <_>
          <internalNodes>
            0 -1 18 9.1134374961256981e-03</internalNodes>
          <leafValues>
            -2.3767910897731781e-01 6.6281929612159729e-02</leafValues></_>
        <_>
          <internalNodes>
            0 -1 62 2.0352404564619064e-02</internalNodes>
          <leafValues>
            1.1639805138111115e-01 -1.0810543596744537e-01</leafValues></_>
        <_>
          <internalNodes>
            0 -1 100 2.0511429756879807e-02</internalNodes>
          <leafValues>
            -1.0195922106504440e-01 1.1882290244102478e-01</leafValues></_>
        <_>
          <internalNodes>
            0 -1 28 1.8149077892303467e-02</internalNodes>
          <leafValues>
            1.0775066912174225e-01 -1.1562860012054443e-01</leafValues></_>
        <_>
          <internalNodes>
            0 -1 105 5.7565540075302124e-02</internalNodes>
          <leafValues>
            -2.7010669931769371e-02 4.5327731966972351e-01</leafValues></_>
        <_>
          <internalNodes>
            0 -1 65 6.0258940793573856e-03</internalNodes>
          <leafValues>
            -3.3851200342178345e-01 3.3418413251638412e-02</leafValues></_>
        <_>
          <internalNodes>
            0 -1 137 8.0303754657506943e-03</internalNodes>
          <leafValues>
            2.4049210548400879e-01 -5.2539803087711334e-02</leafValues></_>
        <_>
          <internalNodes>
            0 -1 101 1.2356530874967575e-02</internalNodes>
          <leafValues>
            -1.9796934723854065e-01 7.0804990828037262e-02</leafValues></_>
        <_>
          <internalNodes>
            0 -1 75 5.7416290044784546e-02</internalNodes>
          <leafValues>
            -7.3732145130634308e-02 1.7325066030025482e-01</leafValues></_>
        <_>
          <internalNodes>
            0 -1 116 6.8406184436753392e-04</internalNodes>
          <leafValues>
            -5.8296227455139160e-01 1.9570518285036087e-02</leafValues></_>
        <_>
          <internalNodes>
            0 -1 30 5.7096285745501518e-03</internalNodes>
          <leafValues>
            4.5767810940742493e-01 -2.5222707539796829e-02</leafValues></_>
        <_>
          <internalNodes>
            0 -1 68 3.6115463823080063e-02</internalNodes>
          <leafValues>
            -6.2852405011653900e-02 2.0758266746997833e-01</leafValues></_>
        <_>
          <internalNodes>
            0 -1 140 3.3227909356355667e-02</internalNodes>
          <leafValues>
            6.8048015236854553e-02 -2.4569539725780487e-01</leafValues></_>
        <_>
          <internalNodes>
            0 -1 107 1.1853111535310745e-01</internalNodes>
          <leafValues>
            9.3758422881364822e-03 -1.</leafValues></_>
        <_>
          <internalNodes>
            0 -1 95 2.4434011429548264e-02</internalNodes>
          <leafValues>
            9.0209037065505981e-02 -1.4096242189407349e-01</leafValues></_></weakClassifiers></_>
    <!-- stage 4 -->
    <_>
      <maxWeakCount>81</maxWeakCount>
      <stageThreshold>-1.3096010684967041e+00</stageThreshold>
      <weakClassifiers>
        <_>
          <internalNodes>
            0 -1 133 1.6931254416704178e-02</internalNodes>
          <leafValues>
            -5.5395680665969849e-01 -7.5669385492801666e-02</leafValues></_>
        <_>
          <internalNodes>
            0 -1 99 7.9531054943799973e-03</internalNodes>
          <leafValues>
            -4.3943640589714050e-01 9.2882186174392700e-02</leafValues></_>
        <_>
          <internalNodes>
            0 -1 26 1.0655246675014496e-02</internalNodes>
          <leafValues>
            -3.0476590991020203e-01 1.0709229856729507e-01</leafValues></_>
        <_>
          <internalNodes>
            0 -1 87 1.9706273451447487e-02</internalNodes>
          <leafValues>
            -1.6758768260478973e-01 1.8451312184333801e-01</leafValues></_>
        <_>
          <internalNodes>
            0 -1 1 2.1154090762138367e-02</internalNodes>
          <leafValues>
            -1.7740966379642487e-01 1.5706862509250641e-01</leafValues></_>
        <_>
          <internalNodes>
            0 -1 53 3.7588081322610378e-03</internalNodes>
          <leafValues>
            3.0035194754600525e-01 -8.2075633108615875e-02</leafValues></_>
        <_>
          <internalNodes>
            0 -1 65 7.7761635184288025e-02</internalNodes>
          <leafValues>
            3.5670910030603409e-02 -7.1255981922149658e-01</leafValues></_>
        <_>
          <internalNodes>
            0 -1 64 2.5341998785734177e-02</internalNodes>
          <leafValues>
            -1.4364552497863770e-01 1.9481644034385681e-01</leafValues></_>
        <_>
          <internalNodes>
            0 -1 39 1.8449980765581131e-02</internalNodes>
          <leafValues>
            -3.4453535079956055e-01 6.5832719206809998e-02</leafValues></_>
        <_>
          <internalNodes>
            0 -1 110 2.0535800606012344e-02</internalNodes>
          <leafValues>
            1.5279214084148407e-01 -1.4141513407230377e-01</leafValues></_>
        <_>
          <internalNodes>
            0 -1 48 6.6223070025444031e-02</internalNodes>
          <leafValues>
            -7.3419868946075439e-02 2.5848650932312012e-01</leafValues></_>
        <_>
          <internalNodes>
            0 -1 141 5.1384653896093369e-02</internalNodes>
          <leafValues>
            -5.1035881042480469e-02 4.7871503233909607e-01</leafValues></_>
        <_>
          <internalNodes>
            0 -1 2 1.5270675532519817e-02</internalNodes>
          <leafValues>
            -3.4539175033569336e-01 7.2472572326660156e-02</leafValues></_>
        <_>
          <internalNodes>
            0 -1 82 3.8266830146312714e-02</internalNodes>
          <leafValues>
            3.7165876477956772e-02 -4.5399314165115356e-01</leafValues></_>
        <_>
          <internalNodes>
            0 -1 67 2.8376694768667221e-02</internalNodes>
          <leafValues>
            1.6235950589179993e-01 -1.3199029862880707e-01</leafValues></_>
        <_>
          <internalNodes>
            0 -1 124 1.8365949392318726e-02</internalNodes>
          <leafValues>
            -1.2686528265476227e-01 1.4986346662044525e-01</leafValues></_>
        <_>
          <internalNodes>
            0 -1 127 4.5388907194137573e-02</internalNodes>
          <leafValues>
            -5.4377995431423187e-02 3.4635201096534729e-01</leafValues></_>
        <_>
          <internalNodes>
            0 -1 102 1.2006698176264763e-02</internalNodes>
          <leafValues>
            -3.4145885705947876e-01 5.9889413416385651e-02</leafValues></_>
        <_>
          <internalNodes>
            0 -1 14 1.6377277672290802e-02</internalNodes>
          <leafValues>
            -2.3821629583835602e-01 7.5578533113002777e-02</leafValues></_>
        <_>
          <internalNodes>
            0 -1 132 6.5772654488682747e-03</internalNodes>
          <leafValues>
            -3.0632051825523376e-01 6.0267843306064606e-02</leafValues></_>
        <_>
          <internalNodes>
            0 -1 50 7.2461105883121490e-03</internalNodes>
          <leafValues>
            3.1067222356796265e-01 -5.5082552134990692e-02</leafValues></_>
        <_>
          <internalNodes>
            0 -1 81 3.5359067842364311e-03</internalNodes>
          <leafValues>
            -3.5451903939247131e-01 4.6909034252166748e-02</leafValues></_>
        <_>
          <internalNodes>
            0 -1 13 2.0106317475438118e-02</internalNodes>
          <leafValues>
            -4.3467187881469727e-01 4.4953364878892899e-02</leafValues></_>
        <_>
          <internalNodes>
            0 -1 132 3.8301141466945410e-04</internalNodes>
          <leafValues>
            6.9853907823562622e-01 -2.6394369080662727e-02</leafValues></_>
        <_>
          <internalNodes>
            0 -1 142 6.4998149871826172e-02</internalNodes>
          <leafValues>
            -1.9680490717291832e-02 6.7325139045715332e-01</leafValues></_>
        <_>
          <internalNodes>
            0 -1 74 1.1473288387060165e-01</internalNodes>
          <leafValues>
            1.7298651859164238e-02 -1.</leafValues></_>
        <_>
          <internalNodes>
            0 -1 74 3.2091207802295685e-02</internalNodes>
          <leafValues>
            -1.1389639973640442e-01 1.1991539597511292e-01</leafValues></_>
        <_>
          <internalNodes>
            0 -1 79 7.5278086587786674e-03</internalNodes>
          <leafValues>
            -1.7490120232105255e-01 7.7124029397964478e-02</leafValues></_>
        <_>
          <internalNodes>
            0 -1 52 5.6806774809956551e-03</internalNodes>
          <leafValues>
            2.0099477469921112e-01 -7.5117543339729309e-02</leafValues></_>
        <_>
          <internalNodes>
            0 -1 61 2.0839553326368332e-03</internalNodes>
          <leafValues>
            -4.8868793249130249e-01 2.5067942216992378e-02</leafValues></_>
        <_>
          <internalNodes>
            0 -1 63 2.9358927160501480e-02</internalNodes>
          <leafValues>
            -7.8670427203178406e-02 1.8436804413795471e-01</leafValues></_>
        <_>
          <internalNodes>
            0 -1 135 5.8169821277260780e-03</internalNodes>
          <leafValues>
            2.7371683716773987e-01 -5.2573323249816895e-02</leafValues></_>
        <_>
          <internalNodes>
            0 -1 122 1.1894337832927704e-02</internalNodes>
          <leafValues>
            -2.4417561292648315e-01 5.7622633874416351e-02</leafValues></_>
        <_>
          <internalNodes>
            0 -1 100 4.4837556779384613e-02</internalNodes>
          <leafValues>
            -4.8845902085304260e-02 2.9499223828315735e-01</leafValues></_>
        <_>
          <internalNodes>
            0 -1 101 6.1686776578426361e-02</internalNodes>
          <leafValues>
            3.0311526730656624e-02 -4.7286257147789001e-01</leafValues></_>
        <_>
          <internalNodes>
            0 -1 78 6.0610987246036530e-02</internalNodes>
          <leafValues>
            2.1121658384799957e-02 -7.5812846422195435e-01</leafValues></_>
        <_>
          <internalNodes>
            0 -1 4 5.3427394479513168e-02</internalNodes>
          <leafValues>
            8.6520113050937653e-02 -1.4807854592800140e-01</leafValues></_>
        <_>
          <internalNodes>
            0 -1 75 4.5330315828323364e-02</internalNodes>
          <leafValues>
            -1.2038872390985489e-01 1.1738635599613190e-01</leafValues></_>
        <_>
          <internalNodes>
            0 -1 143 3.3809710294008255e-03</internalNodes>
          <leafValues>
            -3.9770749211311340e-01 3.1615607440471649e-02</leafValues></_>
        <_>
          <internalNodes>
            0 -1 72 3.8395042065531015e-03</internalNodes>
          <leafValues>
            -3.2380613684654236e-01 3.9726223796606064e-02</leafValues></_>
        <_>
          <internalNodes>
            0 -1 102 3.3642970025539398e-02</internalNodes>
          <leafValues>
            -1.1005163192749023e-01 1.2184261530637741e-01</leafValues></_>
        <_>
          <internalNodes>
            0 -1 33 4.7191843390464783e-02</internalNodes>
          <leafValues>
            -3.6633059382438660e-02 4.3548470735549927e-01</leafValues></_>
        <_>
          <internalNodes>
            0 -1 143 9.9441371858119965e-02</internalNodes>
          <leafValues>
            2.0190604031085968e-02 -6.5997016429901123e-01</leafValues></_>
        <_>
          <internalNodes>
            0 -1 95 5.0873063504695892e-02</internalNodes>
          <leafValues>
            2.4825191125273705e-02 -4.2448756098747253e-01</leafValues></_>
        <_>
          <internalNodes>
            0 -1 108 4.5092622749507427e-03</internalNodes>
          <leafValues>
            2.2459623217582703e-01 -5.3549010306596756e-02</leafValues></_>
        <_>
          <internalNodes>
            0 -1 43 1.1734388768672943e-02</internalNodes>
          <leafValues>
            -1.5347252786159515e-01 9.0932659804821014e-02</leafValues></_>
        <_>
          <internalNodes>
            0 -1 8 3.1603503972291946e-02</internalNodes>
          <leafValues>
            5.4671399295330048e-02 -2.0087271928787231e-01</leafValues></_>
        <_>
          <internalNodes>
            0 -1 89 9.5553966239094734e-03</internalNodes>
          <leafValues>
            -1.6810895502567291e-01 6.8671636283397675e-02</leafValues></_>
        <_>
          <internalNodes>
            0 -1 9 4.0389742702245712e-02</internalNodes>
          <leafValues>
            2.7670888230204582e-02 -4.4906398653984070e-01</leafValues></_>
        <_>
          <internalNodes>
            0 -1 71 2.2523602470755577e-02</internalNodes>
          <leafValues>
            -1.1326354742050171e-01 1.0398003458976746e-01</leafValues></_>
        <_>
          <internalNodes>
            0 -1 114 1.4161377912387252e-03</internalNodes>
          <leafValues>
            4.1260072588920593e-01 -3.0823882669210434e-02</leafValues></_>
        <_>
          <internalNodes>
            0 -1 37 3.8316808640956879e-02</internalNodes>
          <leafValues>
            -5.8717601001262665e-02 1.9016507267951965e-01</leafValues></_>
        <_>
          <internalNodes>
            0 -1 1 8.2174822688102722e-02</internalNodes>
          <leafValues>
            2.4188397452235222e-02 -6.4269196987152100e-01</leafValues></_>
        <_>
          <internalNodes>
            0 -1 131 1.1679524555802345e-02</internalNodes>
          <leafValues>
            -1.7220348119735718e-01 6.4088530838489532e-02</leafValues></_>
        <_>
          <internalNodes>
            0 -1 141 1.0339936614036560e-01</internalNodes>
          <leafValues>
            -8.9748641476035118e-03 9.2029899358749390e-01</leafValues></_>
        <_>
          <internalNodes>
            0 -1 41 2.8957609087228775e-02</internalNodes>
          <leafValues>
            -6.9239869713783264e-02 1.4796856045722961e-01</leafValues></_>
        <_>
          <internalNodes>
            0 -1 5 1.7311537638306618e-02</internalNodes>
          <leafValues>
            1.1613370478153229e-01 -7.7181361615657806e-02</leafValues></_>
        <_>
          <internalNodes>
            0 -1 78 6.5609579905867577e-03</internalNodes>
          <leafValues>
            -2.0536321401596069e-01 4.7051373869180679e-02</leafValues></_>
        <_>
          <internalNodes>
            0 -1 56 2.3872968740761280e-03</internalNodes>
          <leafValues>
            3.9882865548133850e-01 -2.0552240312099457e-02</leafValues></_>
        <_>
          <internalNodes>
            0 -1 57 1.2043761089444160e-02</internalNodes>
          <leafValues>
            -2.1234115958213806e-01 4.3083142489194870e-02</leafValues></_>
        <_>
          <internalNodes>
            0 -1 92 6.4301639795303345e-02</internalNodes>
          <leafValues>
            1.6539582982659340e-02 -5.2716344594955444e-01</leafValues></_>
        <_>
          <internalNodes>
            0 -1 119 3.3860515803098679e-02</internalNodes>
          <leafValues>
            -6.3233315944671631e-02 1.5891879796981812e-01</leafValues></_>
        <_>
          <internalNodes>
            0 -1 110 4.4147139415144920e-03</internalNodes>
          <leafValues>
            3.8771378993988037e-01 -2.4874402210116386e-02</leafValues></_>
        <_>
          <internalNodes>
            0 -1 26 3.0456259846687317e-03</internalNodes>
          <leafValues>
            -3.9505633711814880e-01 2.2847965359687805e-02</leafValues></_>
        <_>
          <internalNodes>
            0 -1 91 4.6346625313162804e-03</internalNodes>
          <leafValues>
            2.3953209817409515e-01 -4.0783312171697617e-02</leafValues></_>
        <_>
          <internalNodes>
            0 -1 25 3.9392441511154175e-02</internalNodes>
          <leafValues>
            3.2187957316637039e-02 -2.8297302126884460e-01</leafValues></_>
        <_>
          <internalNodes>
            0 -1 133 4.5888010412454605e-02</internalNodes>
          <leafValues>
            -3.9238307625055313e-02 2.8374257683753967e-01</leafValues></_>
        <_>
          <internalNodes>
            0 -1 137 1.2610560224857181e-04</internalNodes>
          <leafValues>
            -8.4002852439880371e-01 1.2309625744819641e-02</leafValues></_>
        <_>
          <internalNodes>
            0 -1 91 3.3314406871795654e-02</internalNodes>
          <leafValues>
            -5.1153831183910370e-02 1.9908992946147919e-01</leafValues></_>
        <_>
          <internalNodes>
            0 -1 12 3.3267857506871223e-03</internalNodes>
          <leafValues>
            -9.2188423871994019e-01 9.4764027744531631e-03</leafValues></_>
        <_>
          <internalNodes>
            0 -1 101 1.0683287400752306e-03</internalNodes>
          <leafValues>
            7.5281268358230591e-01 -1.8288541585206985e-02</leafValues></_>
        <_>
          <internalNodes>
            0 -1 83 8.3621501922607422e-02</internalNodes>
          <leafValues>
            1.0290844365954399e-02 -1.</leafValues></_>
        <_>
          <internalNodes>
            0 -1 122 3.1000904738903046e-02</internalNodes>
          <leafValues>
            -8.0591455101966858e-02 1.0161018371582031e-01</leafValues></_>
        <_>
          <internalNodes>
            0 -1 50 2.6112839579582214e-02</internalNodes>
          <leafValues>
            9.5037750899791718e-02 -1.2011717259883881e-01</leafValues></_>
        <_>
          <internalNodes>
            0 -1 113 5.0142869353294373e-02</internalNodes>
          <leafValues>
            -3.4024100750684738e-02 2.9741889238357544e-01</leafValues></_>
        <_>
          <internalNodes>
            0 -1 23 3.4898404031991959e-02</internalNodes>
          <leafValues>
            4.6578451991081238e-02 -1.9529092311859131e-01</leafValues></_>
        <_>
          <internalNodes>
            0 -1 106 3.9090421050786972e-02</internalNodes>
          <leafValues>
            -3.8572926074266434e-02 2.5522398948669434e-01</leafValues></_>
        <_>
          <internalNodes>
            0 -1 120 1.5776619315147400e-02</internalNodes>
          <leafValues>
            -2.5997179746627808e-01 4.3930683284997940e-02</leafValues></_>
        <_>
          <internalNodes>
            0 -1 35 6.0923080891370773e-02</internalNodes>
          <leafValues>
            1.4561468735337257e-02 -5.6750917434692383e-01</leafValues></_>
        <_>
          <internalNodes>
            0 -1 126 2.8442991897463799e-03</internalNodes>
          <leafValues>
            -4.0990945696830750e-01 1.8922995775938034e-02</leafValues></_>
        <_>
          <internalNodes>
            0 -1 27 1.5602756291627884e-02</internalNodes>
          <leafValues>
            9.6183560788631439e-02 -1.0004582256078720e-01</leafValues></_></weakClassifiers></_>
    <!-- stage 5 -->
    <_>
      <maxWeakCount>100</maxWeakCount>
      <stageThreshold>-1.4168111085891724e+00</stageThreshold>
      <weakClassifiers>
        <_>
          <internalNodes>
            0 -1 45 1.4957945793867111e-02</internalNodes>
          <leafValues>
            -1.5201655030250549e-01 -5.2832370996475220e-01</leafValues></_>
        <_>
          <internalNodes>
            0 -1 132 2.9247872531414032e-02</internalNodes>
          <leafValues>
            -1.4218115806579590e-01 2.3922686278820038e-01</leafValues></_>
        <_>
          <internalNodes>
            0 -1 86 2.9074259102344513e-02</internalNodes>
          <leafValues>
            -1.7941471934318542e-01 1.3142324984073639e-01</leafValues></_>
        <_>
          <internalNodes>
            0 -1 71 1.8923612311482430e-02</internalNodes>
          <leafValues>
            -2.0250689983367920e-01 1.2125609815120697e-01</leafValues></_>
        <_>
          <internalNodes>
            0 -1 100 2.9886335134506226e-02</internalNodes>
          <leafValues>
            -7.4619367718696594e-02 2.3230782151222229e-01</leafValues></_>
        <_>
          <internalNodes>
            0 -1 75 1.7175367102026939e-02</internalNodes>
          <leafValues>
            -4.6673318743705750e-01 6.9089226424694061e-02</leafValues></_>
        <_>
          <internalNodes>
            0 -1 1 1.4527242630720139e-02</internalNodes>
          <leafValues>
            -2.7044799923896790e-01 6.2389556318521500e-02</leafValues></_>
        <_>
          <internalNodes>
            0 -1 109 1.4521373435854912e-02</internalNodes>
          <leafValues>
            1.8148225545883179e-01 -1.3201221823692322e-01</leafValues></_>
        <_>
          <internalNodes>
            0 -1 87 2.4213563650846481e-02</internalNodes>
          <leafValues>
            -1.4185003936290741e-01 1.1713942140340805e-01</leafValues></_>
        <_>
          <internalNodes>
            0 -1 50 1.3802875764667988e-02</internalNodes>
          <leafValues>
            2.4786975979804993e-01 -7.8939549624919891e-02</leafValues></_>
        <_>
          <internalNodes>
            0 -1 93 6.0803545638918877e-03</internalNodes>
          <leafValues>
            -4.2521986365318298e-01 3.6970824003219604e-02</leafValues></_>
        <_>
          <internalNodes>
            0 -1 137 1.4205716550350189e-02</internalNodes>
          <leafValues>
            1.6322274506092072e-01 -1.1349438130855560e-01</leafValues></_>
        <_>
          <internalNodes>
            0 -1 117 1.1306405067443848e-02</internalNodes>
          <leafValues>
            -1.6050632297992706e-01 9.3491636216640472e-02</leafValues></_>
        <_>
          <internalNodes>
            0 -1 53 8.4188282489776611e-03</internalNodes>
          <leafValues>
            1.7456488311290741e-01 -9.9249385297298431e-02</leafValues></_>
        <_>
          <internalNodes>
            0 -1 84 1.2236529588699341e-01</internalNodes>
          <leafValues>
            1.4806997030973434e-02 -1.</leafValues></_>
        <_>
          <internalNodes>
            0 -1 74 4.0399737656116486e-02</internalNodes>
          <leafValues>
            -9.1180779039859772e-02 1.7032866179943085e-01</leafValues></_>
        <_>
          <internalNodes>
            0 -1 110 2.4670649319887161e-02</internalNodes>
          <leafValues>
            1.0799629241228104e-01 -1.3349242508411407e-01</leafValues></_>
        <_>
          <internalNodes>
            0 -1 125 3.5523264668881893e-03</internalNodes>
          <leafValues>
            -3.7119892239570618e-01 3.8953404873609543e-02</leafValues></_>
        <_>
          <internalNodes>
            0 -1 120 1.9536979496479034e-02</internalNodes>
          <leafValues>
            -2.1526016294956207e-01 5.5798944085836411e-02</leafValues></_>
        <_>
          <internalNodes>
            0 -1 46 3.2966230064630508e-03</internalNodes>
          <leafValues>
            3.1044435501098633e-01 -3.7211686372756958e-02</leafValues></_>
        <_>
          <internalNodes>
            0 -1 73 1.5095165930688381e-02</internalNodes>
          <leafValues>
            -1.8809807300567627e-01 8.0921702086925507e-02</leafValues></_>
        <_>
          <internalNodes>
            0 -1 7 3.2984368503093719e-02</internalNodes>
          <leafValues>
            3.9788730442523956e-02 -2.8229159116744995e-01</leafValues></_>
        <_>
          <internalNodes>
            0 -1 137 8.2397930324077606e-02</internalNodes>
          <leafValues>
            1.2672009877860546e-02 -7.6930516958236694e-01</leafValues></_>
        <_>
          <internalNodes>
            0 -1 64 2.5798939168453217e-02</internalNodes>
          <leafValues>
            -9.9054552614688873e-02 1.2354034930467606e-01</leafValues></_>
        <_>
          <internalNodes>
            0 -1 55 1.0030105710029602e-02</internalNodes>
          <leafValues>
            1.7918370664119720e-01 -7.5309008359909058e-02</leafValues></_>
        <_>
          <internalNodes>
            0 -1 54 4.5508816838264465e-02</internalNodes>
          <leafValues>
            -3.9516009390354156e-02 3.1181532144546509e-01</leafValues></_>
        <_>
          <internalNodes>
            0 -1 123 5.0447363406419754e-02</internalNodes>
          <leafValues>
            -3.9776276797056198e-02 3.1471908092498779e-01</leafValues></_>
        <_>
          <internalNodes>
            0 -1 138 2.5431690737605095e-02</internalNodes>
          <leafValues>
            -1.1974489688873291e-01 1.1109433323144913e-01</leafValues></_>
        <_>
          <internalNodes>
            0 -1 107 1.3671274296939373e-02</internalNodes>
          <leafValues>
            -1.5960702300071716e-01 7.0423386991024017e-02</leafValues></_>
        <_>
          <internalNodes>
            0 -1 85 2.4384822696447372e-02</internalNodes>
          <leafValues>
            -2.5135338306427002e-01 5.2922092378139496e-02</leafValues></_>
        <_>
          <internalNodes>
            0 -1 141 7.1608372032642365e-02</internalNodes>
          <leafValues>
            -2.2000676020979881e-02 5.2198410034179688e-01</leafValues></_>
        <_>
          <internalNodes>
            0 -1 140 4.9379214644432068e-02</internalNodes>
          <leafValues>
            3.0045302584767342e-02 -4.6262037754058838e-01</leafValues></_>
        <_>
          <internalNodes>
            0 -1 40 1.2370253354310989e-01</internalNodes>
          <leafValues>
            1.7204508185386658e-02 -5.4212373495101929e-01</leafValues></_>
        <_>
          <internalNodes>
            0 -1 39 6.9490084424614906e-03</internalNodes>
          <leafValues>
            -7.1493154764175415e-01 1.3163137249648571e-02</leafValues></_>
        <_>
          <internalNodes>
            0 -1 115 5.1027871668338776e-03</internalNodes>
          <leafValues>
            2.0397984981536865e-01 -5.5724456906318665e-02</leafValues></_>
        <_>
          <internalNodes>
            0 -1 43 6.7481212317943573e-03</internalNodes>
          <leafValues>
            -2.3670731484889984e-01 5.8362316340208054e-02</leafValues></_>
        <_>
          <internalNodes>
            0 -1 6 3.1870782375335693e-02</internalNodes>
          <leafValues>
            4.1158370673656464e-02 -2.7140676975250244e-01</leafValues></_>
        <_>
          <internalNodes>
            0 -1 42 3.3406376838684082e-02</internalNodes>
          <leafValues>
            -5.8660078793764114e-02 2.8737726807594299e-01</leafValues></_>
        <_>
          <internalNodes>
            0 -1 115 2.3388065397739410e-02</internalNodes>
          <leafValues>
            6.2276147305965424e-02 -2.0960612595081329e-01</leafValues></_>
        <_>
          <internalNodes>
            0 -1 36 3.2044276595115662e-02</internalNodes>
          <leafValues>
            -6.2876261770725250e-02 1.8316382169723511e-01</leafValues></_>
        <_>
          <internalNodes>
            0 -1 87 1.0456804931163788e-01</internalNodes>
          <leafValues>
            1.0480126366019249e-02 -8.9853334426879883e-01</leafValues></_>
        <_>
          <internalNodes>
            0 -1 86 4.4963285326957703e-02</internalNodes>
          <leafValues>
            -7.5307503342628479e-02 1.7711743712425232e-01</leafValues></_>
        <_>
          <internalNodes>
            0 -1 0 7.7147074043750763e-02</internalNodes>
          <leafValues>
            1.2476080097258091e-02 -8.8011717796325684e-01</leafValues></_>
        <_>
          <internalNodes>
            0 -1 58 2.0151713863015175e-02</internalNodes>
          <leafValues>
            -1.7942100763320923e-01 5.7087641209363937e-02</leafValues></_>
        <_>
          <internalNodes>
            0 -1 66 6.8164318799972534e-02</internalNodes>
          <leafValues>
            3.0059335753321648e-02 -3.9042675495147705e-01</leafValues></_>
        <_>
          <internalNodes>
            0 -1 30 5.5984310805797577e-02</internalNodes>
          <leafValues>
            -5.7729505002498627e-02 2.4086496233940125e-01</leafValues></_>
        <_>
          <internalNodes>
            0 -1 121 5.9303540736436844e-02</internalNodes>
          <leafValues>
            7.8995324671268463e-02 -1.6408295929431915e-01</leafValues></_>
        <_>
          <internalNodes>
            0 -1 46 2.1073330193758011e-02</internalNodes>
          <leafValues>
            7.8648805618286133e-02 -1.3411259651184082e-01</leafValues></_>
        <_>
          <internalNodes>
            0 -1 141 2.8031673282384872e-03</internalNodes>
          <leafValues>
            3.5480365157127380e-01 -3.3792298287153244e-02</leafValues></_>
        <_>
          <internalNodes>
            0 -1 130 3.8580734282732010e-02</internalNodes>
          <leafValues>
            8.1215180456638336e-02 -1.3021744787693024e-01</leafValues></_>
        <_>
          <internalNodes>
            0 -1 136 1.5217521227896214e-02</internalNodes>
          <leafValues>
            1.2510392069816589e-01 -8.3820611238479614e-02</leafValues></_>
        <_>
          <internalNodes>
            0 -1 132 8.1771528348326683e-03</internalNodes>
          <leafValues>
            -2.2198899090290070e-01 5.1195979118347168e-02</leafValues></_>
        <_>
          <internalNodes>
            0 -1 114 1.9120995420962572e-03</internalNodes>
          <leafValues>
            3.6269930005073547e-01 -3.4852877259254456e-02</leafValues></_>
        <_>
          <internalNodes>
            0 -1 78 6.5462803468108177e-03</internalNodes>
          <leafValues>
            -2.3680458962917328e-01 5.2513390779495239e-02</leafValues></_>
        <_>
          <internalNodes>
            0 -1 75 7.2624474763870239e-02</internalNodes>
          <leafValues>
            -5.9107385575771332e-02 2.0463129878044128e-01</leafValues></_>
        <_>
          <internalNodes>
            0 -1 127 5.3135741502046585e-02</internalNodes>
          <leafValues>
            -3.7977036088705063e-02 3.2643380761146545e-01</leafValues></_>
        <_>
          <internalNodes>
            0 -1 39 1.1463676393032074e-01</internalNodes>
          <leafValues>
            1.7160626128315926e-02 -6.7495387792587280e-01</leafValues></_>
        <_>
          <internalNodes>
            0 -1 76 1.3277716934680939e-01</internalNodes>
          <leafValues>
            9.6054757013916969e-03 -6.9055211544036865e-01</leafValues></_>
        <_>
          <internalNodes>
            0 -1 106 8.9830806246027350e-05</internalNodes>
          <leafValues>
            -6.8532115221023560e-01 1.1002355255186558e-02</leafValues></_>
        <_>
          <internalNodes>
            0 -1 86 9.1559318825602531e-03</internalNodes>
          <leafValues>
            -3.3039554953575134e-01 2.7674369513988495e-02</leafValues></_>
        <_>
          <internalNodes>
            0 -1 114 1.2383809313178062e-02</internalNodes>
          <leafValues>
            1.2197961658239365e-01 -8.3103291690349579e-02</leafValues></_>
        <_>
          <internalNodes>
            0 -1 59 6.5578380599617958e-03</internalNodes>
          <leafValues>
            2.1761536598205566e-01 -4.2326141148805618e-02</leafValues></_>
        <_>
          <internalNodes>
            0 -1 22 1.3906935229897499e-02</internalNodes>
          <leafValues>
            -2.6845240592956543e-01 4.2100902646780014e-02</leafValues></_>
        <_>
          <internalNodes>
            0 -1 93 1.0892325639724731e-01</internalNodes>
          <leafValues>
            1.2044624425470829e-02 -7.2217679023742676e-01</leafValues></_>
        <_>
          <internalNodes>
            0 -1 27 7.1122631430625916e-02</internalNodes>
          <leafValues>
            7.8421114012598991e-03 -8.3571267127990723e-01</leafValues></_>
        <_>
          <internalNodes>
            0 -1 73 4.1477236896753311e-02</internalNodes>
          <leafValues>
            -5.1471639424562454e-02 1.8729721009731293e-01</leafValues></_>
        <_>
          <internalNodes>
            0 -1 73 5.8387365192174911e-02</internalNodes>
          <leafValues>
            3.1723771244287491e-02 -3.5853698849678040e-01</leafValues></_>
        <_>
          <internalNodes>
            0 -1 134 6.7339323461055756e-02</internalNodes>
          <leafValues>
            -2.4182448163628578e-02 3.5374793410301208e-01</leafValues></_>
        <_>
          <internalNodes>
            0 -1 1 4.9503102898597717e-02</internalNodes>
          <leafValues>
            -4.3511785566806793e-02 1.9565424323081970e-01</leafValues></_>
        <_>
          <internalNodes>
            0 -1 108 9.5113064162433147e-04</internalNodes>
          <leafValues>
            4.2338830232620239e-01 -2.2686403244733810e-02</leafValues></_>
        <_>
          <internalNodes>
            0 -1 77 3.3248886466026306e-02</internalNodes>
          <leafValues>
            -6.5745070576667786e-02 1.4271810650825500e-01</leafValues></_>
        <_>
          <internalNodes>
            0 -1 125 3.4319862723350525e-02</internalNodes>
          <leafValues>
            -4.5547269284725189e-02 1.9825828075408936e-01</leafValues></_>
        <_>
          <internalNodes>
            0 -1 53 4.4015884399414062e-02</internalNodes>
          <leafValues>
            1.9485095515847206e-02 -4.7524738311767578e-01</leafValues></_>
        <_>
          <internalNodes>
            0 -1 141 3.1368482857942581e-02</internalNodes>
          <leafValues>
            -5.0222009420394897e-02 1.7868660390377045e-01</leafValues></_>
        <_>
          <internalNodes>
            0 -1 65 5.7486640289425850e-03</internalNodes>
          <leafValues>
            -3.2993486523628235e-01 2.7750648558139801e-02</leafValues></_>
        <_>
          <internalNodes>
            0 -1 102 4.0152121335268021e-02</internalNodes>
          <leafValues>
            -7.4949815869331360e-02 1.2159103900194168e-01</leafValues></_>
        <_>
          <internalNodes>
            0 -1 115 3.5776499658823013e-02</internalNodes>
          <leafValues>
            -2.9248217120766640e-02 3.0617249011993408e-01</leafValues></_>
        <_>
          <internalNodes>
            0 -1 74 7.8359041363000870e-03</internalNodes>
          <leafValues>
            -4.6778365969657898e-01 2.1493591368198395e-02</leafValues></_>
        <_>
          <internalNodes>
            0 -1 140 4.9320119433104992e-03</internalNodes>
          <leafValues>
            2.4512889981269836e-01 -3.5857670009136200e-02</leafValues></_>
        <_>
          <internalNodes>
            0 -1 97 6.7936323583126068e-02</internalNodes>
          <leafValues>
            8.1430757418274879e-03 -8.1443506479263306e-01</leafValues></_>
        <_>
          <internalNodes>
            0 -1 106 3.5111460834741592e-02</internalNodes>
          <leafValues>
            -4.2490143328905106e-02 1.9378094375133514e-01</leafValues></_>
        <_>
          <internalNodes>
            0 -1 26 7.8462772071361542e-02</internalNodes>
          <leafValues>
            1.4509079977869987e-02 -5.8194833993911743e-01</leafValues></_>
        <_>
          <internalNodes>
            0 -1 53 3.4731808118522167e-03</internalNodes>
          <leafValues>
            2.0957361161708832e-01 -3.6212880164384842e-02</leafValues></_>
        <_>
          <internalNodes>
            0 -1 89 4.5377481728792191e-04</internalNodes>
          <leafValues>
            -5.7942742109298706e-01 1.1816472746431828e-02</leafValues></_>
        <_>
          <internalNodes>
            0 -1 89 3.9687333628535271e-03</internalNodes>
          <leafValues>
            2.4257519841194153e-01 -3.3505588769912720e-02</leafValues></_>
        <_>
          <internalNodes>
            0 -1 15 9.6486769616603851e-03</internalNodes>
          <leafValues>
            -1.7375148832798004e-01 4.5440107583999634e-02</leafValues></_>
        <_>
          <internalNodes>
            0 -1 87 1.7590050119906664e-03</internalNodes>
          <leafValues>
            5.4790771007537842e-01 -1.5887210145592690e-02</leafValues></_>
        <_>
          <internalNodes>
            0 -1 24 3.2584048807621002e-02</internalNodes>
          <leafValues>
            -4.3039616197347641e-02 1.8789689242839813e-01</leafValues></_>
        <_>
          <internalNodes>
            0 -1 23 6.5610021352767944e-02</internalNodes>
          <leafValues>
            1.7264777794480324e-02 -5.4482543468475342e-01</leafValues></_>
        <_>
          <internalNodes>
            0 -1 13 4.1863318532705307e-02</internalNodes>
          <leafValues>
            -1.0882785916328430e-01 6.5504461526870728e-02</leafValues></_>
        <_>
          <internalNodes>
            0 -1 4 7.4808247387409210e-02</internalNodes>
          <leafValues>
            4.5222155749797821e-02 -2.0915895700454712e-01</leafValues></_>
        <_>
          <internalNodes>
            0 -1 137 6.7689726129174232e-03</internalNodes>
          <leafValues>
            2.1679776906967163e-01 -3.8819480687379837e-02</leafValues></_>
        <_>
          <internalNodes>
            0 -1 138 1.1297076940536499e-02</internalNodes>
          <leafValues>
            -2.1140334010124207e-01 4.2590983211994171e-02</leafValues></_>
        <_>
          <internalNodes>
            0 -1 113 3.7674538791179657e-02</internalNodes>
          <leafValues>
            4.9082808196544647e-02 -1.8621706962585449e-01</leafValues></_>
        <_>
          <internalNodes>
            0 -1 41 4.2386934161186218e-02</internalNodes>
          <leafValues>
            -4.1854057461023331e-02 2.4181510508060455e-01</leafValues></_>
        <_>
          <internalNodes>
            0 -1 6 1.7359344288706779e-02</internalNodes>
          <leafValues>
            8.0231249332427979e-02 -1.1616063117980957e-01</leafValues></_>
        <_>
          <internalNodes>
            0 -1 79 2.7080210857093334e-03</internalNodes>
          <leafValues>
            -3.3377888798713684e-01 3.3894717693328857e-02</leafValues></_>
        <_>
          <internalNodes>
            0 -1 23 1.5784988179802895e-02</internalNodes>
          <leafValues>
            1.0560105741024017e-01 -8.2555741071701050e-02</leafValues></_>
        <_>
          <internalNodes>
            0 -1 95 2.3896804079413414e-02</internalNodes>
          <leafValues>
            -7.8194260597229004e-02 1.3725830614566803e-01</leafValues></_>
        <_>
          <internalNodes>
            0 -1 134 2.5342699140310287e-02</internalNodes>
          <leafValues>
            -8.4412649273872375e-02 1.1212232708930969e-01</leafValues></_></weakClassifiers></_>
    <!-- stage 6 -->
    <_>
      <maxWeakCount>100</maxWeakCount>
      <stageThreshold>-1.5934182405471802e+00</stageThreshold>
      <weakClassifiers>
        <_>
          <internalNodes>
            0 -1 52 9.8638124763965607e-03</internalNodes>
          <leafValues>
            -7.7826723456382751e-02 -4.7871416807174683e-01</leafValues></_>
        <_>
          <internalNodes>
            0 -1 75 3.1924705952405930e-02</internalNodes>
          <leafValues>
            -3.0207553505897522e-01 1.0769851505756378e-01</leafValues></_>
        <_>
          <internalNodes>
            0 -1 92 2.1007258445024490e-02</internalNodes>
          <leafValues>
            1.4589187502861023e-01 -1.7497745156288147e-01</leafValues></_>
        <_>
          <internalNodes>
            0 -1 82 2.4931585416197777e-02</internalNodes>
          <leafValues>
            1.3317304849624634e-01 -1.9036872684955597e-01</leafValues></_>
        <_>
          <internalNodes>
            0 -1 104 1.8559504300355911e-02</internalNodes>
          <leafValues>
            1.3249847292900085e-01 -1.6071075201034546e-01</leafValues></_>
        <_>
          <internalNodes>
            0 -1 124 1.0964781977236271e-02</internalNodes>
          <leafValues>
            -1.8137580156326294e-01 1.0069341957569122e-01</leafValues></_>
        <_>
          <internalNodes>
            0 -1 53 2.2748341783881187e-02</internalNodes>
          <leafValues>
            8.7181702256202698e-02 -2.2447013854980469e-01</leafValues></_>
        <_>
          <internalNodes>
            0 -1 99 1.7503794282674789e-02</internalNodes>
          <leafValues>
            -1.2625090777873993e-01 1.2425280362367630e-01</leafValues></_>
        <_>
          <internalNodes>
            0 -1 20 6.7174158990383148e-02</internalNodes>
          <leafValues>
            1.5549404546618462e-02 -7.0622980594635010e-01</leafValues></_>
        <_>
          <internalNodes>
            0 -1 127 8.5214957594871521e-02</internalNodes>
          <leafValues>
            -2.5747315958142281e-02 6.2601530551910400e-01</leafValues></_>
        <_>
          <internalNodes>
            0 -1 86 1.9716989248991013e-02</internalNodes>
          <leafValues>
            -2.0562392473220825e-01 6.3803255558013916e-02</leafValues></_>
        <_>
          <internalNodes>
            0 -1 114 6.4359754323959351e-03</internalNodes>
          <leafValues>
            2.3085954785346985e-01 -6.7170456051826477e-02</leafValues></_>
        <_>
          <internalNodes>
            0 -1 5 4.7366552054882050e-02</internalNodes>
          <leafValues>
            3.2820086926221848e-02 -3.6676788330078125e-01</leafValues></_>
        <_>
          <internalNodes>
            0 -1 46 3.5186998546123505e-02</internalNodes>
          <leafValues>
            4.1628215461969376e-02 -2.6136931777000427e-01</leafValues></_>
        <_>
          <internalNodes>
            0 -1 118 2.4827990680932999e-02</internalNodes>
          <leafValues>
            -7.9021707177162170e-02 1.5941597521305084e-01</leafValues></_>
        <_>
          <internalNodes>
            0 -1 66 8.2851592451334000e-03</internalNodes>
          <leafValues>
            -2.7724757790565491e-01 3.6734201014041901e-02</leafValues></_>
        <_>
          <internalNodes>
            0 -1 137 2.1507240831851959e-02</internalNodes>
          <leafValues>
            1.1012852936983109e-01 -1.3637594878673553e-01</leafValues></_>
        <_>
          <internalNodes>
            0 -1 19 1.9930782727897167e-03</internalNodes>
          <leafValues>
            4.1549858450889587e-01 -2.3678185418248177e-02</leafValues></_>
        <_>
          <internalNodes>
            0 -1 37 4.8349849879741669e-02</internalNodes>
          <leafValues>
            -4.8771176487207413e-02 2.5568595528602600e-01</leafValues></_>
        <_>
          <internalNodes>
            0 -1 22 1.2196768075227737e-01</internalNodes>
          <leafValues>
            1.5829114243388176e-02 -6.9205433130264282e-01</leafValues></_>
        <_>
          <internalNodes>
            0 -1 45 1.9253201782703400e-02</internalNodes>
          <leafValues>
            6.8636476993560791e-02 -1.6559995710849762e-01</leafValues></_>
        <_>
          <internalNodes>
            0 -1 107 9.0847127139568329e-03</internalNodes>
          <leafValues>
            -2.3124924302101135e-01 5.5155958980321884e-02</leafValues></_>
        <_>
          <internalNodes>
            0 -1 39 1.4438804239034653e-02</internalNodes>
          <leafValues>
            -3.2582718133926392e-01 3.4430835396051407e-02</leafValues></_>
        <_>
          <internalNodes>
            0 -1 39 1.0999490320682526e-01</internalNodes>
          <leafValues>
            1.8976569175720215e-02 -5.8688825368881226e-01</leafValues></_>
        <_>
          <internalNodes>
            0 -1 11 4.1064545512199402e-02</internalNodes>
          <leafValues>
            5.1673881709575653e-02 -2.1163636445999146e-01</leafValues></_>
        <_>
          <internalNodes>
            0 -1 84 2.4030975997447968e-02</internalNodes>
          <leafValues>
            -1.5625415742397308e-01 6.7859970033168793e-02</leafValues></_>
        <_>
          <internalNodes>
            0 -1 127 2.1826349198818207e-02</internalNodes>
          <leafValues>
            -1.0220339894294739e-01 9.1620862483978271e-02</leafValues></_>
        <_>
          <internalNodes>
            0 -1 46 4.5503862202167511e-03</internalNodes>
          <leafValues>
            2.4155867099761963e-01 -4.1904632002115250e-02</leafValues></_>
        <_>
          <internalNodes>
            0 -1 80 2.5631578639149666e-02</internalNodes>
          <leafValues>
            5.8582331985235214e-02 -1.6453617811203003e-01</leafValues></_>
        <_>
          <internalNodes>
            0 -1 73 2.3513484746217728e-02</internalNodes>
          <leafValues>
            -1.0521146655082703e-01 1.0254095494747162e-01</leafValues></_>
        <_>
          <internalNodes>
            0 -1 91 5.4876692593097687e-03</internalNodes>
          <leafValues>
            2.2323666512966156e-01 -4.3443165719509125e-02</leafValues></_>
        <_>
          <internalNodes>
            0 -1 121 8.5013406351208687e-03</internalNodes>
          <leafValues>
            -5.7633084058761597e-01 1.6611168161034584e-02</leafValues></_>
        <_>
          <internalNodes>
            0 -1 125 1.3237825594842434e-02</internalNodes>
          <leafValues>
            -1.2765726447105408e-01 7.6745063066482544e-02</leafValues></_>
        <_>
          <internalNodes>
            0 -1 31 2.6621475815773010e-02</internalNodes>
          <leafValues>
            -1.1475156247615814e-01 7.0463456213474274e-02</leafValues></_>
        <_>
          <internalNodes>
            0 -1 130 1.1103037744760513e-02</internalNodes>
          <leafValues>
            2.2568248212337494e-01 -4.3124306946992874e-02</leafValues></_>
        <_>
          <internalNodes>
            0 -1 26 6.0183620080351830e-03</internalNodes>
          <leafValues>
            -2.8046762943267822e-01 3.1558915972709656e-02</leafValues></_>
        <_>
          <internalNodes>
            0 -1 58 2.7576219290494919e-02</internalNodes>
          <leafValues>
            -1.2307520955801010e-01 8.3373792469501495e-02</leafValues></_>
        <_>
          <internalNodes>
            0 -1 88 7.5126156210899353e-02</internalNodes>
          <leafValues>
            8.9076701551675797e-03 -9.2035055160522461e-01</leafValues></_>
        <_>
          <internalNodes>
            0 -1 24 2.8466219082474709e-03</internalNodes>
          <leafValues>
            3.3496221899986267e-01 -2.8744423761963844e-02</leafValues></_>
        <_>
          <internalNodes>
            0 -1 86 6.0031428933143616e-02</internalNodes>
          <leafValues>
            -3.6969028413295746e-02 2.2530528903007507e-01</leafValues></_>
        <_>
          <internalNodes>
            0 -1 108 5.1399290561676025e-02</internalNodes>
          <leafValues>
            -2.0778330042958260e-02 4.0745335817337036e-01</leafValues></_>
        <_>
          <internalNodes>
            0 -1 132 6.3673883676528931e-02</internalNodes>
          <leafValues>
            -2.3463094606995583e-02 3.5987517237663269e-01</leafValues></_>
        <_>
          <internalNodes>
            0 -1 37 1.7881260719150305e-03</internalNodes>
          <leafValues>
            -5.6003707647323608e-01 1.2946978211402893e-02</leafValues></_>
        <_>
          <internalNodes>
            0 -1 40 4.5087657868862152e-02</internalNodes>
          <leafValues>
            -8.3237998187541962e-02 1.0525658726692200e-01</leafValues></_>
        <_>
          <internalNodes>
            0 -1 100 5.4656371474266052e-02</internalNodes>
          <leafValues>
            -2.3411527276039124e-02 2.9945510625839233e-01</leafValues></_>
        <_>
          <internalNodes>
            0 -1 137 5.1852252334356308e-02</internalNodes>
          <leafValues>
            2.6063511148095131e-02 -3.7358704209327698e-01</leafValues></_>
        <_>
          <internalNodes>
            0 -1 2 4.0550485253334045e-02</internalNodes>
          <leafValues>
            -7.8231237828731537e-02 1.1754707247018814e-01</leafValues></_>
        <_>
          <internalNodes>
            0 -1 38 5.6559428572654724e-02</internalNodes>
          <leafValues>
            4.2213156819343567e-02 -2.5055319070816040e-01</leafValues></_>
        <_>
          <internalNodes>
            0 -1 123 6.1380639672279358e-02</internalNodes>
          <leafValues>
            -3.4072905778884888e-02 2.6539131999015808e-01</leafValues></_>
        <_>
          <internalNodes>
            0 -1 65 6.4406096935272217e-03</internalNodes>
          <leafValues>
            -2.9082900285720825e-01 3.5090588033199310e-02</leafValues></_>
        <_>
          <internalNodes>
            0 -1 29 3.5984162241220474e-03</internalNodes>
          <leafValues>
            3.5231426358222961e-01 -2.6611110195517540e-02</leafValues></_>
        <_>
          <internalNodes>
            0 -1 19 4.4384967535734177e-02</internalNodes>
          <leafValues>
            -3.0311608687043190e-02 2.5059473514556885e-01</leafValues></_>
        <_>
          <internalNodes>
            0 -1 43 1.6370961442589760e-02</internalNodes>
          <leafValues>
            -9.3654051423072815e-02 8.7201632559299469e-02</leafValues></_>
        <_>
          <internalNodes>
            0 -1 115 2.8419047594070435e-02</internalNodes>
          <leafValues>
            4.5651838183403015e-02 -2.1815483272075653e-01</leafValues></_>
        <_>
          <internalNodes>
            0 -1 30 3.2111192122101784e-03</internalNodes>
          <leafValues>
            -4.5661196112632751e-01 1.7460452392697334e-02</leafValues></_>
        <_>
          <internalNodes>
            0 -1 141 3.1740441918373108e-03</internalNodes>
          <leafValues>
            2.9728671908378601e-01 -2.9399234801530838e-02</leafValues></_>
        <_>
          <internalNodes>
            0 -1 32 7.3615841567516327e-02</internalNodes>
          <leafValues>
            -1.1294092051684856e-02 6.4324277639389038e-01</leafValues></_>
        <_>
          <internalNodes>
            0 -1 136 3.9037468377500772e-04</internalNodes>
          <leafValues>
            6.1846750974655151e-01 -9.7401840612292290e-03</leafValues></_>
        <_>
          <internalNodes>
            0 -1 140 4.9415603280067444e-02</internalNodes>
          <leafValues>
            1.9388962537050247e-02 -3.6546054482460022e-01</leafValues></_>
        <_>
          <internalNodes>
            0 -1 104 3.9638757705688477e-02</internalNodes>
          <leafValues>
            -4.0098428726196289e-02 2.4072524905204773e-01</leafValues></_>
        <_>
          <internalNodes>
            0 -1 109 1.4517873525619507e-02</internalNodes>
          <leafValues>
            1.0258840769529343e-01 -7.6613172888755798e-02</leafValues></_>
        <_>
          <internalNodes>
            0 -1 35 5.5193197913467884e-03</internalNodes>
          <leafValues>
            -2.4548353254795074e-01 3.4719157963991165e-02</leafValues></_>
        <_>
          <internalNodes>
            0 -1 102 4.0225982666015625e-02</internalNodes>
          <leafValues>
            -7.4318163096904755e-02 1.2133654952049255e-01</leafValues></_>
        <_>
          <internalNodes>
            0 -1 30 1.0163728892803192e-01</internalNodes>
          <leafValues>
            1.6250578686594963e-02 -5.5307501554489136e-01</leafValues></_>
        <_>
          <internalNodes>
            0 -1 32 2.0166905596852303e-03</internalNodes>
          <leafValues>
            5.4665470123291016e-01 -2.0940287038683891e-02</leafValues></_>
        <_>
          <internalNodes>
            0 -1 12 3.1369917094707489e-02</internalNodes>
          <leafValues>
            -1.1985354125499725e-01 7.3830798268318176e-02</leafValues></_>
        <_>
          <internalNodes>
            0 -1 139 2.2771512158215046e-03</internalNodes>
          <leafValues>
            -8.4986090660095215e-01 9.4766682013869286e-03</leafValues></_>
        <_>
          <internalNodes>
            0 -1 8 5.2646282128989697e-03</internalNodes>
          <leafValues>
            -2.4418877065181732e-01 2.9757704585790634e-02</leafValues></_>
        <_>
          <internalNodes>
            0 -1 83 6.3236556947231293e-02</internalNodes>
          <leafValues>
            -1.9770966842770576e-02 4.3770319223403931e-01</leafValues></_>
        <_>
          <internalNodes>
            0 -1 70 1.8211472779512405e-02</internalNodes>
          <leafValues>
            -9.9667057394981384e-02 8.0695994198322296e-02</leafValues></_>
        <_>
          <internalNodes>
            0 -1 71 6.6915526986122131e-02</internalNodes>
          <leafValues>
            2.6741761714220047e-02 -3.5514724254608154e-01</leafValues></_>
        <_>
          <internalNodes>
            0 -1 140 5.0340224988758564e-03</internalNodes>
          <leafValues>
            2.5832808017730713e-01 -3.5450585186481476e-02</leafValues></_>
        <_>
          <internalNodes>
            0 -1 59 4.7883313149213791e-02</internalNodes>
          <leafValues>
            2.4993317201733589e-02 -3.3135342597961426e-01</leafValues></_>
        <_>
          <internalNodes>
            0 -1 53 1.8456089310348034e-03</internalNodes>
          <leafValues>
            3.0114132165908813e-01 -2.8066355735063553e-02</leafValues></_>
        <_>
          <internalNodes>
            0 -1 15 9.6470899879932404e-03</internalNodes>
          <leafValues>
            -1.9835108518600464e-01 4.3123770505189896e-02</leafValues></_>
        <_>
          <internalNodes>
            0 -1 78 4.6938233077526093e-02</internalNodes>
          <leafValues>
            2.2962110117077827e-02 -3.8882935047149658e-01</leafValues></_>
        <_>
          <internalNodes>
            0 -1 141 7.1503251791000366e-02</internalNodes>
          <leafValues>
            -2.0567649975419044e-02 4.3927741050720215e-01</leafValues></_>
        <_>
          <internalNodes>
            0 -1 33 8.3229929208755493e-02</internalNodes>
          <leafValues>
            1.2433865107595921e-02 -6.5407466888427734e-01</leafValues></_>
        <_>
          <internalNodes>
            0 -1 142 1.4006624696776271e-03</internalNodes>
          <leafValues>
            4.1318702697753906e-01 -2.0969221368432045e-02</leafValues></_>
        <_>
          <internalNodes>
            0 -1 71 4.2187709361314774e-02</internalNodes>
          <leafValues>
            -4.8961970955133438e-02 1.6674219071865082e-01</leafValues></_>
        <_>
          <internalNodes>
            0 -1 68 4.0053248405456543e-02</internalNodes>
          <leafValues>
            -4.3320208787918091e-02 2.0655445754528046e-01</leafValues></_>
        <_>
          <internalNodes>
            0 -1 22 6.0494653880596161e-03</internalNodes>
          <leafValues>
            -7.0944547653198242e-01 1.2999024242162704e-02</leafValues></_>
        <_>
          <internalNodes>
            0 -1 42 3.0996659770607948e-02</internalNodes>
          <leafValues>
            -5.0448946654796600e-02 1.5905103087425232e-01</leafValues></_>
        <_>
          <internalNodes>
            0 -1 129 6.0484442859888077e-02</internalNodes>
          <leafValues>
            -3.1167838722467422e-02 2.8011310100555420e-01</leafValues></_>
        <_>
          <internalNodes>
            0 -1 39 2.7513259556144476e-03</internalNodes>
          <leafValues>
            -1. 9.4687920063734055e-03</leafValues></_>
        <_>
          <internalNodes>
            0 -1 20 3.3475039526820183e-03</internalNodes>
          <leafValues>
            3.4024086594581604e-01 -2.5707004591822624e-02</leafValues></_>
        <_>
          <internalNodes>
            0 -1 131 4.1914862231351435e-04</internalNodes>
          <leafValues>
            -8.1904870271682739e-01 1.2756638228893280e-02</leafValues></_>
        <_>
          <internalNodes>
            0 -1 136 6.8821944296360016e-02</internalNodes>
          <leafValues>
            -2.3615408688783646e-02 4.0339964628219604e-01</leafValues></_>
        <_>
          <internalNodes>
            0 -1 137 9.8299272358417511e-03</internalNodes>
          <leafValues>
            1.4921565353870392e-01 -5.0971247255802155e-02</leafValues></_>
        <_>
          <internalNodes>
            0 -1 74 3.0902829021215439e-02</internalNodes>
          <leafValues>
            -9.0133123099803925e-02 8.5338950157165527e-02</leafValues></_>
        <_>
          <internalNodes>
            0 -1 110 1.3133140280842781e-02</internalNodes>
          <leafValues>
            1.5800736844539642e-01 -5.5547285825014114e-02</leafValues></_>
        <_>
          <internalNodes>
            0 -1 92 1.0346183553338051e-02</internalNodes>
          <leafValues>
            -1.7746379971504211e-01 5.2408847957849503e-02</leafValues></_>
        <_>
          <internalNodes>
            0 -1 20 8.7811760604381561e-02</internalNodes>
          <leafValues>
            -7.5374613516032696e-03 8.6890399456024170e-01</leafValues></_>
        <_>
          <internalNodes>
            0 -1 11 1.5475018881261349e-03</internalNodes>
          <leafValues>
            -8.2948416471481323e-01 1.0447946377098560e-02</leafValues></_>
        <_>
          <internalNodes>
            0 -1 83 4.0130749344825745e-02</internalNodes>
          <leafValues>
            3.6971557885408401e-02 -1.9181583821773529e-01</leafValues></_>
        <_>
          <internalNodes>
            0 -1 70 4.0410296060144901e-04</internalNodes>
          <leafValues>
            -8.6398541927337646e-01 7.8509813174605370e-03</leafValues></_>
        <_>
          <internalNodes>
            0 -1 95 2.8068255633115768e-02</internalNodes>
          <leafValues>
            5.4599028080701828e-02 -1.3582810759544373e-01</leafValues></_>
        <_>
          <internalNodes>
            0 -1 23 5.3840681910514832e-02</internalNodes>
          <leafValues>
            -2.2504417225718498e-02 3.8247612118721008e-01</leafValues></_>
        <_>
          <internalNodes>
            0 -1 11 8.5762694478034973e-02</internalNodes>
          <leafValues>
            -8.3336271345615387e-03 7.2196245193481445e-01</leafValues></_>
        <_>
          <internalNodes>
            0 -1 74 1.0424102842807770e-01</internalNodes>
          <leafValues>
            1.0334723629057407e-02 -8.4607970714569092e-01</leafValues></_></weakClassifiers></_>
    <!-- stage 7 -->
    <_>
      <maxWeakCount>100</maxWeakCount>
      <stageThreshold>-1.5125091075897217e+00</stageThreshold>
      <weakClassifiers>
        <_>
          <internalNodes>
            0 -1 64 6.5490722656250000e-02</internalNodes>
          <leafValues>
            -3.7814143300056458e-01 3.5537189245223999e-01</leafValues></_>
        <_>
          <internalNodes>
            0 -1 132 4.1621223092079163e-02</internalNodes>
          <leafValues>
            -9.5233343541622162e-02 3.9916363358497620e-01</leafValues></_>
        <_>
          <internalNodes>
            0 -1 1 4.9198873341083527e-02</internalNodes>
          <leafValues>
            -7.6956592500209808e-02 3.4809094667434692e-01</leafValues></_>
        <_>
          <internalNodes>
            0 -1 126 3.8273297250270844e-02</internalNodes>
          <leafValues>
            -7.4427455663681030e-02 3.4132882952690125e-01</leafValues></_>
        <_>
          <internalNodes>
            0 -1 92 4.0525868535041809e-03</internalNodes>
          <leafValues>
            5.1001465320587158e-01 -3.7584077566862106e-02</leafValues></_>
        <_>
          <internalNodes>
            0 -1 109 4.6039288863539696e-03</internalNodes>
          <leafValues>
            3.1008920073509216e-01 -5.3749095648527145e-02</leafValues></_>
        <_>
          <internalNodes>
            0 -1 67 3.3777855336666107e-02</internalNodes>
          <leafValues>
            1.1899242550134659e-01 -1.3503614068031311e-01</leafValues></_>
        <_>
          <internalNodes>
            0 -1 20 2.2935200482606888e-02</internalNodes>
          <leafValues>
            1.0400786995887756e-01 -1.3404460251331329e-01</leafValues></_>
        <_>
          <internalNodes>
            0 -1 6 3.4762814640998840e-02</internalNodes>
          <leafValues>
            9.5340326428413391e-02 -3.0535441637039185e-01</leafValues></_>
        <_>
          <internalNodes>
            0 -1 53 8.3581916987895966e-03</internalNodes>
          <leafValues>
            1.1791911721229553e-01 -1.3811439275741577e-01</leafValues></_>
        <_>
          <internalNodes>
            0 -1 123 1.6397114843130112e-02</internalNodes>
          <leafValues>
            -1.5498179197311401e-01 1.4059320092201233e-01</leafValues></_>
        <_>
          <internalNodes>
            0 -1 118 1.9387755542993546e-02</internalNodes>
          <leafValues>
            -1.1172215640544891e-01 1.3948729634284973e-01</leafValues></_>
        <_>
          <internalNodes>
            0 -1 55 2.8862874954938889e-02</internalNodes>
          <leafValues>
            -7.1269549429416656e-02 1.9382938742637634e-01</leafValues></_>
        <_>
          <internalNodes>
            0 -1 30 7.0699246134608984e-04</internalNodes>
          <leafValues>
            -8.4160894155502319e-01 1.3983252458274364e-02</leafValues></_>
        <_>
          <internalNodes>
            0 -1 10 1.4293482527136803e-02</internalNodes>
          <leafValues>
            1.3122433423995972e-01 -1.0242217034101486e-01</leafValues></_>
        <_>
          <internalNodes>
            0 -1 42 4.2258419096469879e-02</internalNodes>
          <leafValues>
            -3.6973990499973297e-02 3.3612340688705444e-01</leafValues></_>
        <_>
          <internalNodes>
            0 -1 17 3.7299897521734238e-03</internalNodes>
          <leafValues>
            -2.8595978021621704e-01 4.4558573514223099e-02</leafValues></_>
        <_>
          <internalNodes>
            0 -1 51 2.9067667201161385e-03</internalNodes>
          <leafValues>
            4.1673421859741211e-01 -4.0465302765369415e-02</leafValues></_>
        <_>
          <internalNodes>
            0 -1 2 3.2557301223278046e-02</internalNodes>
          <leafValues>
            -1.2462886422872543e-01 1.0579077899456024e-01</leafValues></_>
        <_>
          <internalNodes>
            0 -1 83 3.6535650491714478e-02</internalNodes>
          <leafValues>
            6.3717633485794067e-02 -2.1540834009647369e-01</leafValues></_>
        <_>
          <internalNodes>
            0 -1 59 2.1894199773669243e-02</internalNodes>
          <leafValues>
            9.7784973680973053e-02 -1.2920668721199036e-01</leafValues></_>
        <_>
          <internalNodes>
            0 -1 8 3.2472498714923859e-02</internalNodes>
          <leafValues>
            5.9884775429964066e-02 -2.3724374175071716e-01</leafValues></_>
        <_>
