<?xml version="1.0"?>
<opencv_storage>
<stage11>
  <maxWeakCount>100</maxWeakCount>
  <stageThreshold>-1.6652359962463379e+00</stageThreshold>
  <weakClassifiers>
    <_>
      <internalNodes>
        0 -1 134 3.7710867822170258e-02</internalNodes>
      <leafValues>
        -4.3277311325073242e-01 3.4653466194868088e-02</leafValues></_>
    <_>
      <internalNodes>
        0 -1 51 1.3664832338690758e-02</internalNodes>
      <leafValues>
        1.9589723646640778e-01 -1.7625817656517029e-01</leafValues></_>
    <_>
      <internalNodes>
        0 -1 67 2.3097723722457886e-02</internalNodes>
      <leafValues>
        2.1039164066314697e-01 -1.1644116789102554e-01</leafValues></_>
    <_>
      <internalNodes>
        0 -1 20 2.6348389685153961e-02</internalNodes>
      <leafValues>
        1.0325859487056732e-01 -1.8448562920093536e-01</leafValues></_>
    <_>
      <internalNodes>
        0 -1 59 2.4034602567553520e-02</internalNodes>
      <leafValues>
        1.0713838785886765e-01 -1.7629820108413696e-01</leafValues></_>
    <_>
      <internalNodes>
        0 -1 99 7.4696224182844162e-03</internalNodes>
      <leafValues>
        -2.6416680216789246e-01 7.7217929065227509e-02</leafValues></_>
    <_>
      <internalNodes>
        0 -1 3 6.8970277905464172e-02</internalNodes>
      <leafValues>
        -4.3976243585348129e-02 2.4738471210002899e-01</leafValues></_>
    <_>
      <internalNodes>
        0 -1 140 5.2892477251589298e-03</internalNodes>
      <leafValues>
        2.9452258348464966e-01 -5.5117651820182800e-02</leafValues></_>
    <_>
      <internalNodes>
        0 -1 87 5.3281649947166443e-02</internalNodes>
      <leafValues>
        -5.0223581492900848e-02 3.2922318577766418e-01</leafValues></_>
    <_>
      <internalNodes>
        0 -1 110 3.2742498442530632e-03</internalNodes>
      <leafValues>
        5.1240271329879761e-01 -2.7494857087731361e-02</leafValues></_>
    <_>
      <internalNodes>
        0 -1 1 4.9088332802057266e-02</internalNodes>
      <leafValues>
        -5.0604086369276047e-02 2.1179172396659851e-01</leafValues></_>
    <_>
      <internalNodes>
        0 -1 48 6.0710869729518890e-02</internalNodes>
      <leafValues>
        -4.5166973024606705e-02 1.9577074050903320e-01</leafValues></_>
    <_>
      <internalNodes>
        0 -1 6 5.0257895054528490e-05</internalNodes>
      <leafValues>
        -7.0505368709564209e-01 7.4663707055151463e-03</leafValues></_>
    <_>
      <internalNodes>
        0 -1 136 6.8811029195785522e-02</internalNodes>
      <leafValues>
        -2.2735469043254852e-02 4.4073057174682617e-01</leafValues></_>
    <_>
      <internalNodes>
        0 -1 4 1.5185153484344482e-01</internalNodes>
      <leafValues>
        1.1029737070202827e-02 -8.3093672990798950e-01</leafValues></_>
    <_>
      <internalNodes>
        0 -1 110 2.3830387741327286e-02</internalNodes>
      <leafValues>
        9.0516455471515656e-02 -9.7609460353851318e-02</leafValues></_>
    <_>
      <internalNodes>
        0 -1 74 2.9144883155822754e-02</internalNodes>
      <leafValues>
        -1.1458513885736465e-01 9.0110421180725098e-02</leafValues></_>
    <_>
      <internalNodes>
        0 -1 117 5.8010746724903584e-03</internalNodes>
      <leafValues>
        -1.9899189472198486e-01 3.7972781807184219e-02</leafValues></_>
    <_>
      <internalNodes>
        0 -1 45 1.5790328383445740e-02</internalNodes>
      <leafValues>
        7.2658419609069824e-02 -1.3081774115562439e-01</leafValues></_>
    <_>
      <internalNodes>
        0 -1 62 3.7419723812490702e-03</internalNodes>
      <leafValues>
        -3.1302982568740845e-01 2.9735863208770752e-02</leafValues></_>
    <_>
      <internalNodes>
        0 -1 40 1.8037630245089531e-02</internalNodes>
      <leafValues>
        -2.5647395849227905e-01 3.2351382076740265e-02</leafValues></_>
    <_>
      <internalNodes>
        0 -1 49 2.5758005678653717e-02</internalNodes>
      <leafValues>
        1.7208285629749298e-01 -4.8065770417451859e-02</leafValues></_>
    <_>
      <internalNodes>
        0 -1 134 3.6259807646274567e-02</internalNodes>
      <leafValues>
        5.6077692657709122e-02 -1.6221606731414795e-01</leafValues></_>
    <_>
      <internalNodes>
        0 -1 137 1.2868987396359444e-02</internalNodes>
      <leafValues>
        1.1472684890031815e-01 -6.3386648893356323e-02</leafValues></_>
    <_>
      <internalNodes>
        0 -1 115 9.5593091100454330e-03</internalNodes>
      <leafValues>
        1.1251831799745560e-01 -6.2365248799324036e-02</leafValues></_>
    <_>
      <internalNodes>
        0 -1 43 4.6551558189094067e-03</internalNodes>
      <leafValues>
        -2.3875634372234344e-01 3.4555997699499130e-02</leafValues></_>
    <_>
      <internalNodes>
        0 -1 111 1.3936415314674377e-01</internalNodes>
      <leafValues>
        1.0277006775140762e-02 -7.4724590778350830e-01</leafValues></_>
    <_>
      <internalNodes>
        0 -1 5 4.6894773840904236e-02</internalNodes>
      <leafValues>
        2.3386528715491295e-02 -2.7713567018508911e-01</leafValues></_>
    <_>
      <internalNodes>
        0 -1 12 6.1721898615360260e-02</internalNodes>
      <leafValues>
        -4.6474039554595947e-02 1.6420996189117432e-01</leafValues></_>
    <_>
      <internalNodes>
        0 -1 127 5.5431656539440155e-02</internalNodes>
      <leafValues>
        -2.6112109422683716e-02 2.5384342670440674e-01</leafValues></_>
    <_>
      <internalNodes>
        0 -1 138 2.9064444825053215e-03</internalNodes>
      <leafValues>
        -4.2613989114761353e-01 1.5453733503818512e-02</leafValues></_>
    <_>
      <internalNodes>
        0 -1 15 8.4971059113740921e-03</internalNodes>
      <leafValues>
        -1.9747997820377350e-01 3.2557886093854904e-02</leafValues></_>
    <_>
      <internalNodes>
        0 -1 71 4.4861465692520142e-02</internalNodes>
      <leafValues>
        -3.8120090961456299e-02 1.9973531365394592e-01</leafValues></_>
    <_>
      <internalNodes>
        0 -1 16 8.6494740098714828e-03</internalNodes>
      <leafValues>
        1.3663113117218018e-01 -5.6160513311624527e-02</leafValues></_>
    <_>
      <internalNodes>
        0 -1 27 7.3656067252159119e-02</internalNodes>
      <leafValues>
        7.0938072167336941e-03 -1.</leafValues></_>
    <_>
      <internalNodes>
        0 -1 70 8.0165222287178040e-02</internalNodes>
      <leafValues>
        8.3214566111564636e-03 -6.1529916524887085e-01</leafValues></_>
    <_>
      <internalNodes>
        0 -1 141 4.5866481959819794e-02</internalNodes>
      <leafValues>
        -3.2564323395490646e-02 2.3121625185012817e-01</leafValues></_>
    <_>
      <internalNodes>
        0 -1 29 6.6638499498367310e-02</internalNodes>
      <leafValues>
        -1.6158761456608772e-02 4.3561071157455444e-01</leafValues></_>
    <_>
      <internalNodes>
        0 -1 107 9.0851802378892899e-03</internalNodes>
      <leafValues>
        -1.6139793395996094e-01 4.2442426085472107e-02</leafValues></_>
    <_>
      <internalNodes>
        0 -1 31 6.2878489494323730e-02</internalNodes>
      <leafValues>
        -4.7140192240476608e-02 1.6979429125785828e-01</leafValues></_>
    <_>
      <internalNodes>
        0 -1 70 2.5691668270155787e-04</internalNodes>
      <leafValues>
        -7.7865666151046753e-01 1.2773875147104263e-02</leafValues></_>
    <_>
      <internalNodes>
        0 -1 105 5.5003175511956215e-03</internalNodes>
      <leafValues>
        2.2455103695392609e-01 -3.7913974374532700e-02</leafValues></_>
    <_>
      <internalNodes>
        0 -1 123 5.5599347688257694e-03</internalNodes>
      <leafValues>
        -2.8092676401138306e-01 3.0640278011560440e-02</leafValues></_>
    <_>
      <internalNodes>
        0 -1 42 2.2605393314734101e-04</internalNodes>
      <leafValues>
        -6.6898643970489502e-01 1.0624018497765064e-02</leafValues></_>
    <_>
      <internalNodes>
        0 -1 133 4.5229475945234299e-02</internalNodes>
      <leafValues>
        -3.2929897308349609e-02 2.2803954780101776e-01</leafValues></_>
    <_>
      <internalNodes>
        0 -1 60 1.2852070853114128e-02</internalNodes>
      <leafValues>
        1.2793380022048950e-01 -6.5222263336181641e-02</leafValues></_>
    <_>
      <internalNodes>
        0 -1 32 4.0743239223957062e-02</internalNodes>
      <leafValues>
        3.2142866402864456e-02 -1.9915366172790527e-01</leafValues></_>
    <_>
      <internalNodes>
        0 -1 122 3.8710594177246094e-02</internalNodes>
      <leafValues>
        -5.8270677924156189e-02 1.2260235100984573e-01</leafValues></_>
    <_>
      <internalNodes>
        0 -1 104 1.8542606383562088e-02</internalNodes>
      <leafValues>
        8.1988736987113953e-02 -7.7825687825679779e-02</leafValues></_>
    <_>
      <internalNodes>
        0 -1 37 9.3664415180683136e-04</internalNodes>
      <leafValues>
        -6.2258082628250122e-01 1.0595692321658134e-02</leafValues></_>
    <_>
      <internalNodes>
        0 -1 116 5.3695952519774437e-03</internalNodes>
      <leafValues>
        1.6917945444583893e-01 -4.3391481041908264e-02</leafValues></_>
    <_>
      <internalNodes>
        0 -1 96 2.3463059216737747e-02</internalNodes>
      <leafValues>
        -6.7441850900650024e-02 1.2036429345607758e-01</leafValues></_>
    <_>
      <internalNodes>
        0 -1 72 6.9423867389559746e-03</internalNodes>
      <leafValues>
        -1.7492119967937469e-01 3.5198446363210678e-02</leafValues></_>
    <_>
      <internalNodes>
        0 -1 26 5.8124405331909657e-03</internalNodes>
      <leafValues>
        -2.4087329208850861e-01 2.4702282622456551e-02</leafValues></_>
    <_>
      <internalNodes>
        0 -1 19 4.4759130105376244e-03</internalNodes>
      <leafValues>
        2.2663824260234833e-01 -3.4115217626094818e-02</leafValues></_>
    <_>
      <internalNodes>
        0 -1 83 6.2628671526908875e-02</internalNodes>
      <leafValues>
        -1.4459544792771339e-02 4.4665127992630005e-01</leafValues></_>
    <_>
      <internalNodes>
        0 -1 129 4.2375039309263229e-02</internalNodes>
      <leafValues>
        -5.0261244177818298e-02 1.3473437726497650e-01</leafValues></_>
    <_>
      <internalNodes>
        0 -1 67 9.3397051095962524e-02</internalNodes>
      <leafValues>
        2.0373176783323288e-02 -3.7634244561195374e-01</leafValues></_>
    <_>
      <internalNodes>
        0 -1 28 5.1286667585372925e-02</internalNodes>
      <leafValues>
        2.4162184447050095e-02 -2.8201815485954285e-01</leafValues></_>
    <_>
      <internalNodes>
        0 -1 5 2.0508179441094398e-03</internalNodes>
      <leafValues>
        4.5319950580596924e-01 -1.7765508964657784e-02</leafValues></_>
    <_>
      <internalNodes>
        0 -1 56 1.5594562515616417e-02</internalNodes>
      <leafValues>
        1.0001300275325775e-01 -6.4328700304031372e-02</leafValues></_>
    <_>
      <internalNodes>
        0 -1 64 7.2780624032020569e-02</internalNodes>
      <leafValues>
        -2.0235393196344376e-02 3.5543784499168396e-01</leafValues></_>
    <_>
      <internalNodes>
        0 -1 137 3.6831632256507874e-02</internalNodes>
      <leafValues>
        3.5218100994825363e-02 -1.9159929454326630e-01</leafValues></_>
    <_>
      <internalNodes>
        0 -1 102 4.0134511888027191e-02</internalNodes>
      <leafValues>
        -6.7512750625610352e-02 1.0879312455654144e-01</leafValues></_>
    <_>
      <internalNodes>
        0 -1 22 1.2176976352930069e-01</internalNodes>
      <leafValues>
        1.1187416501343250e-02 -5.2630048990249634e-01</leafValues></_>
    <_>
      <internalNodes>
        0 -1 137 1.2610560224857181e-04</internalNodes>
      <leafValues>
        -7.3418641090393066e-01 6.5943934023380280e-03</leafValues></_>
    <_>
      <internalNodes>
        0 -1 141 1.2716400623321533e-01</internalNodes>
      <leafValues>
        -8.2930773496627808e-03 1.</leafValues></_>
    <_>
      <internalNodes>
        0 -1 83 3.4121815115213394e-03</internalNodes>
      <leafValues>
        -3.3926174044609070e-01 1.9028361886739731e-02</leafValues></_>
    <_>
      <internalNodes>
        0 -1 110 1.7228875309228897e-02</internalNodes>
      <leafValues>
        1.0703084617853165e-01 -5.6428398936986923e-02</leafValues></_>
    <_>
      <internalNodes>
        0 -1 2 5.0054118037223816e-03</internalNodes>
      <leafValues>
        -6.2837487459182739e-01 7.9830819740891457e-03</leafValues></_>
    <_>
      <internalNodes>
        0 -1 44 2.3928180336952209e-02</internalNodes>
      <leafValues>
        -5.8907616883516312e-02 1.0445171594619751e-01</leafValues></_>
    <_>
      <internalNodes>
        0 -1 25 8.7661538273096085e-03</internalNodes>
      <leafValues>
        1.4290502667427063e-01 -4.4178269803524017e-02</leafValues></_>
    <_>
      <internalNodes>
        0 -1 61 1.1442204006016254e-02</internalNodes>
      <leafValues>
        -1.4217582345008850e-01 5.2075564861297607e-02</leafValues></_>
    <_>
      <internalNodes>
        0 -1 140 5.7136032730340958e-02</internalNodes>
      <leafValues>
        1.3261144980788231e-02 -4.5989415049552917e-01</leafValues></_>
    <_>
      <internalNodes>
        0 -1 80 2.3408183827996254e-02</internalNodes>
      <leafValues>
        4.4578492641448975e-02 -1.3434684276580811e-01</leafValues></_>
    <_>
      <internalNodes>
        0 -1 48 3.6471555940806866e-03</internalNodes>
      <leafValues>
        6.9013166427612305e-01 -9.1676786541938782e-03</leafValues></_>
    <_>
      <internalNodes>
        0 -1 119 6.9163843989372253e-02</internalNodes>
      <leafValues>
        1.4054592698812485e-02 -4.6686631441116333e-01</leafValues></_>
    <_>
      <internalNodes>
        0 -1 24 1.6153547912836075e-03</internalNodes>
      <leafValues>
        3.7294235825538635e-01 -1.8773915246129036e-02</leafValues></_>
    <_>
      <internalNodes>
        0 -1 17 3.0321316793560982e-02</internalNodes>
      <leafValues>
        -2.9130158945918083e-02 1.9049917161464691e-01</leafValues></_>
    <_>
      <internalNodes>
        0 -1 64 1.3720309361815453e-03</internalNodes>
      <leafValues>
        -4.7559121251106262e-01 1.3142355717718601e-02</leafValues></_>
    <_>
      <internalNodes>
        0 -1 28 6.8087894469499588e-03</internalNodes>
      <leafValues>
        1.5159709751605988e-01 -3.9663113653659821e-02</leafValues></_>
    <_>
      <internalNodes>
        0 -1 100 2.6011027395725250e-02</internalNodes>
      <leafValues>
        -6.0183681547641754e-02 1.1048505455255508e-01</leafValues></_>
    <_>
      <internalNodes>
        0 -1 104 3.6967583000659943e-02</internalNodes>
      <leafValues>
        -4.0085949003696442e-02 1.5482757985591888e-01</leafValues></_>
    <_>
      <internalNodes>
        0 -1 126 1.1105752550065517e-02</internalNodes>
      <leafValues>
        -1.3077475130558014e-01 4.5511037111282349e-02</leafValues></_>
    <_>
      <internalNodes>
        0 -1 13 4.2142480611801147e-02</internalNodes>
      <leafValues>
        -1.0562735795974731e-01 6.1336506158113480e-02</leafValues></_>
    <_>
      <internalNodes>
        0 -1 43 1.8172431737184525e-02</internalNodes>
      <leafValues>
        -7.2840318083763123e-02 8.5874736309051514e-02</leafValues></_>
    <_>
      <internalNodes>
        0 -1 74 2.2405140101909637e-02</internalNodes>
      <leafValues>
        -1.3243889808654785e-01 5.3954720497131348e-02</leafValues></_>
    <_>
      <internalNodes>
        0 -1 31 4.5765399932861328e-02</internalNodes>
      <leafValues>
        -6.2508881092071533e-02 1.0878859460353851e-01</leafValues></_>
    <_>
      <internalNodes>
        0 -1 103 1.8412729725241661e-02</internalNodes>
      <leafValues>
        1.9292065501213074e-01 -4.3090712279081345e-02</leafValues></_>
    <_>
      <internalNodes>
        0 -1 95 3.6405941937118769e-03</internalNodes>
      <leafValues>
        3.2045117020606995e-01 -1.5151497907936573e-02</leafValues></_>
    <_>
      <internalNodes>
        0 -1 116 6.4426782773807645e-04</internalNodes>
      <leafValues>
        -4.2986664175987244e-01 1.3127733953297138e-02</leafValues></_>
    <_>
      <internalNodes>
        0 -1 90 4.2487747967243195e-02</internalNodes>
      <leafValues>
        1.9221313297748566e-02 -2.6031664013862610e-01</leafValues></_>
    <_>
      <internalNodes>
        0 -1 13 5.3201690316200256e-03</internalNodes>
      <leafValues>
        -1. 4.8999022692441940e-03</leafValues></_>
    <_>
      <internalNodes>
        0 -1 47 6.3247233629226685e-02</internalNodes>
      <leafValues>
        -2.0012456923723221e-02 3.3730643987655640e-01</leafValues></_>
    <_>
      <internalNodes>
        0 -1 74 1.0365670919418335e-01</internalNodes>
      <leafValues>
        9.2819677665829659e-03 -7.4589854478836060e-01</leafValues></_>
    <_>
      <internalNodes>
        0 -1 119 4.2428872548043728e-03</internalNodes>
      <leafValues>
        3.0587196350097656e-01 -2.0280033349990845e-02</leafValues></_>
    <_>
      <internalNodes>
        0 -1 37 3.8102358579635620e-02</internalNodes>
      <leafValues>
        -4.3009545654058456e-02 1.1677349358797073e-01</leafValues></_>
    <_>
      <internalNodes>
        0 -1 59 2.8941696509718895e-03</internalNodes>
      <leafValues>
        -3.5882616043090820e-01 1.5771571546792984e-02</leafValues></_>
    <_>
      <internalNodes>
        0 -1 8 7.6639011502265930e-02</internalNodes>
      <leafValues>
        7.1956799365580082e-03 -7.4512088298797607e-01</leafValues></_>
    <_>
      <internalNodes>
        0 -1 108 7.7084399759769440e-02</internalNodes>
      <leafValues>
        -7.7845696359872818e-03 8.9231258630752563e-01</leafValues></_></weakClassifiers></stage11>
</opencv_storage>
