<?xml version="1.0"?>
<opencv_storage>
<stage16>
  <maxWeakCount>100</maxWeakCount>
  <stageThreshold>-1.2834168672561646e+00</stageThreshold>
  <weakClassifiers>
    <_>
      <internalNodes>
        0 -1 63 5.5399537086486816e-02</internalNodes>
      <leafValues>
        -3.7477585673332214e-01 1.4465409517288208e-01</leafValues></_>
    <_>
      <internalNodes>
        0 -1 46 8.0808550119400024e-03</internalNodes>
      <leafValues>
        2.1481287479400635e-01 -1.1259822547435760e-01</leafValues></_>
    <_>
      <internalNodes>
        0 -1 100 4.8928186297416687e-02</internalNodes>
      <leafValues>
        -4.6596240252256393e-02 3.4185108542442322e-01</leafValues></_>
    <_>
      <internalNodes>
        0 -1 86 6.0031540691852570e-02</internalNodes>
      <leafValues>
        -5.2893713116645813e-02 2.9801490902900696e-01</leafValues></_>
    <_>
      <internalNodes>
        0 -1 130 4.6695978380739689e-03</internalNodes>
      <leafValues>
        6.1253458261489868e-01 -2.2882124409079552e-02</leafValues></_>
    <_>
      <internalNodes>
        0 -1 52 1.4489287510514259e-02</internalNodes>
      <leafValues>
        9.8201669752597809e-02 -1.2767216563224792e-01</leafValues></_>
    <_>
      <internalNodes>
        0 -1 132 6.3463181257247925e-02</internalNodes>
      <leafValues>
        -2.4940652772784233e-02 4.2420223355293274e-01</leafValues></_>
    <_>
      <internalNodes>
        0 -1 134 9.6145994961261749e-02</internalNodes>
      <leafValues>
        2.0538136363029480e-02 -6.0506844520568848e-01</leafValues></_>
    <_>
      <internalNodes>
        0 -1 66 3.1363688409328461e-02</internalNodes>
      <leafValues>
        9.2536076903343201e-02 -1.2546169757843018e-01</leafValues></_>
    <_>
      <internalNodes>
        0 -1 93 5.4481279104948044e-02</internalNodes>
      <leafValues>
        -1.9676376134157181e-02 2.6003140211105347e-01</leafValues></_>
    <_>
      <internalNodes>
        0 -1 2 6.4197197556495667e-02</internalNodes>
      <leafValues>
        -5.4139558225870132e-02 2.6341670751571655e-01</leafValues></_>
    <_>
      <internalNodes>
        0 -1 56 1.8718350678682327e-02</internalNodes>
      <leafValues>
        9.8661817610263824e-02 -1.0448496788740158e-01</leafValues></_>
    <_>
      <internalNodes>
        0 -1 131 9.9247309844940901e-04</internalNodes>
      <leafValues>
        7.4524646997451782e-01 -1.1652124114334583e-02</leafValues></_>
    <_>
      <internalNodes>
        0 -1 21 3.6639668047428131e-02</internalNodes>
      <leafValues>
        6.8544887006282806e-02 -1.0978551208972931e-01</leafValues></_>
    <_>
      <internalNodes>
        0 -1 6 1.3518159277737141e-02</internalNodes>
      <leafValues>
        1.0899628698825836e-01 -7.9778321087360382e-02</leafValues></_>
    <_>
      <internalNodes>
        0 -1 107 6.7634910345077515e-02</internalNodes>
      <leafValues>
        1.5088079497218132e-02 -4.0831586718559265e-01</leafValues></_>
    <_>
      <internalNodes>
        0 -1 106 2.7550658211112022e-02</internalNodes>
      <leafValues>
        -4.8956885933876038e-02 1.3942736387252808e-01</leafValues></_>
    <_>
      <internalNodes>
        0 -1 19 1.9183568656444550e-03</internalNodes>
      <leafValues>
        3.3920252323150635e-01 -1.6478940844535828e-02</leafValues></_>
    <_>
      <internalNodes>
        0 -1 55 5.0996229052543640e-02</internalNodes>
      <leafValues>
        -3.0756335705518723e-02 2.4379453063011169e-01</leafValues></_>
    <_>
      <internalNodes>
        0 -1 117 4.7830063849687576e-02</internalNodes>
      <leafValues>
        -2.2039510309696198e-02 3.6927771568298340e-01</leafValues></_>
    <_>
      <internalNodes>
        0 -1 102 4.5380811206996441e-03</internalNodes>
      <leafValues>
        -4.3412038683891296e-01 1.7132520675659180e-02</leafValues></_>
    <_>
      <internalNodes>
        0 -1 101 2.8902008198201656e-03</internalNodes>
      <leafValues>
        4.2157953977584839e-01 -2.2825798019766808e-02</leafValues></_>
    <_>
      <internalNodes>
        0 -1 53 4.4596984982490540e-02</internalNodes>
      <leafValues>
        1.7884001135826111e-02 -4.2623835802078247e-01</leafValues></_>
    <_>
      <internalNodes>
        0 -1 65 4.9715392291545868e-02</internalNodes>
      <leafValues>
        2.4917244911193848e-02 -2.6280698180198669e-01</leafValues></_>
    <_>
      <internalNodes>
        0 -1 100 2.4177365005016327e-02</internalNodes>
      <leafValues>
        -8.1777952611446381e-02 1.0484771430492401e-01</leafValues></_>
    <_>
      <internalNodes>
        0 -1 3 5.0361022353172302e-02</internalNodes>
      <leafValues>
        -7.7527791261672974e-02 1.0088243335485458e-01</leafValues></_>
    <_>
      <internalNodes>
        0 -1 43 2.8908450156450272e-02</internalNodes>
      <leafValues>
        -5.1024466753005981e-02 1.6028146445751190e-01</leafValues></_>
    <_>
      <internalNodes>
        0 -1 82 2.3733716458082199e-02</internalNodes>
      <leafValues>
        5.5272690951824188e-02 -1.3415764272212982e-01</leafValues></_>
    <_>
      <internalNodes>
        0 -1 32 1.0366179049015045e-03</internalNodes>
      <leafValues>
        5.6944859027862549e-01 -1.3070283457636833e-02</leafValues></_>
    <_>
      <internalNodes>
        0 -1 122 3.0895002186298370e-02</internalNodes>
      <leafValues>
        -7.3128417134284973e-02 9.4423897564411163e-02</leafValues></_>
    <_>
      <internalNodes>
        0 -1 50 2.6231523603200912e-02</internalNodes>
      <leafValues>
        8.6475864052772522e-02 -1.0878862440586090e-01</leafValues></_>
    <_>
      <internalNodes>
        0 -1 4 9.8990485072135925e-02</internalNodes>
      <leafValues>
        1.8491007387638092e-02 -3.3429208397865295e-01</leafValues></_>
    <_>
      <internalNodes>
        0 -1 14 2.2791028022766113e-03</internalNodes>
      <leafValues>
        -8.0215078592300415e-01 8.7892888113856316e-03</leafValues></_>
    <_>
      <internalNodes>
        0 -1 75 1.7175721004605293e-02</internalNodes>
      <leafValues>
        -2.8689461946487427e-01 2.1250635385513306e-02</leafValues></_>
    <_>
      <internalNodes>
        0 -1 85 3.1416021287441254e-02</internalNodes>
      <leafValues>
        1.5717433393001556e-01 -4.5069053769111633e-02</leafValues></_>
    <_>
      <internalNodes>
        0 -1 102 1.2228368222713470e-01</internalNodes>
      <leafValues>
        7.1199163794517517e-03 -8.8394218683242798e-01</leafValues></_>
    <_>
      <internalNodes>
        0 -1 45 3.4706827718764544e-03</internalNodes>
      <leafValues>
        1.9653600454330444e-01 -3.9461109787225723e-02</leafValues></_>
    <_>
      <internalNodes>
        0 -1 59 2.9989324510097504e-02</internalNodes>
      <leafValues>
        4.7397501766681671e-02 -1.4800684154033661e-01</leafValues></_>
    <_>
      <internalNodes>
        0 -1 133 2.0557761192321777e-02</internalNodes>
      <leafValues>
        -9.1056041419506073e-02 8.5432425141334534e-02</leafValues></_>
    <_>
      <internalNodes>
        0 -1 61 3.3483725041151047e-02</internalNodes>
      <leafValues>
        4.3706428259611130e-02 -1.6779397428035736e-01</leafValues></_>
    <_>
      <internalNodes>
        0 -1 138 7.6919421553611755e-02</internalNodes>
      <leafValues>
        -2.0309373736381531e-02 2.9640078544616699e-01</leafValues></_>
    <_>
      <internalNodes>
        0 -1 122 8.6077600717544556e-03</internalNodes>
      <leafValues>
        -2.3438890278339386e-01 3.0275829136371613e-02</leafValues></_>
    <_>
      <internalNodes>
        0 -1 128 6.8378984928131104e-02</internalNodes>
      <leafValues>
        -1.5238041989505291e-02 4.4258296489715576e-01</leafValues></_>
    <_>
      <internalNodes>
        0 -1 142 6.5238401293754578e-02</internalNodes>
      <leafValues>
        -1.3195533305406570e-02 4.4639694690704346e-01</leafValues></_>
    <_>
      <internalNodes>
        0 -1 120 4.2426291853189468e-02</internalNodes>
      <leafValues>
        -7.6663672924041748e-02 9.0702727437019348e-02</leafValues></_>
    <_>
      <internalNodes>
        0 -1 50 9.6879189368337393e-04</internalNodes>
      <leafValues>
        7.0113742351531982e-01 -9.7307246178388596e-03</leafValues></_>
    <_>
      <internalNodes>
        0 -1 3 5.8224992826581001e-03</internalNodes>
      <leafValues>
        6.5823322534561157e-01 -9.5912283286452293e-03</leafValues></_>
    <_>
      <internalNodes>
        0 -1 87 2.4071428924798965e-02</internalNodes>
      <leafValues>
        -7.6877132058143616e-02 7.9562455415725708e-02</leafValues></_>
    <_>
      <internalNodes>
        0 -1 142 2.9458422795869410e-04</internalNodes>
      <leafValues>
        4.6089163422584534e-01 -1.7371473833918571e-02</leafValues></_>
    <_>
      <internalNodes>
        0 -1 69 1.4552621170878410e-02</internalNodes>
      <leafValues>
        -1.0891614854335785e-01 5.9860274195671082e-02</leafValues></_>
    <_>
      <internalNodes>
        0 -1 141 7.1021909825503826e-03</internalNodes>
      <leafValues>
        1.8651790916919708e-01 -4.3670985847711563e-02</leafValues></_>
    <_>
      <internalNodes>
        0 -1 51 3.6879102699458599e-03</internalNodes>
      <leafValues>
        2.1767149865627289e-01 -3.4068770706653595e-02</leafValues></_>
    <_>
      <internalNodes>
        0 -1 113 6.8521043285727501e-03</internalNodes>
      <leafValues>
        -2.2739222645759583e-01 3.1993634998798370e-02</leafValues></_>
    <_>
      <internalNodes>
        0 -1 64 1.4362478256225586e-01</internalNodes>
      <leafValues>
        6.0073882341384888e-03 -1.</leafValues></_>
    <_>
      <internalNodes>
        0 -1 108 4.9041673541069031e-02</internalNodes>
      <leafValues>
        -1.8641335889697075e-02 3.1414306163787842e-01</leafValues></_>
    <_>
      <internalNodes>
        0 -1 9 1.9553329795598984e-02</internalNodes>
      <leafValues>
        6.0046408325433731e-02 -1.1869775503873825e-01</leafValues></_>
    <_>
      <internalNodes>
        0 -1 9 1.0240548290312290e-02</internalNodes>
      <leafValues>
        -1.1502169817686081e-01 5.9709906578063965e-02</leafValues></_>
    <_>
      <internalNodes>
        0 -1 64 4.8225715756416321e-02</internalNodes>
      <leafValues>
        -3.2776709645986557e-02 1.9268150627613068e-01</leafValues></_>
    <_>
      <internalNodes>
        0 -1 51 1.2435404642019421e-04</internalNodes>
      <leafValues>
        -5.4707866907119751e-01 1.0170632041990757e-02</leafValues></_>
    <_>
      <internalNodes>
        0 -1 53 1.0398038430139422e-03</internalNodes>
      <leafValues>
        3.3470815420150757e-01 -2.2571869194507599e-02</leafValues></_>
    <_>
      <internalNodes>
        0 -1 125 5.6113004684448242e-03</internalNodes>
      <leafValues>
        -1.9607669115066528e-01 3.7008579820394516e-02</leafValues></_>
    <_>
      <internalNodes>
        0 -1 75 1.4476735889911652e-01</internalNodes>
      <leafValues>
        7.4219275265932083e-03 -6.5849739313125610e-01</leafValues></_>
    <_>
      <internalNodes>
        0 -1 77 4.7262128442525864e-02</internalNodes>
      <leafValues>
        -3.0013464391231537e-02 2.3239716887474060e-01</leafValues></_>
    <_>
      <internalNodes>
        0 -1 15 1.4547971077263355e-02</internalNodes>
      <leafValues>
        1.2085519731044769e-01 -6.0634620487689972e-02</leafValues></_>
    <_>
      <internalNodes>
        0 -1 48 8.8562369346618652e-03</internalNodes>
      <leafValues>
        2.6563957333564758e-01 -2.0805288106203079e-02</leafValues></_>
    <_>
      <internalNodes>
        0 -1 136 2.5787796825170517e-02</internalNodes>
      <leafValues>
        5.7893384248018265e-02 -1.0482380539178848e-01</leafValues></_>
    <_>
      <internalNodes>
        0 -1 64 7.4635543860495090e-03</internalNodes>
      <leafValues>
        -2.0639970898628235e-01 3.5572472959756851e-02</leafValues></_>
    <_>
      <internalNodes>
        0 -1 91 4.1966908611357212e-03</internalNodes>
      <leafValues>
        2.1292667090892792e-01 -3.0397288501262665e-02</leafValues></_>
    <_>
      <internalNodes>
        0 -1 18 3.7497463636100292e-03</internalNodes>
      <leafValues>
        -2.7914032340049744e-01 2.4238672107458115e-02</leafValues></_>
    <_>
      <internalNodes>
        0 -1 111 2.2074393928050995e-02</internalNodes>
      <leafValues>
        -1.4558786153793335e-01 4.1598092764616013e-02</leafValues></_>
    <_>
      <internalNodes>
        0 -1 133 4.5749071985483170e-02</internalNodes>
      <leafValues>
        -3.0027028173208237e-02 2.0753039419651031e-01</leafValues></_>
    <_>
      <internalNodes>
        0 -1 65 3.5161912441253662e-02</internalNodes>
      <leafValues>
        -4.6895153820514679e-02 1.5707306563854218e-01</leafValues></_>
    <_>
      <internalNodes>
        0 -1 105 5.0865482538938522e-02</internalNodes>
      <leafValues>
        -2.3244695737957954e-02 2.9633080959320068e-01</leafValues></_>
    <_>
      <internalNodes>
        0 -1 120 7.4748387560248375e-03</internalNodes>
      <leafValues>
        -3.2919585704803467e-01 1.9988110288977623e-02</leafValues></_>
    <_>
      <internalNodes>
        0 -1 56 6.7505151033401489e-02</internalNodes>
      <leafValues>
        8.9911930263042450e-03 -5.1120048761367798e-01</leafValues></_>
    <_>
      <internalNodes>
        0 -1 57 3.9082605391740799e-02</internalNodes>
      <leafValues>
        -5.9230435639619827e-02 1.1184196919202805e-01</leafValues></_>
    <_>
      <internalNodes>
        0 -1 118 3.9453335106372833e-02</internalNodes>
      <leafValues>
        -3.1361155211925507e-02 2.2020854055881500e-01</leafValues></_>
    <_>
      <internalNodes>
        0 -1 119 8.6107209790498018e-04</internalNodes>
      <leafValues>
        5.7166749238967896e-01 -1.0917900130152702e-02</leafValues></_>
    <_>
      <internalNodes>
        0 -1 65 5.2299313247203827e-02</internalNodes>
      <leafValues>
        2.3808328434824944e-02 -2.6583239436149597e-01</leafValues></_>
    <_>
      <internalNodes>
        0 -1 80 2.3144349455833435e-02</internalNodes>
      <leafValues>
        4.6549741178750992e-02 -1.2850701808929443e-01</leafValues></_>
    <_>
      <internalNodes>
        0 -1 17 3.8724586367607117e-02</internalNodes>
      <leafValues>
        -1.9833397120237350e-02 3.2509258389472961e-01</leafValues></_>
    <_>
      <internalNodes>
        0 -1 6 5.0257895054528490e-05</internalNodes>
      <leafValues>
        -6.4170730113983154e-01 7.1377456188201904e-03</leafValues></_>
    <_>
      <internalNodes>
        0 -1 106 4.8110391944646835e-02</internalNodes>
      <leafValues>
        -2.0392898470163345e-02 2.8062427043914795e-01</leafValues></_>
    <_>
      <internalNodes>
        0 -1 43 1.0980815626680851e-02</internalNodes>
      <leafValues>
        -1.0736665874719620e-01 5.0344523042440414e-02</leafValues></_>
    <_>
      <internalNodes>
        0 -1 6 3.1613990664482117e-02</internalNodes>
      <leafValues>
        2.8643548488616943e-02 -2.0466822385787964e-01</leafValues></_>
    <_>
      <internalNodes>
        0 -1 20 7.6313525438308716e-02</internalNodes>
      <leafValues>
        -8.7031619623303413e-03 7.4659293889999390e-01</leafValues></_>
    <_>
      <internalNodes>
        0 -1 42 4.2269196361303329e-02</internalNodes>
      <leafValues>
        -2.3773100227117538e-02 2.4121822416782379e-01</leafValues></_>
    <_>
      <internalNodes>
        0 -1 114 1.9870623946189880e-03</internalNodes>
      <leafValues>
        2.5109031796455383e-01 -2.6118975132703781e-02</leafValues></_>
    <_>
      <internalNodes>
        0 -1 78 6.7313751205801964e-03</internalNodes>
      <leafValues>
        -1.7540843784809113e-01 3.6066945642232895e-02</leafValues></_>
    <_>
      <internalNodes>
        0 -1 3 8.2656517624855042e-02</internalNodes>
      <leafValues>
        -3.4469913691282272e-02 1.7937700450420380e-01</leafValues></_>
    <_>
      <internalNodes>
        0 -1 91 3.2053090631961823e-02</internalNodes>
      <leafValues>
        -3.9486080408096313e-02 1.4770351350307465e-01</leafValues></_>
    <_>
      <internalNodes>
        0 -1 91 2.4587722495198250e-02</internalNodes>
      <leafValues>
        5.7427141815423965e-02 -1.1456614732742310e-01</leafValues></_>
    <_>
      <internalNodes>
        0 -1 4 3.6846116185188293e-02</internalNodes>
      <leafValues>
        8.8611975312232971e-02 -6.2717139720916748e-02</leafValues></_>
    <_>
      <internalNodes>
        0 -1 45 2.0258251577615738e-02</internalNodes>
      <leafValues>
        4.7860186547040939e-02 -1.2307231873273849e-01</leafValues></_>
    <_>
      <internalNodes>
        0 -1 96 9.9041804671287537e-02</internalNodes>
      <leafValues>
        6.6205654293298721e-03 -8.5129278898239136e-01</leafValues></_>
    <_>
      <internalNodes>
        0 -1 69 3.8795135915279388e-02</internalNodes>
      <leafValues>
        -3.8431625813245773e-02 1.6423445940017700e-01</leafValues></_>
    <_>
      <internalNodes>
        0 -1 21 4.4147934764623642e-02</internalNodes>
      <leafValues>
        4.6223655343055725e-02 -1.2695024907588959e-01</leafValues></_>
    <_>
      <internalNodes>
        0 -1 138 3.0283102765679359e-02</internalNodes>
      <leafValues>
        -7.2714351117610931e-02 7.4661023914813995e-02</leafValues></_>
    <_>
      <internalNodes>
        0 -1 137 1.9890043884515762e-02</internalNodes>
      <leafValues>
        7.9105600714683533e-02 -9.2044271528720856e-02</leafValues></_>
    <_>
      <internalNodes>
        0 -1 101 1.2352890335023403e-02</internalNodes>
      <leafValues>
        -1.5383519232273102e-01 5.3085759282112122e-02</leafValues></_></weakClassifiers></stage16>
</opencv_storage>
